89 300
/person/artist/director 0.0277856 -0.0179866 -0.0426433 0.0350239 0.0493824 0.0628962 0.0261618 -0.0207366 -0.0226812 0.0251416 0.0477836 -0.0378966 -0.0785166 -0.0342867 0.00413778 0.0315032 0.0979426 -0.101962 0.0686995 -0.0189477 0.0113661 0.0156134 0.00882188 0.052269 -0.0455052 0.0251104 -0.0123044 0.0190133 -0.0127405 -0.00352546 -0.00554447 6.15497e-05 -0.0288131 -0.000696729 -0.0136377 -0.00830139 0.00148703 0.00634567 0.00608195 -0.000734747 -0.020176 -0.0163319 0.0390731 0.0319385 0.0356878 0.0274036 -0.0112055 0.0260812 -0.00878562 -0.00705669 -0.00825734 -0.0138776 0.00572332 0.0886355 0.046571 -0.0209808 0.0313215 0.0194585 -0.015774 -0.0295797 -0.0115454 0.055067 -0.0351913 0.044946 -0.0138186 -0.000707724 0.00270023 -0.0393374 -0.0148468 0.00470243 0.00493828 -0.0123311 -0.016012 0.012773 0.011274 -0.0156693 0.0249182 0.0115052 -0.0155533 0.0011396 -0.00363778 0.0165999 -0.00946023 0.0134245 -0.0235636 0.0644089 -0.00266483 0.0319216 -0.00401841 -0.00203952 -0.00118753 0.00413895 -0.0117507 0.016113 0.00390444 -0.028004 -0.00475948 0.00408221 0.0786984 -0.0519469 0.0478729 -0.0372286 -0.0062295 0.0276838 -0.0215664 -0.0385786 -0.033404 -0.0118183 -0.00170293 -0.00817082 -0.0152494 -0.0196836 -0.00335658 0.0130127 0.00877471 0.00486561 0.0144871 0.0448504 -0.0161056 0.0149853 -0.0106419 -0.014192 0.00472142 0.00951427 -0.115316 -0.046094 0.0745778 -0.00395688 -0.0480925 -0.0281771 -0.0348064 -0.00857913 0.00724742 -0.0110617 0.033916 -0.0106127 0.0280609 0.021318 0.00664233 0.0101577 0.0110322 0.000159349 -0.0224662 0.124115 -0.0112573 0.0289326 -0.00299901 -0.00834499 0.0103707 0.0745144 0.028813 0.0182319 -0.00599262 -0.0161266 0.027402 0.0124196 -0.031011 0.00819763 -0.000416791 -0.061331 -0.00373065 -0.0362632 -0.0470885 0.0083603 0.0181045 -0.00328319 0.0144719 0.00946096 -0.0171701 -0.0242367 -0.0271544 0.000344104 0.00318352 0.047724 0.020448 -0.0569472 0.0457433 0.0500911 0.00285989 0.0108511 -0.0017815 -0.00993772 -0.0920222 0.0304997 -0.0748174 0.0936793 -0.0133538 0.0475165 0.0318854 0.0811506 -0.00102514 0.0120461 0.0484414 -0.0499166 -0.0167499 -0.0156419 0.0125133 0.0444387 -0.0479091 -0.0222614 -0.0431907 0.0391322 0.0171644 0.0250549 -0.0618797 -0.00584441 0.00963858 -0.0235021 0.0157837 -0.00900055 -0.0309074 0.0415432 -0.0152329 -0.0448572 0.0314253 0.0510051 -0.00376829 0.0268565 -0.0377504 -0.0894456 0.0062251 0.00499997 0.0773937 0.0533484 0.0350216 0.0302584 0.0144216 -0.063226 0.0135151 0.00408119 -0.00661413 0.00741922 0.0310329 0.0684987 0.0496136 -0.00583777 0.0510796 0.00706197 0.0746181 -0.0440032 0.00722785 0.0183401 -0.0117644 -0.027831 -0.00889597 0.0142455 -0.0155839 0.0081962 -0.0492906 -0.0661058 0.0495646 0.0559441 0.0202662 -0.0393502 0.0962441 0.00991107 0.0112794 0.00144255 -0.0109143 -0.011554 0.0299814 -0.043836 -0.00710848 0.00987095 -0.0384827 -0.033778 0.0201005 -0.0251103 -0.00886388 0.000543964 0.00728807 -0.0399101 0.0116832 -0.000515833 0.00431024 -0.0204695 0.0295919 0.060073 -0.0154861 -0.032085 -0.00603078 -0.0317321 0.0210705 -0.0633895 0.00787476 8.60173e-05 0.000344879 0.00257074 -0.0142965 0.013829 -0.0247248 -0.00269285 0.00338868 0.0403194 0.0206458 0.0113577 0.00522244 -0.00702154 -0.0280185 -0.00866315
/location/transit 0.0412276 -0.0189893 -0.0480502 -0.0358259 0.0504063 0.0387312 0.00892746 -0.0111716 0.0364108 0.00350375 -0.0152746 0.0345644 -0.0205605 0.00052207 -0.00188171 -0.0117685 -0.0159525 -0.00793252 -0.00394869 0.00745867 -0.019393 -0.015235 0.0260231 -0.00959206 0.00114222 0.0315666 -0.0466948 -0.00671747 -0.0375841 -0.0147289 0.0273648 -0.0143234 0.0184507 -0.0280917 -0.0682368 -0.0282819 -0.0397575 -0.0060181 -0.0202375 0.0247393 0.0123488 -0.0112779 0.0130627 0.067951 -0.0637973 -0.0354772 0.0297814 0.0279146 -0.0232171 -0.00923213 0.00931899 -0.00284982 -0.0286529 0.0466958 0.0117447 -0.0309707 0.0339187 -0.0406088 -0.0533127 0.0117469 -0.0140641 0.00535755 0.000522974 0.0148163 0.0022134 -0.0231017 0.0303824 0.0233211 -0.0172457 0.0406587 0.0236443 0.0252046 -0.0241187 -0.000335136 0.020168 -0.0196295 -0.0269891 -0.0400787 -0.0178073 -0.0250394 -0.00605741 0.0150063 0.013207 0.00245648 -0.0214777 0.00448172 0.0163365 -0.0234565 0.0246486 -0.00440714 -0.0218551 -0.00622652 -0.00546344 0.00952187 -0.00342116 -0.0244152 -0.015512 0.00854136 0.0738456 -0.0281011 -0.0161964 0.00499391 0.0113678 0.00796892 0.0213426 -0.0479167 -0.0118605 0.00306125 0.00567092 -0.00403828 0.00404607 -0.016212 0.00389989 -0.0072754 -0.058363 -0.0398306 0.00627594 0.0362788 -0.0238272 0.0222018 0.0552193 0.0273803 0.0120343 0.0640511 -0.0448891 -0.00372915 0.019697 -0.00277837 -0.0429471 -0.00173217 -0.0583792 -0.052793 0.00810338 -0.0195445 -0.00617395 0.0411622 0.0163201 0.0354281 -0.0133226 -0.0204826 0.00493051 -0.00858233 -0.038354 0.0479282 -0.00890548 0.0210481 0.0266119 -0.0142972 0.0479261 0.00101078 0.0671246 0.000508263 0.0111702 -0.0147531 0.00190801 0.0056267 -0.0586955 -0.00629354 -0.0547417 -0.0586528 0.00616026 -0.0698752 -0.048225 0.0205105 -0.0265336 -0.00251569 -0.00709979 0.00677535 0.00125355 -0.000865265 -0.0230477 -0.00765592 -0.0501126 0.0373189 -0.0277633 -0.00504102 0.026396 0.0468838 -0.030624 -0.0180452 -0.01638 -0.0484278 -0.113071 0.0538659 -0.0604369 0.0533466 -0.0305151 0.0649651 0.0331432 0.0195425 -0.00746415 -0.0190231 0.0612177 -0.0562752 -0.0312228 -0.0210586 -0.0107094 0.0655585 -0.0196684 -0.0393536 -0.00780502 0.00136555 0.000964121 0.00566591 -0.0284444 0.0517884 -0.00345486 0.0246857 0.00750572 -0.0286786 -0.0346072 0.0235285 0.0128601 -0.0118505 0.0618826 0.0124632 0.0375211 0.0175143 0.00996898 -0.0761887 0.0169229 0.0165686 0.0690787 0.044946 0.0146311 -0.0325209 -0.00756801 -0.0222473 -0.00885075 -0.0307626 0.000619833 -0.0165351 0.0162197 -0.0182742 0.0376881 0.00851217 0.038518 0.0111064 0.0396179 -0.00841374 0.0409349 0.0402908 -0.00677267 -0.0366159 -0.0251435 0.040442 -0.00616312 0.022327 -0.00564855 -0.0620522 -0.00421035 0.0193823 0.029815 -0.0148152 0.0724988 0.0557833 0.0306611 -0.00213112 -0.0346338 0.0141689 0.0545086 -0.0474461 -0.0534563 0.0521562 -0.0323437 -0.0475431 0.0404239 -0.0283633 -0.0127524 -0.00976685 0.00461164 -0.0102742 0.00466523 -0.0267064 0.0577463 -0.00326981 0.0163165 0.00781622 -0.0130126 -0.0511817 0.012382 0.00982212 0.0104261 -0.0638661 0.0225764 -0.0287103 -0.0399016 -0.00156708 -0.00401814 -0.000887892 -0.0132744 0.00957616 -0.0470709 0.0181409 0.0198576 -0.0124718 -0.00517348 0.0185176 -0.00274486 0.0223633
/location/country -0.0237608 0.00740803 0.0426546 0.00501828 0.0069339 0.0195919 -0.0168638 -0.0081608 -0.0373583 -0.00749523 0.0478841 0.00385831 -0.00187368 -0.00727636 0.0179424 0.00604894 0.0108313 -0.0336506 0.00985907 -0.0155003 0.0634614 0.0322937 -0.0313759 0.0371533 -0.0574901 -0.0371678 -0.0168242 0.0345699 0.00948846 0.00486983 0.0326752 0.00920187 0.0116284 -0.00995922 -0.0301723 -0.0267377 -0.0226117 0.0182968 0.0422308 -0.0100839 0.0471646 0.0403913 0.0112092 0.00278335 -0.107217 -0.0101594 0.090032 0.0451941 -0.107179 -0.00323125 0.0188685 -0.00677207 -0.00372143 0.105192 0.0428906 -0.00632532 0.0608291 0.0388127 -0.0108244 0.00201979 0.0140808 0.0145812 -0.00171588 -0.0184232 0.013585 -0.020352 -0.0083906 -0.0119613 -0.0207358 0.0369465 0.0563129 0.0591891 -0.00268187 0.0026172 -0.0267493 -0.00127225 0.0221053 -0.00074916 -0.0219679 -0.0286176 0.00150779 0.0181724 -0.021969 0.00490615 -0.0231042 0.0338886 -0.015369 -0.0255832 0.0251166 -0.0214598 -0.0146321 -0.0224873 -0.00120469 -0.0244882 0.0107264 -0.0509101 -0.000206943 0.00140408 0.0386884 -0.0420453 -0.00216452 0.000934309 0.018378 0.000275374 0.00655626 -0.010903 -0.0288263 -0.0204488 0.0140988 -0.0198211 0.00645901 -0.0251574 -0.0259509 -0.0115144 -0.055405 -0.045382 0.00399453 0.0676236 0.0590822 0.00653315 0.0667963 0.0387119 0.00899605 0.0139132 -0.030037 -0.0354313 0.0407302 -0.013371 0.00716217 0.00834455 -0.0435844 -0.0505571 -0.00429379 -0.00750822 -0.018378 0.00342012 -0.0174293 0.0417592 -0.0191942 -0.0240422 0.0152348 -0.0448422 -0.0300522 0.0663774 -0.00146891 0.00172404 0.0181207 0.0276375 0.0310254 -0.00034546 -0.0299807 0.00222197 0.0189043 -0.0183986 0.0135817 0.00204497 -0.0483131 0.0142294 0.00499713 -0.0476037 -0.0165598 0.00997876 0.00140343 0.00340056 0.00356805 0.0226452 -0.035466 0.0137287 0.0059828 -0.0124088 -0.0210521 0.00255415 0.0223461 0.0332508 -0.0411517 -0.0162925 -0.0623309 -0.00686919 -0.0323414 -0.0106888 -0.0169608 -0.00188931 -0.0718552 0.0450133 -0.0241978 -0.029329 0.0180185 0.0639057 -0.0075909 0.019657 -0.0203652 0.00262464 0.0279204 0.00363323 -0.02069 0.0145955 -0.00203164 0.0109497 0.0118307 -0.0119796 -0.0308877 0.0105991 0.0211791 0.0430988 -0.00973911 0.00372298 -0.00746654 -0.0133118 -0.0285973 -0.00400719 -0.00826473 -0.017145 0.0185468 -0.0366099 0.0349604 0.115889 -0.0065087 0.0238618 -0.022204 -0.0788288 0.0140844 -0.0272978 0.0681493 0.0034479 -0.0226558 -0.0145321 -0.0396276 -0.0748166 -0.0304038 -0.0157093 0.011009 0.00169117 -0.0463193 0.0822865 0.0605975 0.0211438 0.0336193 0.0157619 0.0728428 0.00562422 0.0145886 -0.0305872 0.0243684 -0.0127254 -0.035178 -0.00386073 -0.0269606 0.0336913 -0.0107913 -0.0450426 0.0271489 0.0257008 0.0483804 -0.0186614 0.0980683 0.0410964 0.00301761 -0.0240888 -0.0336235 0.0638652 0.042744 -0.042218 -0.0864407 0.00976169 -0.0437378 -0.0528405 -0.0214541 -0.0302267 -0.00342935 0.0237765 0.0611632 -0.0470169 -0.0323152 0.0342807 0.047814 0.0271567 0.0204471 0.067183 -0.025338 -0.0107354 0.0235443 -0.0347916 -0.0031752 -0.0835272 0.002312 -0.0540162 -0.0303178 -0.0211075 0.048794 -0.0235177 -0.0152502 -0.0309272 -0.000628819 -0.00426319 0.0504727 -0.0604476 -0.0289948 -0.00463496 0.0378234 0.0892995
/other/supernatural 0.0137959 -0.00126829 -0.0545678 0.0570096 -0.0143789 0.0215666 0.0317411 0.00717748 -0.0304632 0.011753 -0.0129341 -0.0178057 -0.0343169 -0.045568 0.0158149 -0.0110931 0.0755524 -0.0858475 0.0557211 -0.0295777 0.0480092 0.0231222 -0.0199793 0.102214 -0.0318084 0.0249806 -0.0614867 0.0593795 -0.0594893 0.00900449 0.0503529 0.0264902 -0.00555004 -0.0313042 -0.0320073 -0.00309033 0.00116241 0.0213158 -0.00208157 -0.0170784 -0.023799 -0.00130033 0.0138683 0.0289602 -0.0392921 -0.00332945 0.0271525 0.021532 -0.0233444 0.00135012 -0.0112947 0.00246125 -0.0102165 0.0640183 0.0199686 6.33722e-05 0.110403 0.037693 -0.0111827 0.0114899 0.00497674 0.00946125 -0.0157062 -0.027882 -0.0159602 0.0326593 -0.0332553 0.0168725 0.0267181 0.00676197 0.0104558 0.00533872 -0.0253169 0.00546415 0.0224929 -0.00446679 -0.00646701 0.00286352 -0.0309448 0.012367 -0.0394509 0.0247129 -0.0086672 0.025308 -0.0112793 0.0192358 -0.0186036 0.0176208 -0.0290022 0.0114879 0.00589899 0.0134127 -0.0111211 0.0169354 0.0118686 0.00361151 0.0185872 -0.0162397 0.0483204 -0.0522292 0.00657354 -0.0391263 -0.00680072 0.00562983 0.021661 -0.00187441 -0.0595848 -0.0263031 -0.000264269 0.049632 -0.034437 -0.0270194 -0.0219808 -0.0148622 -0.0149946 -0.00725322 0.0161052 0.0403719 0.00811432 -0.00510989 0.0620194 0.0208776 0.00198358 0.0167741 -0.0663598 -0.0160042 0.0383374 0.00749329 0.015808 0.00479954 -0.053121 0.0121568 -0.0105663 -0.0125528 -0.0117154 0.00306718 -0.0255304 0.0240977 0.00857193 -0.023199 -0.02195 -0.0278259 -0.00416426 0.0559777 -0.0343286 0.000583733 0.000935902 -0.00711999 0.00141937 0.0758782 0.0486688 -0.00414568 -0.0166203 -0.00882433 0.0364508 0.0384402 -0.0377636 0.00603057 -0.0162177 -0.0486747 0.0256711 -0.0302893 -0.00585906 0.0396914 -0.0012586 0.0187088 0.0134829 -0.0128563 -0.0286412 0.0043824 -0.0304171 0.0265757 0.0551291 0.0450046 0.0114886 -0.044267 0.00176778 0.0208765 0.00234634 -0.00655439 -0.0386224 -0.0649083 -0.136754 0.0117085 -0.0669533 0.0366238 -0.00357135 0.0588904 0.0143833 0.0174519 -0.0102289 0.00344574 0.074511 -0.0176396 -0.00563004 -0.0283767 -0.00660997 0.025618 -0.0172739 -0.0228513 -0.0663302 0.0388296 0.017708 0.0421982 -0.071879 -0.00462731 0.0111579 -0.0232421 0.00189891 0.00589231 -0.00930616 0.002289 -0.00723186 -0.049393 0.102256 0.09683 0.0584782 0.0513173 -0.00461719 -0.0547033 0.0386156 -0.00541287 0.0898619 0.0283596 -0.0291946 0.00293549 -0.0308417 -0.0678681 0.0241078 0.00227798 -0.0226893 -0.02935 -0.012333 0.0688284 0.0672461 0.0165747 0.0157619 0.0176727 0.04 0.0071927 -0.00245257 0.0160131 -0.0013501 -0.0275697 -0.0174467 0.0199801 -0.0106096 0.0246075 -0.0283786 -0.0229422 -0.0321792 0.0152179 0.0271534 0.00678221 0.0376041 0.00737564 0.0194662 -0.00589539 0.0156341 0.0358119 0.0434622 0.00717377 0.012762 -0.0301205 -0.00523348 -0.0308145 0.0122086 -0.00654595 0.00931565 0.0228909 0.00651565 -0.0229912 -0.00454028 -0.00517511 0.00233266 -0.00565109 0.0160996 -0.00899125 0.00337104 -0.0327295 0.029359 0.0177262 0.00748919 0.0181609 -0.0192192 -0.0163641 0.00204153 -0.0013433 0.0171662 -9.03246e-06 -0.0193115 0.00477589 0.00417802 0.0219965 -0.0154959 -0.0264613 -0.00638128 0.0078227 0.0393329 0.0145436
/location/transit/bridge 0.00839337 -0.00661186 -0.0246928 0.0122744 0.0238325 0.0387962 0.010391 -0.0110093 -0.0123214 -0.0028328 0.00196296 -0.000851369 -0.0342868 -0.0204617 0.0054327 0.0127368 0.0463628 -0.0453177 0.0411291 -0.00448642 0.0240711 0.024579 -0.00754356 0.0470963 -0.0141962 0.0011523 -0.022045 0.0251635 -0.0255828 -0.0134876 0.018926 -0.0035321 -0.00381045 -0.0186488 -0.0254302 -0.00494537 -0.0216477 -0.000642468 0.0150447 0.00646472 0.0105613 -5.46706e-05 0.0183338 0.021997 -0.0489989 -0.00596069 0.0383943 0.0187493 -0.0436512 0.0173711 0.00366923 -0.0167942 0.00219364 0.0734326 0.0224293 -0.00554357 0.0678106 0.0184686 -0.0423011 0.0164626 0.0113108 -0.00681146 -0.00194544 -0.00673391 0.0114104 0.0137864 0.018917 0.00400364 -0.00983222 0.0310897 0.0148989 0.0251412 -0.0351275 -0.0107404 0.00682619 -0.0148219 0.00470215 -0.0108639 -0.0249647 -0.00491753 -0.0060874 0.0154479 -0.00449173 0.0226213 -0.00767166 0.0111108 0.00767074 -0.00956603 0.00252846 0.00137702 0.0118212 -0.0116941 0.00146974 0.0319465 -0.000631467 -0.0173398 -0.00120352 0.00784841 0.0487891 -0.0329406 0.0132095 -0.0129106 0.0151013 0.0155787 0.0210197 -0.0210133 -0.0210018 -0.0217185 0.00969003 0.0179127 -0.042195 -0.00948622 -0.0019906 -0.0116583 -0.0245045 -0.0188484 0.0155239 0.0368201 0.00828998 0.00527222 0.0365721 0.0269769 0.0251131 0.0112194 -0.0581419 -0.0279664 0.0324303 0.0153759 -0.0282788 -0.00614853 -0.0440118 -0.0143474 0.0144937 0.00148426 0.0171396 0.0174666 0.00912057 0.0267852 0.00284532 -0.0171265 -0.00520796 -0.00834212 -0.0261798 0.053781 -0.00316942 0.0119908 0.0211041 0.00475799 0.0312195 0.0399826 0.0343072 0.000310492 -0.00621472 -0.0086382 0.0237212 -0.00141602 -0.0480996 -0.00399805 -0.0262992 -0.0579279 0.0146541 -0.0249178 -0.0321407 0.0141619 -0.0174343 0.00538916 0.00344147 0.0134142 -0.00184224 -0.0139983 -0.0174722 0.0132763 0.0222399 0.0499189 0.00969301 -0.0359007 0.0172676 0.0276846 -0.0120059 -0.0156951 -0.0134283 -0.0345157 -0.0926893 0.0231623 -0.0459202 0.0417342 -0.0031533 0.0521629 0.0109813 0.0328383 0.0017973 0.000205467 0.036505 -0.0337878 -0.00239884 -0.0216255 0.0165863 0.0307705 -0.029703 -0.0261555 -0.0207063 0.0288345 0.0156987 0.0204386 -0.0446727 0.0194339 -0.00214263 -0.0463413 0.000439 -0.00904919 -0.0168157 0.0213999 0.00305129 -0.0338326 0.0637045 0.054784 0.0166856 0.0317995 -0.0209787 -0.0681637 0.0165147 -0.00652699 0.0636746 0.0384475 -0.0124487 -0.0151051 -0.0117592 -0.0363099 -0.0103626 -0.00516535 0.0118804 -0.02245 0.00994565 0.0461242 0.0477276 0.0169193 0.023622 0.0156056 0.0536055 -0.000290693 0.00489908 -0.00080114 0.00455057 -0.016725 -0.0239356 0.00431486 -0.0158272 0.0227152 -0.0280466 -0.0516493 0.0125472 0.0198528 0.0354953 -0.0217639 0.0543175 0.0381262 0.00705341 -0.0220507 -0.0178035 0.0108395 0.033 -0.00379121 -0.0296351 0.0229053 -0.0402111 -0.0326859 0.0151339 -0.01923 -0.00850158 0.0304277 0.00420423 -0.0110952 0.00215504 0.00215697 0.026394 0.0139069 0.00535345 0.0323957 0.00185507 -0.028021 0.00726236 -0.0106233 0.0135434 -0.0624552 0.00166191 -0.0404267 -0.0370311 -0.0188508 0.00336993 -0.0011145 -0.0346876 -0.00234505 -0.00474548 0.0242195 0.0130867 -0.0404772 -0.00675348 0.026734 0.0305988 0.0282197
/organization/music 0.0152664 -0.0104144 -0.0425846 0.0321308 0.0145456 0.0303647 0.0196297 0.00258096 -0.0104277 0.0131069 0.00862903 0.000686119 -0.0248805 -0.0250499 0.0139237 0.0113496 0.038268 -0.0386758 0.0510628 -0.0128807 0.0219246 0.0252477 -0.0285318 0.0630197 -0.0052526 0.0295981 -0.0465629 0.0221886 -0.0213502 3.05334e-05 0.00719306 0.00368983 0.0100024 -0.00226092 -0.0412852 -0.0251284 -0.0337001 -0.00661462 0.0136126 -0.00926983 -0.00973041 -0.0107755 0.0284649 0.01993 -0.0263887 -0.000545944 0.000274925 0.0162087 -0.037617 0.00342414 -0.00283291 -0.0225008 -0.000796581 0.0744184 0.045808 -0.00876589 0.0645662 0.023822 -0.0442902 0.0239281 0.00380843 -0.0168636 -0.0201276 -0.0252916 -0.00213737 0.0092949 0.00195641 -0.00374222 0.00562446 0.0292627 -0.00274536 0.0399581 -0.0298613 -0.0164606 0.0155941 -0.00415817 0.00783299 -0.00901118 -0.0206105 -0.012359 -0.0124874 0.0310795 -0.00439867 0.0246764 -0.000668369 0.012524 0.00468661 -0.00218317 -0.0481822 0.00904902 0.0111465 -0.0023474 -0.00794871 0.0408942 0.0274222 -0.0231739 -0.022071 0.018549 0.0429329 -0.0239704 0.0379759 -0.015955 0.00547146 0.00913057 0.0383896 -0.0364383 -0.0248776 -0.0244632 0.0216199 0.0391435 -0.0261709 -0.0234992 -0.00331117 -0.00608271 -0.0171382 -0.020592 0.0262713 0.0367646 0.011469 -0.00870395 0.0503466 0.0122531 0.0222793 0.019571 -0.0700208 -0.0143142 0.0534326 0.0121232 -0.040602 0.00435741 -0.0375821 -0.00227247 0.020193 -0.0155272 0.0137725 0.00298246 0.0230214 0.0164952 -0.0174171 -0.0314003 -0.00399311 -0.00926879 -0.0187559 0.0484424 -0.018859 0.0197865 0.00566484 -0.00902854 0.0117132 0.0475713 0.0283099 -0.0090445 -0.00670167 -0.012095 0.0340889 -0.00432127 -0.037463 -0.000266191 -0.0133908 -0.0376216 -0.0015135 0.00208141 -0.014492 0.0214122 0.00331813 -0.00488928 0.00779696 0.00588936 -0.0135812 0.00137076 -0.0141938 0.00116254 0.0164839 0.0356837 -0.00368542 -0.041177 0.0244614 0.0231764 -0.000489479 0.00480411 -0.00392403 -0.0261068 -0.0773867 0.0309148 -0.0189744 0.0352971 -0.00102586 0.0390692 0.0276663 0.0202532 -0.00451894 -0.00716503 0.0225092 -0.022602 -0.025988 -0.0303055 0.0100086 0.0327282 -0.041762 -0.0205481 -0.0349892 0.0505968 0.0181404 0.0197118 -0.0569965 0.00936558 0.00872358 -0.0415052 0.00584398 0.0029559 -0.00781396 0.00507023 -0.0248449 -0.0302865 0.0623639 0.0562498 0.0284634 0.0455264 -0.0209228 -0.0477956 9.39252e-05 0.00156733 0.0629887 0.045356 -0.0123307 -0.00863824 0.00190252 -0.0279387 0.00168462 -0.00125231 0.00764092 -0.0157358 0.0136711 0.0462578 0.0407484 0.0262793 0.0141589 0.012462 0.053135 -0.00846038 -0.00273371 -0.000484363 -0.00301303 -0.029077 -0.0286676 0.0159156 -0.0100923 0.0072755 -0.0256262 -0.0393201 0.00424062 0.0133698 0.0410279 -0.0189657 0.0496344 0.0185632 -0.00463089 -0.0254373 -0.0157578 0.0096884 0.028866 -0.00686756 -0.00693278 0.0127976 -0.0160433 -0.00752292 0.0227903 -0.0217114 0.00397574 -0.00309231 0.00104722 -0.0162262 0.00136371 0.00721885 0.0393833 0.0138446 0.00566176 0.0212067 -0.00133431 -0.0185306 0.00529285 -0.0121205 0.00100875 -0.0609382 0.0228731 -0.0261093 -0.0253173 -0.0230934 -0.00818661 -0.00560962 -0.0290519 -0.0138994 0.0034941 0.0164415 0.00784303 -0.0387969 -0.0116538 0.032335 0.0227627 0.0168367
/other/event/accident 0.0155096 -0.0113608 -0.0237284 0.00569763 0.0206247 0.0377174 0.0100784 -0.0150753 -0.00850485 -0.00338163 0.00599395 -0.00290742 -0.0322252 -0.0168727 0.00852418 0.00497043 0.0414208 -0.0382104 0.042862 -0.00363614 0.0242933 0.0223982 -0.0135351 0.0427167 -0.00906575 -0.010605 -0.0275424 0.0321336 -0.0161793 -0.0119659 0.0165374 0.00464224 0.00141319 -0.0177579 -0.0167268 -0.0183284 -0.0301858 -0.00616265 0.00458834 0.00855639 0.0170779 -0.00570636 0.0210024 0.0300264 -0.0521278 -0.00856471 0.0484549 0.0164755 -0.0400271 0.00821847 0.00554388 -0.0214238 0.00626853 0.0739252 0.0229674 -0.00792034 0.0633521 0.00868088 -0.045061 0.0176486 -0.00373923 -0.00958165 0.00215047 -0.0105142 0.0136107 0.00941102 0.0100055 0.00330972 -0.00301784 0.029844 0.0231483 0.0450221 -0.0306795 -0.0148151 -0.00199794 -0.0211273 -0.00101067 -0.000377155 -0.0134935 -0.00909311 -0.00387598 0.0178422 -0.00751494 0.0237876 -0.00865648 0.0196338 0.00841274 -0.00706228 0.00168498 -0.00123958 0.0132804 0.00131683 0.00133986 0.0241908 0.00297116 -0.0189223 -0.0139655 0.00568564 0.0505978 -0.0213732 0.0147234 -0.0144486 0.0135403 0.00893814 0.019637 -0.0226474 -0.0137223 -0.0197936 0.0102167 0.0186659 -0.0308183 -0.00961447 -0.00639158 -0.0109801 -0.0217064 -0.0174184 0.0011728 0.0438324 0.00762175 0.00296644 0.0353757 0.0244697 0.0259613 0.00334748 -0.0559248 -0.0290395 0.0300365 0.0149465 -0.0234609 -0.00697383 -0.0398941 -0.0161557 0.00854685 -0.00130729 0.0115902 0.0128011 0.0143947 0.0243749 -0.00881274 -0.0185976 0.00416406 -0.0155125 -0.0138668 0.0540796 -0.00374935 0.0123827 0.0203685 0.00279166 0.0307667 0.0305635 0.0345365 -0.00705944 -0.00335801 -0.0145269 0.0198388 -0.00481604 -0.0438513 0.00139862 -0.0194054 -0.0485931 0.0183712 -0.0195518 -0.0271999 0.00502481 -0.0213054 0.0121309 0.000846519 0.0217279 -0.00272125 -0.0142699 -0.0157449 0.0152911 0.0148012 0.0440084 0.00300147 -0.0377901 0.0184007 0.0261679 -0.0162536 -0.0108556 -0.0103032 -0.0380319 -0.0939098 0.0250868 -0.0359564 0.0331407 0.0012119 0.0562728 0.0209028 0.0350761 0.00587717 -0.00603114 0.035905 -0.024926 0.00436562 -0.015527 0.021405 0.0297267 -0.0252418 -0.022068 -0.0128926 0.0264615 0.0180757 0.0214531 -0.0454805 0.0145435 -0.00335888 -0.039563 -0.00366673 -0.00948519 -0.0215165 0.0184433 -0.00638076 -0.0326687 0.0586838 0.0498137 0.0178256 0.0411902 -0.0216211 -0.0587164 0.0134503 0.00352701 0.066073 0.0407646 -0.016577 -0.019194 0.00189356 -0.0344906 -0.0125578 -0.00230775 0.0230799 -0.0122728 0.00445729 0.0497579 0.0524093 0.0052723 0.0292403 0.0146394 0.0508229 0.00739971 0.00129457 0.00481207 -0.00450683 -0.0141075 -0.0227916 0.0157215 -0.00756152 0.0139138 -0.037004 -0.0493537 0.0193824 0.00945254 0.0371338 -0.0251464 0.0603401 0.0440565 0.000328418 -0.0168941 -0.0123173 0.0142883 0.0403765 -0.00415607 -0.03109 0.018578 -0.042846 -0.033387 0.0139064 -0.0155199 -0.00353447 0.0178666 0.00477214 -0.0158701 0.00494297 0.00364442 0.0316346 0.00938681 -0.00557351 0.0326928 -0.00274669 -0.0293336 0.00357478 -0.0101673 0.0164658 -0.0569983 0.00832009 -0.0375265 -0.0379759 -0.0104103 0.00772824 0.00336063 -0.0294277 -0.00367699 -0.00245876 0.0273821 0.0164079 -0.0442411 -0.00794154 0.0214692 0.0247704 0.0252418
/location/structure/sports_facility 0.0100739 0.0184797 -0.00120846 -0.00829175 0.00678174 0.0409915 -0.0017802 -0.0343602 -0.0174913 0.0112042 0.0271735 0.00117282 -0.0363882 -0.00748899 0.0130405 0.00148274 0.0308184 -0.00994679 0.0407628 -0.0173315 0.0151468 0.013865 -0.00780614 0.0133518 0.0103943 0.0205579 -0.0345468 0.0345087 -0.0335231 -0.0137932 0.00750947 -0.0140328 -0.00868341 1.4236e-05 -0.0278388 -0.0247507 -0.024532 -0.0143288 0.00399474 0.0137676 0.00759201 0.00222642 0.0128278 0.0300641 -0.0207979 -0.0191054 0.0227624 0.0312922 -0.0496652 0.0228999 0.0182268 -0.0132855 -0.00471682 0.0518329 0.0214927 -0.00210382 0.063055 -0.0178467 -0.0652425 0.0425727 0.00796276 0.0143787 0.00121495 0.00108552 0.0358605 0.00676874 0.0294346 0.0150066 -0.0128759 0.0114353 0.022589 0.01746 -0.0220858 -0.00375945 0.0152036 0.0102888 -0.000600661 -0.000343703 -0.0130421 -0.00858112 0.00341043 0.00807704 0.00457929 0.0257922 -0.00205942 -0.00620502 0.0101309 -0.0150525 0.0232807 -0.0129561 0.00615675 -0.00781475 0.00327141 0.0233767 0.00546364 -0.0396243 -0.020543 0.025763 0.0901544 -0.0389854 0.0253239 -0.0158268 0.0085878 0.00874136 0.0228193 -0.0366766 -0.0224143 -0.0146934 0.00340638 0.00190817 -0.0402298 -0.0136937 0.00177826 -0.00463797 -0.0221442 -0.0280961 0.0264871 0.0326175 0.0254427 0.00753255 0.0344763 0.00290031 0.0282754 0.0193019 -0.0675259 -0.010511 0.0118549 0.0138577 -0.0137522 -0.0114516 -0.0595444 -0.0332886 0.010149 -0.0056329 -0.00615601 0.0172959 0.0163565 -0.000312317 0.00624508 -0.0406134 0.00691399 -0.00553767 -0.0220675 0.0361695 0.00608739 -0.00233144 0.00668805 0.00429321 0.0252721 0.0311133 0.0233518 -0.00105596 0.00290039 -0.0049976 0.0134597 0.00831699 -0.0323212 -0.0133958 -0.0263754 -0.0677202 0.00432012 -0.0194165 -0.0216904 -0.000490106 -0.0101681 0.0279313 0.00520768 0.0284154 -0.00823035 -0.0164316 -0.0250606 0.00440699 0.000468438 0.0340324 0.00790361 -0.0208566 0.0252552 0.0300537 -0.00945125 -0.0114745 -0.0186479 -0.0302241 -0.0656337 0.00864498 -0.0410032 0.031077 -0.00400805 0.0672026 0.00996415 0.0381412 0.0202287 -0.00858215 0.0439374 -0.0334871 -0.000847313 -0.0170133 -0.0134982 0.0285884 -0.0267942 -0.0113142 -0.0242858 0.0216789 0.0203476 0.0176692 -0.0420388 0.0172268 0.00672397 -0.0383705 0.00725596 -0.00926324 -0.0143904 0.0319496 0.00924017 -0.0416678 0.0687768 0.0721609 0.0333521 0.040926 -0.0139326 -0.0704098 0.00835954 -0.00200711 0.0552956 0.0416917 -0.00970684 -0.0248155 -0.0140218 -0.0437823 0.0137181 -0.00989216 0.0198715 -0.0268884 0.00790482 0.0315912 0.0353625 0.00892809 0.0289968 0.0164237 0.0449278 -0.0244752 0.0205043 0.00827188 0.00595388 -0.0199087 -0.0290203 0.0201836 -0.0227524 0.0456128 -0.0147875 -0.0497688 0.0221137 0.0316329 0.0383224 -0.0283233 0.0674808 0.0498478 0.000348357 -0.0126168 -0.0168963 0.000834013 0.0344374 -0.0213297 -0.0346246 0.0391313 -0.0146881 -0.0698383 0.0283611 -0.0284328 -0.00785312 0.0139264 0.00571054 -0.0247173 -0.00702014 0.00906874 0.0339937 0.00947267 0.0166209 0.0250894 -0.00399743 -0.034592 0.00428285 0.000337405 0.023262 -0.0794817 -0.00766258 -0.0393192 -0.0484435 0.0027101 -0.0110956 0.0136832 -0.0274765 -0.00161825 -0.0155287 0.0181295 5.52017e-05 -0.0266615 -0.00483368 0.0301723 0.0211195 0.0200529
/other/art/broadcast 0.0292073 -0.0251678 -0.0400318 0.0156787 0.0151249 0.0338907 0.0247589 -0.00327959 0.00451451 0.0110894 -3.97179e-05 0.00678798 -0.00630862 -0.00512258 0.00579537 0.00880851 0.0268548 -0.0282594 0.057004 0.00177409 0.0124484 0.019939 -0.0232024 0.0491404 -0.000148644 0.0281901 -0.0164207 0.0296282 -0.014645 0.00556376 0.00703776 -0.00515865 0.0098963 -0.00953131 -0.030719 -0.0365094 -0.0253189 -0.0026883 0.0176129 0.0160465 0.000489419 -0.00570945 0.0210818 0.0431145 -0.0185206 -0.00793598 0.0116786 0.00817808 -0.0125574 0.00469626 -0.0329916 0.00206934 -0.0135839 0.0686504 0.0373675 -0.00660548 0.0684816 0.00429493 -0.0581324 0.0154664 -2.78127e-05 -0.0111236 -0.011385 -0.016093 0.000421448 0.0083409 0.00703016 -0.00273634 -0.0221619 0.0519973 0.0171735 0.0411303 -0.02489 -0.017294 0.0181547 -0.00388576 -0.003924 0.004509 -0.0055658 0.00894269 -0.0105528 0.00925864 -0.0111289 0.0237573 -0.011196 0.0199608 -0.0195114 0.0173508 -0.027144 0.0213082 0.00684674 0.00934167 -0.0088822 0.0320558 0.0218294 -0.0297716 -0.000888272 0.0133158 0.044254 -0.0266954 0.03978 -0.0262829 0.000919399 0.0101078 0.0417117 -0.0423385 -0.00777678 -0.0242177 0.0261674 0.00712809 -0.0249676 -0.0179687 0.0215464 -0.0116554 -0.0283482 -0.0160016 -0.00127727 0.0429677 0.011275 -0.00420855 0.0381494 0.00642831 0.0116386 0.0138208 -0.0660447 -0.0116805 0.0424561 0.00210767 -0.0334933 0.00499294 -0.0189153 -0.0136138 0.0154281 0.00654292 0.0146568 0.00187586 0.0320761 -0.0106479 -0.0261748 -0.0445436 0.0208127 -0.0121862 -0.015829 0.0541767 -0.0230206 0.00911373 0.0096001 -0.0111576 0.015042 0.020671 0.00116076 -0.00400324 0.0056498 -0.0115145 0.0177316 0.0151323 -0.0301871 -0.0236237 -0.0187496 -0.03853 -0.0022752 -0.0173454 -0.0207983 -0.00549339 0.00451315 -0.00222761 0.00283551 0.0217048 -0.00809424 0.0010692 -0.0255015 0.00970811 0.0210207 0.0302473 0.000240094 -0.0314663 0.0307408 0.0146114 -0.0118953 0.00318594 -0.0232303 -0.0126467 -0.057293 0.0229727 -0.0291544 0.0604493 0.0091207 0.0546723 0.0341415 0.0370613 0.0141648 -0.0109378 0.0402319 -0.0303595 -0.0126345 -0.0070757 -0.00534472 0.0314053 -0.0401965 -0.0274086 -0.020144 0.0395467 0.0209728 0.0327344 -0.0701367 0.00154124 0.000461883 -0.0272532 0.0210272 0.00250025 -0.0249855 0.0173534 -0.0120911 -0.0219515 0.0444589 0.055991 0.00933947 0.030968 -0.0130329 -0.0325109 -0.000359508 0.0124479 0.0472884 0.0329732 -0.00622156 -0.0114234 0.00121755 -0.0358446 -0.00110924 0.0217269 0.0010039 -0.0013456 0.020208 0.0355401 0.0305697 0.0097909 0.0134232 0.0340432 0.0552719 -0.013079 -0.0164729 0.0137277 0.00653617 -0.01506 -0.0272475 0.0276815 -0.0233097 0.0327019 -0.039401 -0.0368565 0.0219061 0.0263799 0.033466 -0.0240844 0.0621887 0.0393133 0.000306208 0.00546683 -0.018796 0.0124361 0.0449829 -0.0120566 -0.00907721 0.00747057 -0.0403514 -0.0300031 0.0119601 -0.0296673 -0.00331186 0.00670556 0.00343585 -0.0297431 0.00809747 0.0113235 0.0194249 0.0125138 0.0194822 0.0198356 -0.000710516 -0.0109506 0.011081 -0.00291243 0.0166347 -0.0664232 0.0198839 -0.0300085 -0.0284109 -0.0138509 3.68414e-05 0.0118696 -0.00917196 -0.00134955 0.00559147 0.019066 0.0191216 -0.0323043 -0.00239797 0.0202418 0.0127912 0.0130204
/other/product/computer 0.00635323 0.00838382 -0.0617282 0.0197574 0.0290872 0.0554492 0.0143723 -0.0379867 -0.00431717 -0.02625 0.0195564 0.0031278 -0.0048847 -0.0324992 0.00213435 -0.0141686 0.0249645 -0.00811115 0.046211 -0.00980389 0.0148045 0.0217068 -0.0359601 0.0638254 -0.00753616 -0.0110902 -0.0419365 0.0257573 -0.013746 -0.00769443 0.0327561 0.0081356 0.00805528 0.0227841 -0.0414723 -0.0283697 -0.0218812 -0.0414808 0.00805208 0.0208561 0.00772247 -0.0241098 0.00903197 0.0208573 -0.0681214 -0.0165063 0.0383355 -0.00641605 -0.0428374 -0.00632177 -0.0104866 -0.0172278 -0.000537098 0.0815165 0.0155788 -0.0512152 0.0341159 -0.000304668 -0.0540582 0.0464434 -0.00612918 -0.0492409 0.0168049 -0.031891 0.0073604 0.0271074 0.00996623 0.00515892 -0.0106288 0.0535277 -0.00490285 0.0226601 -0.00867571 0.00395215 0.0186145 -0.0105183 0.0103419 0.0106562 0.0214008 0.00781675 0.00535688 0.00277411 -0.0183321 0.0110215 -0.00606107 -0.00226033 0.0221589 -0.00699673 -0.00299224 0.00349344 -0.0156287 -0.0330801 -0.0157011 0.0387733 -0.00943437 -0.00492246 -0.013585 -0.0322289 0.00505647 -0.00604133 0.0487639 -0.0348513 0.0366353 -0.0165525 0.0278545 -0.029632 0.00131928 -0.0117496 0.0222525 0.0222215 -0.00976301 0.0138564 0.00311653 0.00322897 -0.00107959 0.00251546 -0.012146 0.0576963 -0.0122566 -0.00548871 0.0301942 0.0193335 0.0321799 0.0320689 -0.0890566 -0.0419611 0.0385619 0.00567677 -0.0466328 0.0154433 -0.0526136 -0.0117184 0.001535 -0.0158164 0.0136617 0.0368263 0.0083027 -0.000385494 0.0105321 -0.0109463 0.000387913 -0.009765 -0.00534333 0.0777521 -0.0141083 0.0257309 0.0128802 -0.00731807 0.0529588 0.0606686 0.042932 -0.00290948 0.00629572 -0.0305239 0.0368327 0.0228951 -0.0406117 -0.0408291 -0.027259 -0.0714814 -0.00415636 -0.0215168 -0.0572737 0.0287758 0.00322 0.0082682 0.0182263 0.00260631 0.0101054 -0.0128875 -0.0307424 -0.00477903 -0.000174241 0.0489598 0.0352688 -0.0562487 0.0375787 0.0312694 -0.0211588 -0.0136561 -0.0434744 -0.0539272 -0.0837449 0.00238933 -0.0147875 0.040525 -0.0142488 0.0491985 -0.00150125 0.0533056 0.0187909 -0.0273779 0.00252879 -0.0150526 0.00376655 -0.00613466 9.17318e-05 0.0448713 -0.0521565 -0.0289887 -0.00322356 0.0362488 0.00919839 -0.00317107 -0.0711275 0.0126751 0.0118786 -0.0478608 0.0256473 -0.0141186 -0.038633 -0.0180435 0.0124403 -0.0137794 0.0528699 0.0249965 0.0419442 0.00901433 -0.00337377 -0.0518377 -2.55915e-05 -0.00250242 0.0217065 0.0283786 -0.00765059 -0.00979498 0.010532 0.00446288 -0.0244663 -0.0152326 0.0300094 -0.0192217 -0.0118446 0.0706341 0.0552213 0.0199407 0.0314925 0.00072599 0.0671466 -0.00166946 0.0151938 0.0221921 0.00338859 -0.0153852 -0.0359521 0.00477835 -0.0106963 0.0318064 -0.0209435 -0.0537499 -0.000489422 0.0728736 0.0169064 -0.019653 0.0568075 0.0446226 0.00831574 -0.0190584 -0.0092956 0.00166436 0.0274608 -0.0253365 -0.00486244 0.0305976 0.000918565 -0.0285128 0.024236 -0.0214264 -0.00229971 -0.0199053 0.00096082 -0.0197896 -0.00599199 -0.00610143 0.0316117 0.0153035 0.0132432 0.0423934 0.0146112 -0.0179403 -0.00280118 -0.061502 0.0394382 -0.0062072 -0.0250849 -0.0327879 -0.0412727 -0.0226767 -0.00344946 -0.00129907 -0.0582748 -0.00794616 -0.0154059 0.0234134 0.0227099 -0.0641166 -0.0363639 0.0574939 0.0606346 0.00716888
/other/language/programming_language -0.0182884 -0.0242494 -0.0244036 0.0349742 0.0230797 0.0271967 -0.003533 -0.0372089 0.00790665 -0.00431462 -0.0117313 -0.0044521 -0.0252789 -0.034856 -0.00804771 0.0126589 0.0486597 -0.0221669 0.0327006 -0.0160825 0.013444 0.0429249 -0.0154155 0.0929272 -0.0184814 0.00639911 -0.0510878 0.0282595 -0.0359766 0.00452528 0.0201639 0.00831924 0.0152029 -0.0125117 -0.0258382 -0.0150951 -0.036201 -0.0236545 0.0174157 -0.00263725 -0.0059138 -0.0181195 0.0245589 0.0288063 -0.071826 -0.019413 0.0260069 -4.51068e-05 -0.04798 0.0253252 -0.011856 0.00405287 0.0032163 0.0724441 0.0132633 -0.00287429 0.0343161 0.0163114 -0.0303419 0.0315853 -0.0202348 -0.0426851 0.00200269 -0.0270349 0.014261 0.0260753 -0.0011772 0.00337203 -0.0114938 0.0381479 0.00401066 0.0447083 -0.0331768 -0.0233074 0.0106784 -0.0118937 0.0233754 -0.0108597 0.00161337 -0.00358173 0.0115945 -0.000292054 -0.0291911 0.014401 -0.00343831 0.00945803 0.00753245 0.00146136 -0.00451185 0.020688 0.00541334 -0.0384428 -0.0109254 0.0444077 0.0092411 -0.00275261 0.0113434 -0.0194259 0.0159617 0.00488095 0.0450397 -0.0289516 0.0459218 -0.00291381 0.0310571 0.0022162 -0.00526352 -0.0397115 0.0310073 0.0283291 -0.0113591 0.0206738 -0.000823281 -0.0106718 0.0115813 -0.0313987 0.00777854 0.0665879 -0.000622384 0.00561072 0.0324978 0.034116 0.0307292 0.00155884 -0.0521955 -0.0161305 0.0183435 -0.0101537 -0.0340867 -0.000277773 -0.0513876 0.00306187 0.0298825 0.00833168 0.00508838 0.0209701 0.0158034 0.0135593 0.0029373 -0.0124613 -0.00506278 -0.0209233 0.00531425 0.0561393 -0.0121571 0.00573499 0.00167704 -0.015434 0.0232686 0.0298561 0.0267103 -0.00681308 0.00592721 0.00421261 0.0265057 -0.00778201 -0.0265683 -0.0230615 -0.015407 -0.0634956 -0.0104414 -0.0120425 -0.0364274 0.0133229 0.00267248 0.0104153 0.0230465 0.0253545 -0.0119106 -0.0264122 -0.0276359 -0.00966188 0.00762252 0.0415318 0.0223703 -0.0491671 0.0085234 0.0203526 -0.0289762 -0.0149527 -0.0476475 -0.0142061 -0.0916634 0.030238 -0.038054 0.030823 -0.00474647 0.0322692 0.0183157 0.0212008 0.022639 -0.00966882 0.00402647 0.00301398 0.00879584 -0.00627349 0.00706684 0.0179473 -0.0717939 -0.0195601 -0.0185123 0.0113052 0.00379031 0.0177249 -0.0275704 -0.00536016 0.0152215 -0.0376676 -0.00410762 -0.00773714 -0.0244026 0.0185706 -0.0320341 -0.00278286 0.0298349 0.0520505 0.050385 0.0115489 -0.0160169 -0.0398494 0.0256568 0.00375434 0.0585605 0.0515894 -0.00884735 0.00387638 -0.0100482 -0.0338029 -0.00747961 -0.00822998 0.00207095 -0.00559339 0.00268444 0.0625416 0.0494392 0.00194472 0.0301729 0.00326609 0.085036 0.0013623 -0.00917748 0.0117754 0.0141519 -0.00612265 -0.00444428 -0.00264202 -0.0131101 0.0134962 -0.0179431 -0.0505119 0.0143564 0.0268865 0.00811007 -0.0418318 0.0417087 0.0323859 -0.0016751 -0.0471536 -0.00657265 0.0106277 0.0390932 -0.0282612 -0.0164552 0.0383479 -0.0165385 -0.0333469 -0.000228849 0.00308963 -0.00639789 0.00390243 -0.0140102 0.00708434 -0.00458054 -0.0077221 0.0316476 0.0167019 0.0132736 0.0489685 -0.012881 -0.0465495 0.00215308 -0.0502495 0.00451099 -0.045115 -0.0077341 -0.0412617 -0.0420744 -0.00578404 -0.0078272 -0.00444271 -0.0408712 -0.0198251 -0.00424702 0.0375643 0.0071655 -0.064342 -0.00742501 0.0564233 0.0511118 0.0268885
/other/art/film 0.0147642 -0.024115 -0.0450507 0.00551095 0.0224884 0.0221023 0.00149298 -0.0148788 -0.0168195 0.00787234 0.0114066 0.00486061 -0.0265148 -0.010935 0.0229389 0.00998562 0.0291292 -0.0177765 0.0326169 -0.00144729 0.012339 0.0100617 -0.0241654 0.0484987 -0.00847692 0.00672428 -0.0230841 0.0441584 -0.0178282 0.00418804 0.00386925 0.00211905 0.00273742 -0.00962138 -0.0501458 -0.0266758 -0.0255232 -0.0142694 0.0321341 0.0116148 -0.0117111 -0.0196592 0.020158 0.000108626 -0.0360047 -0.0100317 0.026249 0.0325971 -0.023268 0.012307 -0.00647653 0.00351116 0.00878639 0.0884046 0.0559565 -0.0146858 0.0476353 0.0170617 -0.0582606 0.0264295 -0.00519217 -0.01366 0.00194854 -0.0352275 -0.002508 0.0174439 -0.00420375 0.00285654 0.000393325 0.0349186 -0.00898138 0.0389076 -0.0286319 0.00379408 0.00723853 0.00616022 0.00160775 -0.0101695 0.00948332 0.000788179 -0.00769139 0.00602147 0.00207723 0.0182388 -0.0258101 0.00413329 0.0184215 -0.00567017 -0.022241 0.0125126 -0.00160173 0.00817209 -0.00452278 0.0488581 0.0206245 -0.0227234 -0.00475229 0.00447102 0.0548895 -0.0221495 0.0557489 -0.0376794 0.0256741 0.00415575 0.0428345 -0.0517127 -0.0352769 -0.028401 0.0304654 0.0207494 -0.0254089 -0.00692411 -0.00459924 -0.0125678 -0.0203202 -0.0207613 0.00639905 0.0329563 0.0183353 -0.0076695 0.0434925 0.0114757 0.00401623 0.0134778 -0.0542613 -0.00681827 0.0240161 0.0177206 -0.0425274 -0.00259241 -0.0144906 0.00752105 0.0277475 -0.0196304 0.0121591 0.0115212 0.0158144 0.0123234 -0.0227412 -0.0248401 0.0269282 -0.0215841 -0.0185518 0.0715025 -0.0066544 0.0074246 0.0212375 0.00420061 0.00972109 0.0277601 -0.00293883 0.0143407 0.00438819 0.000595379 0.0450031 0.0217822 -0.0390624 -0.0121863 -0.0169324 -0.0611552 -0.0207752 -0.00151261 -0.0256128 0.019656 -0.0085062 0.000953932 -0.00858036 0.0158482 -0.00936623 -0.00954445 -0.0195434 -0.00132372 0.00412621 0.0257862 -0.000762369 -0.0294732 0.0103269 0.0109972 -0.000449459 0.00334657 -0.0310714 -0.0268023 -0.0664478 0.0285147 -0.0342591 0.0295269 -0.00307077 0.0282953 0.0290936 0.0240376 0.0089213 -0.0219299 0.0208023 -0.0412552 -0.0101004 -0.0290918 0.000157751 0.0347916 -0.0629291 -0.0122195 -0.0164826 0.0449425 0.0185645 0.0212282 -0.0532479 -0.00703944 0.017744 -0.0416797 0.00860153 -0.0164382 -0.0182119 0.00533192 -0.00794927 -0.0237196 0.0256168 0.0605666 0.042256 0.0393611 -0.00352434 -0.0511627 -0.00112283 -0.000333211 0.0321537 0.0258232 -0.0112728 -0.0115817 -0.00791847 -0.0356411 0.00132215 -0.00125234 -0.004426 -0.0318449 0.00051798 0.0438064 0.0483466 0.0015612 0.0324707 0.0104085 0.0619553 0.001292 -0.000826724 -0.0116407 0.0242665 -0.0181223 -0.0310265 0.0155264 -0.00994863 0.0392237 -0.0268082 -0.0529452 0.0224983 0.0208736 0.0213873 -0.0138305 0.0515116 0.0306406 0.00469406 -0.0188078 -0.0191244 0.0132487 0.0199533 -0.00150516 -0.0185721 0.00770953 -0.0117598 -0.0137003 0.00774808 -0.0248803 -0.0145151 -0.00279372 -0.00123847 -0.0115968 -0.00115696 0.0136629 0.0198343 0.0126814 0.00969282 0.0267972 -0.0149126 -0.0150954 -0.0119301 0.00882393 0.0130008 -0.0605616 0.0236159 -0.0223308 -0.032697 -0.0309849 -0.0219321 -0.00290762 -0.0104321 0.00878178 -0.016669 0.0187446 0.0307712 -0.0261206 -0.0158205 0.0351433 0.0166637 0.0106201
/other/product/weapon -0.00332426 -0.0210745 -0.0175502 0.0452887 0.0318708 0.0370638 0.0248418 0.00314694 -0.0215202 0.0332837 0.0168457 0.0307889 -0.00802248 -0.0120036 0.00123879 0.000475744 0.0262587 0.0193393 0.073237 -0.0248228 0.00989165 -0.0231836 -0.00388385 0.0391983 0.00307763 0.00640112 -0.0186143 0.0161415 -0.0189965 -0.00526605 0.0486467 -0.0185896 0.00965554 -0.00106077 -0.0119714 0.0326984 -0.0410903 0.0236707 -0.00602565 -0.0177725 -0.0121008 -0.0246872 0.0477973 0.0343788 -0.0350582 -0.00237459 -0.0115458 0.0686808 -0.0800202 -0.0279288 0.0109565 -0.00330987 0.0170054 0.049352 0.00996834 0.0102038 0.0782056 0.0260868 -0.0767364 0.0430767 -0.00688048 -0.0456409 -0.0108172 -0.0400556 -0.00543667 -0.00462702 0.00961873 0.0344251 0.0254888 0.0260391 -0.00759339 0.0402955 -0.0185207 -0.0330309 0.0296302 -0.0138926 0.0206886 -0.0239864 -0.00635977 -0.0147436 -0.00949251 0.0350671 0.00152471 0.0378359 -0.000231998 -0.0603398 -0.00221288 0.00751096 -0.00238482 -0.00322214 0.0234183 0.000143942 -0.000882539 0.0260455 0.00516293 -0.050868 0.0132716 -0.0134308 0.0156724 -0.0133646 0.0172264 0.0220639 0.0629935 -0.0144426 0.0501107 -0.0305698 -0.016761 -0.0381078 0.0482603 0.0484844 -0.0256682 -0.0442737 0.0224855 0.0221313 -0.0651771 -0.0451327 0.00609714 -6.2597e-05 0.0169698 0.0163995 -0.00479872 -0.00664867 -0.0173269 0.00999971 -0.0708985 -0.0437421 0.0495122 -0.0342144 0.000932169 0.00518149 -0.0515685 -0.0135752 -0.0257808 -0.031681 0.0018044 0.0285205 0.0206844 0.00286777 -0.0377925 -0.0275395 0.0127505 -0.00899196 -0.0191926 0.0459569 -0.0149196 -0.0135259 -0.008349 -0.0339522 0.0210053 0.0294967 0.0215901 -0.0205577 -0.0103794 0.0195308 0.0558184 0.00431916 -0.0684154 -0.0100799 -0.0319579 -0.0769412 0.0270539 -0.0315992 -0.0283092 -0.00308072 -0.0131219 -0.0247698 0.00898882 0.0407291 0.0156676 -0.0363919 -0.0232727 0.00991903 0.0478859 0.069693 -0.00773401 -0.0207144 0.0466462 0.0330068 -0.0314163 -0.00944179 -0.0519715 -0.0196773 -0.0945182 -0.012069 -0.0330429 0.0108097 -0.00810274 -0.0124759 0.0254513 0.0623395 0.0211668 -0.0143363 0.032022 -0.020358 0.012931 -0.0155525 0.0240227 0.0109566 -0.0613551 -0.0320306 -0.0177003 0.00939341 -0.0106454 0.01564 -0.0410198 -0.00295656 -0.02551 -0.0332364 -0.0039598 -0.00247528 -0.0208899 -0.0121823 0.0262503 -0.0569536 0.0647656 0.0385862 0.0174301 0.0611682 -0.0293587 -0.0918805 0.00944964 -0.00648267 0.0798171 0.0373332 0.0145006 0.00672492 0.00531057 -0.00502992 -0.0302817 0.00658242 0.0115724 0.00708906 0.00834562 0.00986396 0.0516601 0.0209704 0.0123542 0.0129703 0.101894 0.01732 -0.0190919 0.00778708 -0.0157865 0.0252441 -0.0349179 0.0304335 -0.0120244 0.0344712 -0.0221313 -0.0777718 0.0224414 -0.0011835 0.00762447 -0.00407082 0.0557165 0.0447505 0.020549 -0.0442645 -0.00779978 0.00218856 0.0372832 0.00658301 -0.000333686 -0.00563899 -0.0507607 -0.0460605 0.0106752 0.00647875 -0.0259278 -0.00160746 0.0173511 -0.0123302 -0.0131283 0.0100274 0.0321914 0.00790457 0.00824303 0.0264089 0.00215696 0.00513544 -0.0116884 -0.00741905 0.0173283 -0.0182195 0.0151408 -0.0632308 -0.0297015 0.0187093 -0.00389469 0.0114801 -0.029016 -0.0130191 -0.0152191 0.0164316 -0.00618685 -0.0135764 0.0116222 0.0200016 0.0336105 0.0303588
/other 0.0066257 -0.00457683 -0.0235898 0.0266412 0.0237981 0.0254621 0.0312988 0.00137636 -0.015489 0.0197915 -0.000641314 -0.0039264 -0.0357977 -0.00280928 0.000278022 0.00527295 0.0253842 -0.0222697 0.0280266 0.0233679 0.0220074 0.0214881 -0.00996442 0.0445588 0.0144134 0.0329047 -0.0113109 0.0224895 -0.012626 0.00768675 0.0228657 0.00479327 0.0215491 -0.0150353 -0.0109693 -0.00352494 -0.0482695 -0.014656 0.00887839 -0.00962069 -0.00559012 0.00379537 0.0188289 0.0102766 -0.0427702 -0.0108908 0.0347447 0.014805 -0.0535431 -0.0122402 0.000951938 -0.0112982 0.00574806 0.0439008 0.0214823 -0.00336734 0.0774252 0.0276746 -0.0639982 0.048028 -0.00819664 -0.0126218 -0.00276405 -0.0412437 0.0144306 0.0194428 0.00489859 0.0183406 -0.00602954 0.0262974 -0.00972225 0.0418367 -0.0187066 -0.0188392 0.0104648 -0.00374946 0.00751015 0.00150078 -0.0103424 -0.00684155 -0.0118402 0.0138852 0.0147728 0.0116462 -0.0079857 0.0171585 0.0151114 -0.0275912 -0.0220502 0.0141556 0.016115 0.00520923 0.00300007 0.00937701 0.000963424 -0.0114036 -0.0060097 0.0195112 0.0209305 -0.02501 0.0196173 -0.0102025 0.0141376 0.00150427 0.029354 -0.0139159 -0.0140125 -0.0329183 0.0282246 0.0254819 -0.0278488 -0.0250779 -0.00543077 -0.00937663 -0.0477035 -0.0219009 0.0249128 0.0443259 0.00383977 0.0104042 0.054122 0.00828857 0.0107115 0.0149637 -0.0531554 -0.012409 0.0394005 0.0307315 -0.0247318 -0.017592 -0.0227621 0.00806047 0.0436541 -0.00763785 0.00744137 0.0185109 0.0161644 0.0363603 -0.0288588 -0.0306577 -0.0103113 -0.019479 0.00380507 0.0593468 -0.0165483 -0.014025 0.0113911 -0.0230286 0.0139625 0.0323067 0.0174097 9.57725e-05 0.00841527 -0.00239673 0.02689 0.00857793 -0.0470246 -0.0106192 -0.0117759 -0.0583019 -0.000257295 -0.0210541 -0.034514 0.021317 -0.00773908 0.0104399 -0.00764422 0.0110074 -0.001155 0.00704432 -0.00784468 0.00600471 0.0317522 0.0151986 -0.00335943 -0.0237162 0.00330589 0.0179248 -0.00128312 -0.00253095 -0.0415314 -0.023675 -0.0943385 0.00518937 -0.00299376 0.0228219 0.0111877 0.0416526 0.019259 0.00454055 0.0120429 -0.0124916 0.0239616 -0.0313832 -0.0123097 -0.0142851 -0.0151752 0.0323032 -0.0453234 -0.0182155 -0.025414 0.0493917 0.0302937 0.00980273 -0.0439804 0.00487229 -0.0128036 -0.0428211 -0.0107459 0.0105326 -0.0253896 0.00121049 0.00759083 -0.0382586 0.0661622 0.0410287 0.023537 0.030006 -0.0110406 -0.0519694 0.0138412 0.00203649 0.0552079 0.0268731 -0.0297849 -0.0100365 -0.0157921 -0.0584152 -0.00991005 0.00614983 0.0062715 -0.0180892 0.00312642 0.0423976 0.0409486 -0.00136825 0.0344748 -0.00529338 0.0811754 -0.0173733 -0.0248672 0.00316083 0.0163584 0.00235913 -0.0413258 0.000205738 -0.0189409 0.0296878 -0.0137698 -0.0427828 0.0117136 0.0143917 0.0489508 -0.0209399 0.0370066 0.0363504 0.00442518 -0.0216151 0.00841883 0.017716 0.0305289 -0.011566 -0.0115694 0.0121283 -0.0364193 -0.022407 0.00228434 -0.0294304 0.00827937 0.00989478 0.0140841 -0.018233 -0.0144259 -0.00458857 0.0437674 0.00602183 0.00274596 0.00604242 -0.00410372 -0.019262 0.0059766 0.015135 0.00534858 -0.0652192 0.012524 -0.0315577 -0.0130392 -0.0200774 0.0147167 -0.00226963 -0.0264408 -0.0132366 -0.0178628 0.0207361 0.00472365 -0.0452561 -0.0170477 0.0617751 0.0366843 0.0128267
/other/event/election 0.00146479 -0.00109932 0.0319658 -0.0161135 -0.0154241 -0.0704275 0.0162454 -0.00433217 0.0838089 0.0295804 -0.0252931 0.071321 -0.00831725 0.0457479 -0.00181204 0.0193939 0.0466216 -0.0570533 -0.0328045 0.0475374 -0.0100666 -0.0620567 0.0376243 0.0531578 0.0103359 0.0231513 0.0414724 -0.00359535 0.020309 -0.0266477 -0.0648804 -0.0497102 0.0187946 -0.00350109 -0.0407826 -0.059154 -0.0399275 -0.0342061 0.0213369 0.0490228 -0.0245812 -0.0139603 -0.00350016 0.0367804 0.0120919 0.00668716 0.0541891 -0.0210042 -0.0360901 -0.0540873 0.0805639 0.00584896 0.00401054 0.0639799 0.0186284 0.0672803 0.112732 0.061209 0.00492251 -0.0224786 -0.0616557 -0.0367235 -0.00982673 -0.0146375 0.0458107 0.029702 0.0291055 0.0307106 -0.0101166 0.0298363 0.019251 0.0372133 0.00133038 -0.0290676 -0.000877089 -0.021189 -0.00909787 -0.0909608 -0.0560325 -0.0256977 0.0221408 0.030741 0.0424155 0.0638115 -0.0379922 0.0614994 0.0425474 -0.0240062 0.00623733 0.008391 0.0257897 -0.0164726 -0.0147853 -0.00498979 -0.0185459 0.00265693 0.0259557 0.0375307 0.0687944 -0.0282038 0.0357182 -0.0367769 0.0574593 0.0608191 0.0710894 -0.0538291 0.000613061 0.0500248 -0.000451099 0.0260512 -0.0158355 0.0958166 0.0364686 -0.0164385 0.0228926 0.0327801 0.0280679 0.11138 0.0529703 0.0202704 0.0542249 0.000722522 0.0155765 -0.0389346 -0.0240585 0.0620404 0.0622082 0.0271071 -0.0252992 0.0340185 -0.0548107 -0.018191 -0.0217779 0.0812839 0.0108056 0.0677097 0.0498646 0.0314417 0.0223347 -0.0279012 0.0207115 0.0307186 -0.0118088 0.00154467 -0.0389363 0.016246 0.0433098 0.0754081 0.0280595 0.0110607 -0.0451777 -0.0721359 0.0169707 -0.0456728 0.0459596 -0.0680423 -0.00317415 -0.00123371 0.0106703 -0.0516816 0.0168629 0.0170083 0.0200616 -0.0196299 -0.00970442 0.0667785 -0.015951 0.0222889 0.0194052 -0.0202163 0.0263908 0.0396838 -0.00480052 0.0490749 0.0551701 -0.0102636 0.0233475 0.00291123 -0.0604193 -0.05261 -0.0711473 -0.0155408 -0.0440966 0.044622 -0.0256291 0.0227924 0.0510455 0.0546797 0.0234857 0.0327321 -0.0245556 -0.0410904 -0.0177724 -0.0506698 -0.033383 0.0163311 0.0109234 0.0707016 -0.0576462 -0.0389354 0.0420448 0.0247221 0.0394196 0.0290298 -0.102723 -0.0304371 -0.00650606 -0.0318958 0.0372367 -0.0392363 0.0338855 0.0684101 -0.0106784 -0.0127591 0.0420154 0.0693903 -0.00660781 0.0385403 -0.0598772 -0.0688134 -0.00207163 0.0571578 0.110368 0.0474724 0.0209304 -0.019605 0.0583198 -0.045767 -0.00739535 0.0377418 0.0246343 -0.00689672 0.00943307 0.0645955 0.0725403 -0.00583242 0.0924618 0.0114618 -0.00726716 -0.00559346 -0.00947993 0.00269973 -0.0673554 -4.41661e-05 -0.0302871 -0.0312089 -0.029912 0.0192158 -0.0378517 -0.0620319 0.0700683 0.0149807 0.0674737 0.0355578 0.101373 0.0845836 0.0148023 -0.0243928 0.0170175 0.0507071 0.000414687 0.0173501 0.0162673 0.0213533 -0.0427606 -0.132807 -0.0225939 -0.00182515 -0.000477492 -0.0161035 -0.0316938 0.0662368 0.016907 0.00507991 0.0020842 -0.023269 0.00194826 0.0184962 0.0375705 -0.0325983 0.0155737 -0.0262833 0.022759 -0.0748809 -0.0187086 -0.0135546 -0.0319039 -0.0438891 0.0443726 0.043982 0.0108028 0.00461558 0.0119846 0.0725628 0.0315424 -0.0339404 -0.0395805 0.0595509 0.0299272 -0.0130154
/location/geography/mountain 0.021006 0.00836897 -0.0283846 0.0074482 -0.00877073 0.0582966 -0.000380881 0.00701611 -0.0178935 0.022609 0.0225452 0.0312295 -0.00361155 0.0242975 0.0182048 0.00488846 0.0248732 0.00622824 0.013808 -0.0424938 0.0618621 0.0172011 -0.0330554 0.0304892 -0.0237459 0.00391728 -0.0493077 0.0291766 -0.026971 -0.0163013 0.0563539 0.0190179 0.04117 -0.0118543 -0.0129524 -0.0172137 -0.040589 -0.00779455 -0.0449212 0.0084053 0.025403 -0.017485 0.0523687 -0.00546154 -0.0166148 0.0229414 0.00763272 0.0134788 -0.0475505 0.00822717 -0.019582 -0.0342176 0.00369838 0.0645516 0.0312483 -0.0426789 0.0717015 0.0166284 -0.0655633 0.028856 -0.0325561 0.0553328 -0.0118886 0.0124288 0.0515495 -0.00334161 0.0441366 0.0450183 0.00269845 0.00483659 0.0542293 0.0428693 -0.00424358 -0.00740078 0.0177734 -0.0230045 0.00708512 -0.0156294 -0.0652673 -0.0245203 -0.0132869 -0.0262886 -0.0198117 -0.00392019 0.0230176 -0.0071797 0.00986726 0.000903018 0.0199312 -0.0281398 -0.00721365 -0.0194222 -0.0217334 0.0295377 0.0242827 -0.0199514 -0.012324 -0.00670331 0.0732941 -0.0414741 -0.0198894 0.0178801 0.0242023 -0.0148118 0.018024 -0.0133485 -0.0149794 -0.0169569 0.00432597 -0.010124 -0.0242567 0.0101947 -0.00330451 -0.0212923 -0.0495907 -0.0184457 0.0113132 0.0412227 0.0385101 0.0223913 0.0308212 0.0430752 0.0336676 0.0339856 -0.0460161 -0.00602797 0.0348651 -0.000376782 -0.0121776 0.0138222 -0.0691566 -0.0204517 0.0275453 -0.037201 0.0162024 0.025655 0.0353994 0.0319715 0.00507364 -0.00639447 0.010087 0.00142802 -0.00558113 0.0495378 -0.0299421 0.0065319 0.0117775 0.00887225 0.0203543 0.0171379 0.0257563 -0.0247316 -0.0333266 0.0171646 0.0286061 -0.00924553 -0.0623024 0.0156617 -0.0131741 -0.0585529 0.00253915 -0.00724307 -0.0240466 -0.010434 0.00417489 0.00719289 -0.00859453 -0.0195779 -0.0229784 -0.0133168 -0.00199838 0.0099688 0.028018 0.0332438 0.00621367 -0.0232792 0.0023898 -0.00452838 -0.0264128 -0.00833751 -0.0164715 -0.0472104 -0.109037 0.0111124 -0.0468823 0.0450311 -0.00647435 0.0733799 0.0225731 0.017275 -0.0207342 0.00484219 0.0495458 -0.0206741 -0.00514127 -0.0137549 0.0196975 0.0278837 -0.0627516 -0.0191658 0.00432081 0.0276646 -0.0101033 0.0479417 -0.0252355 0.0103523 0.0187601 -0.0226713 0.0165213 -0.00454033 -0.0540116 0.0161371 0.00827671 -0.0153183 0.0622569 0.101383 0.0228734 0.052247 -0.0250103 -0.0824372 -0.00125497 -0.0144472 0.0751734 0.0391427 0.0102455 -0.028761 -0.0157677 -0.0554692 -0.0194509 -0.00187934 0.0147667 -0.0288452 0.00751487 0.0542871 0.0511918 0.0424273 0.0376742 0.0334703 0.0673248 -0.0147125 0.0188277 -0.00122043 -0.00112663 -0.0218871 0.0047022 0.0116837 -0.00682264 0.0332777 -0.0100534 -0.0382622 -0.0066773 -0.0245108 0.0362143 0.00231593 0.0698561 0.0181354 0.0178936 -0.0178131 -0.0127611 0.00855422 0.0527075 -0.0048077 -0.0431145 0.0317889 -0.00765111 -0.0788836 0.0462654 -0.0309612 -0.0443512 0.00522757 0.000790909 -0.0520839 -0.0337448 0.0270193 0.0238923 -0.0175173 0.0395719 0.0234 -0.00824836 -0.0488715 0.0185074 0.00950417 0.00115342 -0.0922668 0.00955227 -0.0344334 -0.038925 -0.0204838 0.00421114 0.00179299 -0.0864036 -0.0136525 -0.0312135 0.0467557 0.0102251 -0.0471567 0.0327839 -0.00272591 0.0324214 0.0318005
/organization/military 0.00435156 -0.00196443 0.00686109 0.0389451 -0.0554814 -0.0292343 0.0222799 0.0100094 -0.0416722 -0.00841408 0.00625912 0.018716 0.00285371 0.0135766 -0.0322023 -0.002064 0.0514249 -0.0104084 -0.00754145 0.0347794 0.0424059 -0.0207081 -0.0098263 0.0229688 -0.0280558 -0.0480025 -0.019721 0.0462401 -0.00788579 -0.000883495 0.0507643 0.0307208 -0.0426004 -0.0261617 -0.0381091 0.0175616 -0.0221616 -0.010889 0.017304 0.0301875 0.0250531 0.0038578 0.0332692 0.0204711 -0.0355069 -0.024867 0.00399668 0.0597418 -0.0902122 -0.0439549 0.0478123 -0.0278131 0.0245069 0.0789457 0.0438127 0.000922783 0.0905612 0.0188484 -0.0274138 0.0284302 -0.00510881 -0.0491744 -0.00444227 -0.0283999 0.00207889 -0.00398548 -0.0126414 0.0188917 -0.0365559 0.0720038 0.0447731 0.0859469 -0.0386447 0.0104921 0.00517953 -0.00603173 -0.0365486 -0.0116496 -0.0220508 -0.0120712 0.0209702 0.0460815 0.0169785 0.0381873 -0.0571172 -0.00163731 -0.0225742 0.0298137 0.0268088 -0.0174279 0.0157624 -0.0291221 -0.0121827 -0.0319958 0.035164 -0.0587145 -0.0277602 -0.00909682 0.0713244 -0.0141586 -0.00869982 0.0144054 0.00988917 0.0233516 0.0194242 -0.0391403 0.00815533 -0.0303011 0.054708 0.020757 -0.031461 -0.0464625 0.0309859 0.0152888 -0.053379 -0.0244821 -0.0349431 0.0238385 0.00113779 0.0123171 0.0297881 0.039023 -0.00730011 -0.0194163 -0.0289005 -0.0167915 0.0730698 0.0139699 0.0366462 -0.00541706 -0.0575558 -0.0250589 -0.0229555 0.0327658 -0.0113747 0.0393515 -0.0061328 0.00231361 -0.0122921 -0.0273533 0.0270575 -0.0343725 0.0132253 0.0290694 -0.00101529 0.0181754 0.0366192 -0.023216 0.0430518 0.012916 0.00693798 -0.0354632 6.7774e-05 -0.0286157 0.0307982 -0.0326989 -0.0517767 -0.0353918 -0.0334983 -0.091016 -0.0216391 -0.0327627 -0.00532377 0.036166 -0.0356012 0.0103373 0.0643262 0.0359365 -0.00199561 -0.0615684 0.0182276 0.0123327 0.0135046 0.00840879 0.00745035 0.00202211 0.0442889 0.0272724 -0.0436898 -0.0279058 0.00362713 -0.0365829 -0.0959777 0.0356026 -0.0119803 0.000282101 0.0318201 0.0302891 -0.00543465 0.0102337 -0.013893 0.0298807 0.00929362 0.008786 0.0356907 -0.0464193 0.0292226 -0.0235833 -0.0360079 -0.038012 -0.0181371 0.0055719 0.00627806 0.0574397 -0.0140619 0.0142142 0.00399321 0.00309166 -0.0234267 -0.0146486 0.00968915 0.0186697 -0.0284624 -0.0434907 0.0569517 0.0910413 0.0259033 0.0682431 -0.0374388 -0.0807889 -0.016621 -0.00213631 0.0901255 0.0187831 0.0299174 -0.0259194 0.0334672 -0.029784 0.000290129 0.0131798 0.00326491 0.00914939 -0.0202612 0.0519924 0.0317887 0.024634 0.0485638 0.0249889 0.108081 0.0463737 -0.0269961 -0.0326534 0.00558354 -0.0639391 -0.0769033 0.0134999 -0.0438751 0.0368346 -0.0214146 -0.0644587 0.0238394 0.00667533 0.0240463 -0.0156614 0.0558545 0.0143855 0.024999 0.00354839 -0.00901209 0.0376089 -0.00312913 -0.0170577 0.00607213 -0.00329407 -0.0417892 -0.02943 0.00606542 -0.00706276 -0.0365759 -0.00594067 0.0353873 -0.0238994 0.00486206 0.000961588 0.0308296 -0.0207406 -0.0107135 0.00393909 0.00457057 0.00919096 0.0246963 -0.00463579 0.025882 -0.073719 0.00130909 -0.101072 -0.0706562 -0.00573444 0.0159301 -0.00393397 -0.0599367 0.0216148 -0.000520391 -0.018492 0.0135822 -0.0268869 0.0161013 0.000287472 0.0510583 0.0172398
/other/art/stage 0.0124922 -0.00954697 -0.0262179 0.000910321 0.0280262 0.0389345 -0.00313206 -0.00339808 -0.0154524 0.00855143 0.00466834 -0.0031695 -0.0449102 -0.0177115 0.00214865 0.0131128 0.0564803 -0.0462478 0.0479164 -0.0123638 0.0130664 0.0179069 -0.00841589 0.0641749 -0.0168793 0.0161322 -0.0505904 0.0375498 -0.0159249 -0.00416445 0.0126468 -0.00125398 0.0115211 -0.00744393 -0.0160875 0.000672952 -0.0222232 -0.00243976 0.00691287 -0.0240686 -0.0131516 0.0153648 0.0149707 0.0318023 -0.0130244 0.000255708 0.0129245 0.0151895 -0.0288959 -0.000315132 -0.0113708 0.00286481 0.0070154 0.0787158 0.0214336 0.00114586 0.0480163 0.010618 -0.0250673 0.0098897 0.00388257 0.00435536 -0.0168993 0.00448339 0.00927018 0.0140911 0.00122998 0.00749077 -0.00045731 0.0278422 0.00353332 0.0196125 -0.0226284 0.00791894 0.00212929 -0.00307399 -0.00255419 -0.00714085 -0.011759 -0.0160596 -0.00564699 0.0284769 -0.00332334 0.0330207 -0.0124244 0.0330113 0.0139499 0.0021417 -0.00819471 0.00237379 0.01054 0.00671661 -0.0114002 0.0361994 -0.00553293 -0.0251714 -0.00915154 0.0134094 0.0496327 -0.0373567 0.0315901 -0.0250093 0.011793 0.0183866 0.0179964 -0.0382243 -0.0111795 -0.0247009 0.00908141 0.0203206 -0.0332497 -0.00431384 -0.00444133 -0.0214564 -0.00290206 -0.0204265 -0.000713044 0.0561902 0.0067218 0.0106862 0.0343705 0.0168352 0.0148061 0.0142222 -0.079 -0.0397691 0.039182 0.00843679 -0.0361321 -0.000178803 -0.0330281 -0.00506914 0.0192433 -0.0174177 0.00211211 0.00305938 0.00715844 0.023506 0.00615659 -0.0134572 0.0109765 -0.0119992 -0.0229215 0.0621493 -0.00794782 0.0037739 0.00669454 -0.00226784 0.0185826 0.0385491 0.019221 -0.0123645 -0.00808654 -0.0239405 0.0288576 0.00185156 -0.0351537 -0.00595833 -0.0234973 -0.0359033 0.0149099 -0.0138985 -0.0352905 0.00917517 -0.00347478 0.0124988 0.00990878 0.0109009 -0.020937 -0.01118 -0.0130458 0.00434908 0.0132004 0.0376019 -0.000882647 -0.0462915 0.0261223 0.028942 -0.0159593 -0.0167267 -0.0157403 -0.0353356 -0.074407 0.0150154 -0.0376055 0.0605211 -0.0199145 0.0476543 0.0417596 0.0428793 -0.0112064 -0.00578153 0.0457717 -0.0358638 -0.00414886 -0.0202935 0.0107668 0.0295845 -0.0425495 -0.030385 -0.0165446 0.0349532 0.0163224 0.022142 -0.0649743 0.00604913 0.00888556 -0.0391972 0.00889269 -0.00960063 -0.0211608 0.0162402 -0.0126657 -0.0426182 0.0665298 0.0654376 0.0203941 0.038198 -0.0202891 -0.0669946 0.013343 6.35499e-05 0.0602226 0.0333728 0.000115979 0.00952136 -0.0108722 -0.0459931 -0.00211186 0.00340392 0.00374394 -0.0146604 -0.00492073 0.048523 0.0556447 0.016994 0.0384211 0.0184655 0.0656104 -0.0148854 0.0100064 -0.0099194 -0.0103215 -0.0235645 -0.0220417 0.0173577 -0.0122322 0.0228375 -0.0270696 -0.0449944 0.0214058 0.018963 0.0391767 -0.0328851 0.0677649 0.030403 0.0161964 -0.00862687 -0.024017 -0.00563976 0.0358666 -0.0131705 -0.0182039 0.0222578 -0.019122 -0.0437792 0.00699016 -0.0348848 -0.000739742 0.0154108 0.00490781 -0.0217425 0.00725319 0.0144592 0.0315733 0.015394 0.0266769 0.0189457 -0.00700062 -0.0222618 -0.00244536 0.00523815 0.0032234 -0.055916 0.00542644 -0.0280577 -0.0219582 -0.0239568 0.00178742 0.0051324 -0.00174198 -0.000765924 0.00306972 0.019724 0.00899441 -0.0181054 0.00549231 0.014177 0.0128539 0.0195178
/location/geograpy/island 0.0047687 0.00116281 -0.0128129 0.0141361 -0.00173108 0.0463598 0.0057352 0.000240259 -0.0125765 0.00552743 0.00750336 0.00513224 -0.0390651 -0.0129975 0.00481215 0.00257873 0.041262 -0.0327967 0.0497445 -0.0165137 0.024515 0.0287253 -0.0195888 0.0386827 -0.0129047 -0.0181957 -0.0242096 0.0535031 -0.0119205 -0.00603533 0.007815 -0.00138135 0.0176263 -0.00729118 -0.0174939 -0.027273 -0.0223365 -0.00225609 -0.00456412 0.0122762 0.0109319 -0.0067369 0.0244262 0.0191118 -0.0444636 -0.00618626 0.0578712 0.0209276 -0.0563212 0.00726296 -0.00042194 -0.0169259 -0.0027587 0.072933 0.0202795 -0.0102467 0.071407 0.0244259 -0.0480326 0.0245394 -0.00584397 -0.00303474 -0.00783787 -0.00502951 0.0212047 0.0105191 0.0104385 0.0055124 -0.0132341 0.0348178 0.0142086 0.0444563 -0.0431842 -0.0242767 0.0122762 -0.0135367 0.0147418 -0.0224404 -0.039551 -0.00435689 -0.00511853 0.0143389 -0.00357723 0.0255428 -0.0092793 0.0181919 0.00961197 -0.00806894 -0.0130417 -0.0149354 0.00610019 -0.00335287 -0.0155915 0.0124873 -0.00515112 -0.0162865 -0.0138549 -0.00106778 0.0556785 -0.0325169 0.01387 -0.00180887 0.0124277 0.0058567 0.0218593 -0.0136304 -0.016987 -0.0220722 0.0154857 0.0190508 -0.0276323 0.00816386 -0.000623688 -0.0115134 -0.0166389 -0.022028 0.0100968 0.0540799 0.00569239 -0.00383143 0.023894 0.0323693 0.033299 0.0184838 -0.0542617 -0.0225105 0.0357452 0.016684 -0.0238918 -0.00479609 -0.0428206 -0.0163615 0.0246275 -0.00556996 0.00581433 0.00706119 0.00377493 0.0236349 -0.00861434 -0.00765537 0.00297926 -0.0014245 -0.0142557 0.0347219 -0.012779 0.00684869 0.0235409 0.0111732 0.0267782 0.0222443 0.0323289 -0.00942435 0.00282129 -0.0134494 0.0309507 -0.0147286 -0.0426677 0.00852332 -0.0230654 -0.0497257 0.00443366 -0.014974 -0.0250762 -0.00279374 -0.011112 0.00409055 -0.0141971 0.00264463 -0.00988069 -0.0106308 -0.0129898 0.0228887 0.0151113 0.0341333 -0.000556082 -0.0272922 0.00466699 0.0229526 -0.0251934 -0.0223371 -0.0158412 -0.0398188 -0.109136 0.0163211 -0.0464391 0.0209062 0.00478467 0.0670004 0.0142121 0.0254581 0.00224448 0.00847963 0.0173962 -0.0176084 -0.0108338 -0.0200546 0.00534808 0.0316625 -0.0290148 -0.014796 -0.0115619 0.0292666 0.0122585 0.0135253 -0.0422183 0.0178986 0.000436644 -0.0310741 0.0117295 -0.00406124 -0.0228091 0.0238761 -0.0101758 -0.0317492 0.0602267 0.0745701 0.0286797 0.0291462 -0.0222759 -0.0636816 0.0155074 -0.00548318 0.0747907 0.0385432 -0.00824398 -0.0106807 -0.025867 -0.0446176 -0.0103603 -0.000601172 0.00600166 -0.0184822 -0.0108419 0.05369 0.0545999 0.0149933 0.0343758 0.0195541 0.0545301 0.00421682 0.00764392 -0.00199984 0.0105724 -0.0268695 -0.0305532 0.00618758 -0.0133748 0.0227966 -0.0243378 -0.0313503 0.01632 0.0119545 0.0242971 -0.0316384 0.071788 0.040594 0.00734231 -0.0168778 -0.024745 0.0238556 0.0437733 -0.00712193 -0.0309157 0.0271773 -0.0359378 -0.0516329 0.0169078 -0.029278 0.00602992 0.0147978 -0.00275644 -0.029285 -0.00891115 0.0107106 0.0301534 0.00376327 -0.00206704 0.0341647 -0.0110358 -0.0228793 0.0129587 -0.000487975 0.0304832 -0.080281 0.0126375 -0.0328815 -0.0351133 -0.00544044 0.0232398 -0.0102893 -0.0363713 -0.00785148 -0.00683463 0.0190806 0.0222475 -0.0515777 0.00306746 0.0176953 0.0409609 0.0426426
/location/city 0.0141009 -0.0012975 -0.00338685 0.045858 0.0188341 0.0390098 -0.0355192 -0.0250767 -0.0336117 -0.0113163 0.034279 -0.0242249 -0.0405724 -0.00435617 -0.00281758 -0.000578022 -0.00367376 -0.0463484 0.0145 -0.00687399 0.059926 0.0199725 -0.0396968 -0.00364549 -0.0339128 -0.023555 -0.0242779 0.00677056 -0.0119543 -0.00746763 -0.0128342 -0.0108796 0.0132004 -0.00275773 -0.0615477 -0.0438817 -0.0241287 0.0240415 -0.000344222 -0.0258503 0.0305389 0.0588151 0.0032656 0.0319122 -0.0477959 0.00961998 0.0567159 0.0201001 -0.0244531 0.00803424 0.0324436 -7.67186e-05 0.00691537 0.0675479 -0.0119613 0.0102971 0.0432295 0.0288555 -0.0230078 -0.00926102 0.0180716 0.0202191 0.00467021 0.0144654 -0.00732582 -0.0141422 0.0419577 0.0189094 0.0180656 0.0108674 0.0309904 0.0409904 -0.000697581 0.00856261 -0.00125214 -0.0185192 0.0111366 0.00280981 -0.0224302 -0.0236188 -0.0268627 0.0092055 -0.0200989 0.0165667 -0.0101221 0.0182318 -0.037055 -0.0111849 0.0120219 -0.0155621 -0.00744326 0.0278317 -0.0159267 0.0143024 0.0312573 -0.0500987 -0.0241999 0.0101297 0.0707579 -0.0426188 -0.00662434 0.00336098 0.010329 -0.00508627 0.00658475 -0.0257993 -0.0115653 -0.00935862 -0.00183083 -0.0164732 0.0115124 -0.0521206 -0.0310104 0.0150393 -0.0147045 -0.0326033 -0.0257111 0.0339976 0.040332 0.0107247 0.0580164 0.00160971 0.0422724 0.0561762 -0.0101187 -0.0106102 0.0299994 -0.0110488 -0.00174088 -0.0128902 -0.0569943 -0.0363472 0.0442673 -0.0292019 -0.0163077 0.0094387 0.00304441 0.0221604 -0.00736469 -0.0432999 0.0206018 0.0105754 -0.0290672 0.0435813 -0.0156971 -0.00170141 0.0225729 0.0280376 0.0287805 0.0388605 0.0134849 0.00822392 -0.003753 -0.0158348 0.00632376 0.0196538 -0.0441868 0.00641107 -0.0376266 -0.037269 0.000606727 -0.0168477 -0.0230918 0.0319892 -0.0154784 0.0531639 0.00197759 0.0302909 -0.00353993 -0.0136258 -0.0289781 -0.0117882 0.023442 0.0601978 -0.0278023 -0.0161327 -0.0178016 0.0167991 -0.0453806 -0.0115686 -0.0140827 -0.0207619 -0.106994 0.0295384 -0.035019 -0.0382924 0.000255222 0.0600796 0.0172042 0.0428584 -0.0240186 0.00123837 0.0432129 -0.0282767 -0.0158708 0.00581849 -0.0058566 0.0244641 0.00842718 -0.00825245 -0.026878 0.00978355 0.0273302 0.0538504 -0.0169158 -0.0102395 -0.0108737 -0.0168575 0.0224371 0.0183444 -0.0279181 0.0183885 -0.0142789 -0.0558759 0.0662143 0.0586871 0.00595963 0.0345879 -0.0275683 -0.0328494 -0.00201886 -0.0164382 0.0770135 0.0491802 0.0117177 -0.0178327 -0.0298761 -0.114099 -0.0324721 -0.0390106 0.0205385 -0.00223791 0.00922345 0.0769931 0.0625984 -0.00789572 0.0560599 0.0103953 0.0514671 -0.0153903 0.0380893 0.0263206 0.029964 0.0164058 -0.016468 0.0239524 -0.0626172 0.034308 -0.0262609 -0.0322689 0.0473094 0.0479489 0.102874 -0.034847 0.0919374 0.0585802 -0.00762421 -0.0187551 -0.00279607 0.0268881 0.0358479 -0.0314451 -0.0901361 0.0112704 -0.0278332 -0.079818 0.0113682 -0.0488753 0.0103458 0.00801329 0.0509731 -0.0496962 -0.000903978 0.0096507 0.0520631 -0.00513003 0.0122345 0.0630119 -0.0186412 -0.0424247 0.0176587 -0.038905 0.0355729 -0.081734 0.0374019 -0.0743487 -0.0862337 -0.0278318 0.000963393 -0.0101176 -0.0267833 -0.00195723 -0.0166542 0.0112453 0.0250395 -0.00212666 -0.0289642 0.0442665 0.0127874 0.0452877
/other/scientific 0.0138187 -0.0266597 -0.0644781 0.0458041 0.0589092 0.031341 0.0343403 -0.0616868 -0.0411431 0.0299821 0.00232271 0.0334671 -0.0207307 -0.00868031 0.00556671 0.003916 0.0136845 -0.0217353 0.0658784 -0.0102826 0.0210866 0.0630998 0.00291482 0.0910221 -0.0115611 0.0182391 -0.00233956 0.0347624 -0.0513676 0.0125728 0.0420535 0.0015258 0.0301219 -0.0198821 -0.000932136 0.0264959 -0.0543283 -0.0128795 -0.011448 0.00952717 -0.0158793 -0.0120316 0.00708034 -0.00198446 -0.0552993 -0.0156098 0.0109659 0.00483523 -0.0388366 -0.02614 0.0235989 -0.0161268 0.0409014 0.0684858 0.0281614 -0.00919907 0.024435 0.0321154 -0.0502374 0.0792886 -0.0204197 -0.0262747 0.0367889 -0.0145895 -0.00938162 -0.0123723 -0.00586118 0.00880636 0.00327601 0.0259931 0.00482327 0.00472316 -0.0229708 -0.0195251 0.00457811 -0.0121964 0.0102198 -0.00829844 -0.0176757 -0.00401905 -0.00619659 0.0436577 0.00416176 0.0301001 0.0278949 -0.0547035 0.00358156 -0.0449696 -0.0113268 0.0295666 0.0102412 -0.0309458 -0.0368064 0.0198732 0.00772725 -0.00688312 0.0143173 -0.00411996 -0.0162679 -0.0125688 0.00112738 0.0219129 0.0424246 -0.00197151 0.048743 0.0128981 -0.00210272 -0.0332057 0.0140579 0.0283773 -0.0332222 -0.00346195 0.0159368 -0.00118604 -0.0153942 0.00641346 -0.0185823 0.0269344 0.0481387 0.0177346 0.0383454 0.000787593 0.0294127 0.00891363 -0.0486139 -0.000666632 0.0362417 0.0277752 -0.0346945 -0.00897049 -0.0309252 0.0137561 0.0202119 -0.0224255 0.0329272 0.0523273 0.0303834 0.024175 0.00721305 -0.00681809 -0.0228197 -0.0320924 -0.00186797 0.0390309 -0.0358173 -0.00852935 0.0161573 -0.0217809 0.0390045 -0.0139048 0.00269017 -0.0073375 0.00702766 -0.0219619 0.0451426 0.0380493 -0.068596 0.0259897 -0.0527925 -0.0831024 0.00264717 0.0138542 -0.00727089 0.0314202 -0.016503 0.0138565 -0.0131993 0.0552285 0.00669267 -0.0386877 0.00942965 0.0232792 0.0164706 0.0382213 0.0312082 -0.0361169 -0.013756 0.022626 -0.0103477 0.0248502 -0.0463402 -0.029999 -0.0921979 -0.0103143 -0.0310187 0.0464721 -0.0038014 0.0243806 -0.0153187 -0.0253763 0.0239124 -0.0118183 0.0126587 0.0025314 0.0378913 -0.0232857 0.011891 0.0128694 -0.0252921 -0.0178222 -0.0121419 0.0554507 -0.00891863 -0.0421978 -0.0277191 0.0202733 -0.0148416 -0.0188279 -0.0114354 0.00846671 -0.0233394 0.00926296 0.0238905 -0.00678094 0.0341655 0.0184082 0.00352827 0.0414962 -0.01104 -0.0486953 0.0247129 -0.00967674 0.0863951 0.0331304 -0.0201212 -0.00825532 0.00106219 -0.0489417 0.0019787 -0.0100207 0.0134929 -0.00774676 0.0354914 0.0459593 0.0625356 0.0312781 0.0204868 0.00711805 0.0796557 0.00568898 -0.0143855 -0.0099201 -0.0191389 0.013821 -0.027319 0.0199098 -0.0117468 0.0138274 -0.0187377 -0.0710221 0.0217191 0.0261451 0.0763326 -0.0527006 0.0565189 0.0132429 0.0421132 -0.042515 -0.0112244 0.0555111 0.0481727 0.00845456 0.00261812 0.0197509 -0.062465 -0.0248239 0.00949939 -0.0287922 -0.00849674 0.00845543 0.0201013 -0.0459878 0.00964351 0.00112003 0.0647712 0.00970291 0.0178071 0.0118245 -0.0172327 -0.0169526 0.00414418 0.00576228 -0.0119079 -0.0465938 -0.0027796 -0.0349228 -0.00235092 -0.0225603 -0.0277172 0.0060929 -0.0778117 0.0112873 -0.0417234 0.0725354 0.00972048 -0.0211984 -0.035085 0.0717038 0.0355023 0.0432716
/other/event/violent_conflict 0.0236584 -0.0064287 -0.0222792 -0.00270479 -0.0109582 0.0115501 0.0338022 0.000689544 -0.0057947 0.00390128 -0.00185779 -0.00510438 -0.0177384 -0.028856 0.00993848 0.00669607 0.00775306 -0.0305734 0.013344 0.00763053 0.0395905 -0.00217052 -0.0125768 0.00260409 0.0253399 -0.00999359 -0.000743866 0.0367182 -0.0305493 -0.0322909 0.052571 0.00492506 0.0254295 -0.041216 -0.0479868 -0.0148202 -0.0442157 -0.0366268 0.0429157 0.0380555 0.000394792 -0.00537371 0.0415331 0.0231845 -0.0579124 -0.01805 0.0345167 0.0285878 -0.0409688 0.00916394 0.00987498 -0.00920084 -0.00655795 0.0725916 0.0461095 -0.0112579 0.079838 0.0118749 -0.025106 0.0229822 -0.0372505 -0.0409141 -0.0077797 -0.0129143 0.0432128 0.00615369 -0.00434594 -0.00516938 -0.0106693 0.035293 0.0428098 0.0737076 -0.020867 -0.0427757 0.00960738 -0.0372339 -0.0212736 -0.0144516 -0.0328136 -0.0170201 0.00126944 0.045782 -0.000457758 0.0487475 -0.0327363 0.031859 -0.0075926 -0.00936077 -0.0231074 0.00727996 0.00913055 0.0208449 0.00103135 0.0202732 0.0120999 -0.0488814 -0.0248313 0.0167897 0.0666089 -0.0149338 0.0317038 -0.0293437 0.0210113 0.0362842 0.0531131 -0.043 -0.0335422 -0.0206393 0.0234908 0.0241868 0.00434224 -0.0227608 -0.00402654 -0.00503885 -0.0220639 -0.00620116 -0.00955551 0.046249 0.0328845 -0.000915695 0.00549193 -0.00336763 0.0126265 -0.00161973 -0.0549876 -0.0361928 0.0515636 0.000452723 -0.00016514 0.0182541 -0.0436395 -0.00679741 0.0453472 -0.00180394 -0.0140732 0.011249 -0.0118796 0.00970822 -0.0279798 -0.0228058 0.00106141 -0.0159888 -0.00894146 0.0303844 -0.00269312 -0.00455126 0.0264681 0.0064727 0.0215812 0.0203905 0.00869696 -0.0369566 0.00960582 -0.0197394 0.0150343 0.00288117 -0.0418773 0.00971779 0.00696326 -0.0291488 0.00546484 -0.022463 -0.0151738 0.000900726 -0.00884036 0.00593418 0.0248825 0.0285905 -0.0156745 -0.0137218 -0.0175738 0.0458049 0.022069 0.03105 -0.0117102 -0.0188198 0.0203174 0.00797237 -0.0316556 0.00292065 -0.00728863 -0.0363911 -0.0703774 0.0262366 -0.0148379 0.0146475 -0.00654277 0.0424467 0.0168738 0.041341 -0.00564598 -0.00389181 0.00946657 -0.00793818 0.000167227 -0.0164016 0.0233201 0.0299808 -0.0416131 -0.0286383 0.0061563 0.0190285 0.00387176 0.0341961 -0.0363054 0.00964807 -0.0137128 -0.00141561 -0.00869448 -0.0173249 -0.00700743 0.00883488 -0.0143781 -0.0203183 0.0575047 0.0451932 0.0246254 0.0412993 -0.00314767 -0.0752302 0.00156045 -0.00686809 0.0634902 0.0263869 5.97146e-05 -0.0201522 -0.00247765 -0.0112186 0.00172044 -0.0129669 0.0121478 -0.0297435 -0.00213897 0.0498786 0.0426306 0.0143572 0.0370045 0.0266183 0.066917 0.0390697 -0.0120213 -0.00264458 -0.00847588 -0.0357594 -0.0256843 0.022723 -0.017344 0.0294153 -0.0323488 -0.0546718 0.0184675 0.000808533 0.052289 0.00750114 0.0524713 0.0236625 0.00666631 -0.0168985 -0.00376431 0.0243375 0.0217835 0.0261194 -0.0176148 -0.0173881 -0.0169604 -0.0202402 0.00288874 -0.00616327 -0.00171968 -0.0120798 0.019845 -0.0132054 0.00141802 0.0294617 0.0361867 0.00179069 -0.0210266 0.000991471 -0.00387484 0.0113293 -0.00739296 0.0243291 -0.00688308 -0.0377564 -0.00104426 -0.0408519 -0.0624048 0.0127217 0.00418552 0.0106653 -0.0387815 -0.00227897 -0.00836846 -0.00947943 0.00356893 -0.0220863 -0.0157094 -0.0120937 0.015838 0.0310274
/other/health 0.0130872 -0.00455746 -0.051441 0.0349053 0.0348119 0.00644679 0.0590302 0.00695995 -0.0196476 0.0229757 -0.0018105 -0.0143592 -0.0446879 -0.0261586 0.00540934 0.0401275 0.024197 -0.0301147 0.0567909 -0.000562157 0.0264349 0.0219644 -0.0199968 0.0575122 -0.00165593 0.0286772 -0.0466945 0.0311136 -0.0478478 0.00671846 0.018125 0.00021472 -0.00442302 -0.00906243 -0.0284346 -0.00891497 -0.040203 -0.0400715 0.0157589 0.000771004 -0.0204028 -0.00184919 0.0219193 0.0231782 -0.0207556 0.00809787 0.0164314 -0.000616676 -0.0123644 -0.0104606 -0.00538807 -0.0110503 -0.0144751 0.0331762 0.0483114 -0.0182657 0.0615243 0.00139447 -0.0441496 0.0325026 -0.000482298 -0.0319248 -0.0131472 0.0059144 0.0136812 -0.00348864 0.00869745 0.00774573 0.031655 0.0303584 0.00260606 0.0542057 -0.0254605 -0.0218788 0.00561161 -0.0264674 0.0108706 -0.00757176 -0.000585299 -0.01364 -0.00470304 0.0326889 -0.00120734 0.0259239 -0.00413341 0.00872843 -0.000139916 -0.0273992 -0.0590971 0.0230868 0.0140007 -0.0127472 0.00886911 0.0330104 0.0311247 -0.0153849 0.0108329 0.00465991 0.033858 -0.0376253 0.0392032 -0.0268357 0.0150745 0.00273302 0.0610094 -0.0585189 -0.0238733 -0.0371821 0.0148368 0.0344129 -0.030768 -0.00391477 -0.00191845 -0.0168506 -0.0328452 -0.046266 -0.0101406 0.0236959 0.00464645 0.00396441 0.0171911 -0.0129666 0.0120381 -0.0130498 -0.0469872 -0.0153287 0.0190038 0.0192442 -0.0133567 0.0243946 -0.0343519 -0.00763242 0.0213976 -0.0122822 0.0196599 0.0219111 0.00155711 0.00225111 -0.0322059 -0.0363992 0.000221904 0.00996583 -0.0218595 0.0495033 -0.00392302 0.00783657 0.00813855 0.00394304 0.0105353 0.0188847 0.0191499 -0.00890096 0.0096778 -0.00937491 0.020325 0.0253043 -0.029819 -0.0022107 0.0174943 -0.0179348 0.0174884 -0.000654084 0.00187334 0.010092 -0.0234708 0.0172168 0.0106803 0.0287856 -0.0277329 0.0153749 -0.0313501 0.0370219 0.00166663 0.0329034 -0.0135715 -0.0311292 -0.00217623 0.042892 -0.0267162 0.00836357 -0.0277399 -0.032339 -0.0601982 0.011133 -0.0277842 0.0206177 -0.0168227 0.0376384 0.00763665 -0.00316581 0.0124043 0.0179392 0.00740342 -0.0117997 -0.00686433 -0.0140948 0.0369154 0.0398355 -0.0696991 0.00239622 -0.0278661 0.0324804 0.0210053 0.00392584 -0.0613749 0.0140093 0.0110015 -0.0272169 -0.00261412 0.00776009 -0.00492051 -0.0120904 -0.00620302 -0.0357941 0.0512172 0.0510774 0.0277877 0.0518889 -0.0109187 -0.0619789 0.0270709 0.0162739 0.0701544 0.0369301 -0.0203373 -0.01994 -0.000634433 -0.0316429 -0.00309649 0.00580409 -0.00781585 -0.0229897 -0.000946607 0.0384511 0.046966 0.0280949 0.0467738 0.0101144 0.0779797 0.0201304 -0.0219369 -0.00440029 0.000299653 -0.0168578 -0.0425221 0.0184184 0.0142988 -0.00117216 -0.0191623 -0.0553887 -0.00636884 0.00720842 0.0562866 -0.014651 0.0408501 0.0189363 0.0195657 -0.0471368 0.00109769 0.0191956 0.028173 0.0109533 -0.000201613 -0.0111869 -0.0227324 -0.0241949 0.00728253 -0.0179512 0.0176937 0.00388353 0.0217491 -0.0154088 0.000414991 0.0209304 0.0466084 0.0360598 -0.00960408 -0.00448959 0.0106231 0.0052223 -0.0087579 0.0146194 0.000433603 -0.0613345 0.0128096 -0.0362872 -0.0113243 -0.00265624 -0.00531245 -0.00017404 -0.0356017 -0.0035435 -0.00847661 0.0175252 -0.00310791 -0.0455679 -0.0257921 0.0417758 0.000705013 0.0297443
/location/structure/hotel 6.47954e-05 0.00302319 -0.021861 0.00133927 0.0300444 0.055477 0.0114941 -0.00906903 -0.00624061 0.00402149 0.0112654 0.00915426 -0.0441982 -0.024466 0.00577329 0.0116259 0.0401479 -0.0238907 0.0555986 -0.00464841 0.0228742 0.0320029 -0.00607398 0.0314197 -0.0100847 0.00302237 -0.038652 0.0256337 -0.00347271 -0.0102796 0.0241789 0.00347812 -0.0107508 -0.0160655 -0.0186387 -0.027615 -0.00694465 -0.0013108 0.0124046 0.00625833 0.00744799 -0.01266 0.0115386 0.0117806 -0.0326183 -0.0117456 0.0431149 0.00415739 -0.0483763 0.012694 0.00653161 -0.00301753 0.00472786 0.0776133 0.0289083 -0.0010559 0.063002 0.011863 -0.0488407 0.022805 0.015689 0.00831872 -0.00452313 -0.000686652 0.0224038 0.0229679 0.0166605 0.0189011 -0.00210523 0.0126761 0.0298213 0.0186678 -0.0280293 -0.00379256 -0.00895922 -0.024528 -0.00136316 -0.00257522 -0.0293012 -0.000157772 -0.00406091 0.0146003 -0.00719817 0.0271009 0.0043074 0.0105374 0.0221197 -0.00438473 0.00160727 0.0039349 0.0139501 0.0119486 -0.0163622 0.0426869 0.00374534 -0.024812 -0.0117161 0.0190142 0.062512 -0.0226778 0.0127849 -0.0235502 -0.00296196 0.0224706 0.0199199 -0.0307249 -0.0108163 -0.00971664 0.0169255 0.0164232 -0.0370034 -0.00977795 -0.014771 -0.00955816 -0.0216476 -0.0183045 -0.00396949 0.0377231 0.00596179 0.0163164 0.0405004 0.0257455 0.0315449 0.0283509 -0.068016 -0.0177303 0.0295665 0.0223147 -0.0303985 0.00354898 -0.0445431 -0.0191107 0.0137058 -0.00233045 0.0116378 0.0146447 0.00303229 0.00412529 0.00253076 -0.0171316 0.00357177 -0.00974622 -0.00819836 0.050075 -0.00399666 -0.00227291 0.020169 -0.00253428 0.0399082 0.040629 0.0199438 0.00403519 -0.00580802 -0.0112761 0.0247226 -0.00142701 -0.0465008 0.00124966 -0.0163177 -0.0652269 0.00433719 -0.0179582 -0.0378075 0.00268571 -0.0131756 -0.000237695 -0.0148739 0.0113245 0.00146939 -0.00964929 -0.030352 -0.00277397 0.0123586 0.0522332 -0.00429254 -0.0330083 0.0158534 0.0388093 -0.0160034 -0.0263508 -0.0034594 -0.038987 -0.0862048 0.00978115 -0.0398469 0.0116077 -0.00184042 0.033184 0.0147523 0.0430638 0.00919162 0.00914165 0.0439429 -0.024566 0.0113455 -0.00832271 0.0163208 0.0274915 -0.0291547 -0.0214444 -0.0274798 0.0358118 0.0176562 0.0214734 -0.0528803 0.00518052 0.000443608 -0.0496415 0.0124105 -0.0129178 -0.0290087 0.0173916 -0.00483328 -0.0279568 0.0674255 0.0687416 0.0144979 0.0315916 -0.0172602 -0.0708643 0.0246408 -0.000373351 0.0646762 0.0404877 -0.00674299 -0.0274403 -4.25737e-05 -0.0364934 0.00257171 -0.00849437 0.0146898 -0.029915 0.00201216 0.0481374 0.0473773 0.0285642 0.0259644 0.00889029 0.0638843 0.00847677 0.00992237 -0.00500916 0.0151307 -0.025039 -0.0209207 0.00432638 -0.000576162 0.0228066 -0.0336943 -0.0686788 0.023544 0.0289754 0.0380304 -0.0232842 0.038541 0.0447338 0.0119411 -0.0164471 -0.0140626 0.00121979 0.0231701 -0.0076144 -0.0340364 0.0362183 -0.028086 -0.0461705 0.0290195 -0.0281238 0.00355082 0.0198907 0.00329171 -0.0192765 -0.00777233 0.000260277 0.0356393 0.0139425 0.0215321 0.0343548 -0.00259576 -0.0278184 0.00294205 -0.00596251 0.0240038 -0.057273 0.0154026 -0.0419745 -0.0430672 -0.0173514 -0.0122487 0.00349156 -0.00869842 0.00525036 -0.00929593 0.0250134 0.0220108 -0.0256239 -0.0114875 0.0240195 0.0161824 0.0150489
/person/artist/actor 0.0296059 -0.0084055 -0.0245834 0.027051 0.051571 0.0553022 0.033574 -0.0141255 -0.00707082 0.00686188 0.0249336 -0.0297661 -0.0691513 -0.0314344 -0.00751599 0.0224425 0.103179 -0.104386 0.0611291 -0.0245195 0.0174669 0.0047364 0.00743354 0.0387604 -0.0347009 0.0203601 -0.00197934 0.0276915 -0.0167979 -0.0132313 -0.00889392 0.0049854 -0.00928335 -0.0217069 -0.0243121 -0.0125718 0.0112626 -0.00457042 -0.00798768 0.0133432 -0.014574 -0.00663742 0.0427074 0.0343562 0.0508802 0.0131208 -0.00528006 0.0101205 -0.0271983 -0.0165904 -6.56493e-06 -0.0204238 -0.000373255 0.0803643 0.0492908 -0.00677343 0.0448143 0.00490557 -0.0220896 -0.0256148 0.00645601 0.0529219 -0.0319314 0.0299836 0.00626912 0.00758436 0.00465711 -0.031259 -0.0047967 0.00399005 0.0132325 0.0022744 -0.0124477 -0.00394509 -0.00402032 -0.028255 0.0192647 0.00188235 -0.0214955 0.00304609 -0.00613547 0.00516717 -0.0121092 0.00369472 -0.0220447 0.0742729 -0.0104297 0.0378662 -0.00523593 0.00866247 0.015608 -0.00294588 -0.00602561 -0.00695827 0.00286483 -0.0231581 -0.00164116 -0.0115322 0.0873726 -0.0489836 0.0282171 -0.0486932 -0.0141269 0.0315477 -0.00303425 -0.0212862 -0.0379299 -0.0044121 -0.00550775 0.00387141 -0.0155084 -0.0382187 -0.0179369 0.00643387 0.00777661 -0.00719029 -0.00195186 0.0344873 -0.00256093 0.016259 0.00660973 -0.0209005 0.0117457 0.0142131 -0.0961981 -0.0445071 0.0687585 -0.00185695 -0.0385321 -0.0280451 -0.0306962 -0.0296064 -0.000143782 -0.00738631 0.0215579 -0.00539645 0.031816 0.0153968 0.00310152 -0.00582795 0.0205907 0.00624478 -0.0194602 0.0851295 -0.0210166 0.0179116 -0.0168173 -0.000481377 0.0133621 0.0638525 0.0273684 0.0110874 -0.00153444 -0.0273748 0.0233961 0.0161412 -0.0249022 0.015264 -0.000179667 -0.0564209 0.013036 -0.0295119 -0.0334339 -0.00557021 0.013928 -0.00103737 0.0140372 0.0139002 -0.0219139 -0.0352423 -0.0304184 0.00808559 -0.0112704 0.0420025 0.00862224 -0.0330672 0.0322565 0.0311256 0.0089411 0.0032413 0.00763426 -0.00736422 -0.0676952 0.0464368 -0.0633296 0.073709 0.0120052 0.068261 0.022902 0.0659537 -0.0030192 0.0185492 0.0382127 -0.0507695 -0.00964137 -0.00537292 0.0128129 0.0428602 -0.0464582 -0.0234286 -0.0466386 0.0453693 0.0179156 0.025175 -0.0555586 -0.0206196 -0.0125404 -0.017218 0.00398411 -0.0147775 -0.0299384 0.0443814 -0.0198974 -0.0632925 0.0366497 0.0631349 0.00656733 0.0340029 -0.0396991 -0.0910359 0.026521 0.0126731 0.0899656 0.0330322 0.0217768 0.0129463 0.0195247 -0.0710898 -0.00727924 0.0174177 0.00942222 0.015054 0.023311 0.0618015 0.037367 0.0256785 0.0654904 0.0151498 0.0664069 -0.0269864 0.00764959 0.00880297 -0.00482952 -0.0169318 -0.0303153 0.021415 -0.0280224 0.0160414 -0.0567976 -0.0612198 0.050563 0.0658946 0.0171105 -0.0333364 0.095224 0.0217715 0.0210789 -0.00646052 -0.0100211 0.0115002 0.0356128 -0.0212925 -0.016997 0.00177899 -0.0348136 -0.0590122 0.0132413 -0.0201274 -0.0231095 0.0114131 0.00939543 -0.0422772 0.0223126 0.00839389 0.000303099 -0.0134941 0.0138344 0.0639738 -0.0203658 -0.0328264 -0.000972192 -0.0339665 0.0331741 -0.0619459 0.00167058 -0.00611065 -0.00915322 -0.000434403 -0.00677251 0.0302365 -0.0193231 -0.00184911 -0.00635271 0.0525763 0.0257409 -0.0104458 0.00455685 -0.0225312 -0.00597504 0.00471389
/other/health/treatment 0.0138021 -0.0250041 -0.0385611 0.0384322 0.04939 0.00766925 0.0511886 -0.0286316 -0.036102 0.016569 0.00403262 0.0163632 -0.0387038 -0.0205611 0.0117467 0.0134888 0.0309968 -0.000539282 0.0557538 0.00912544 0.0341701 0.0541847 0.00256053 0.0671616 -0.0124612 0.0175825 -0.0220778 0.0342617 -0.0554882 0.0217498 0.0256209 -0.0178475 -0.00808335 0.00148327 0.00549768 -0.00258768 -0.030868 -0.0347721 0.00941695 0.00930125 -0.0155672 -0.0199846 0.0137832 0.0106051 -0.0321249 -0.0159585 0.0189747 0.00568207 -0.0324899 -0.0315065 0.01141 -0.00372791 0.0226499 0.0562255 0.0368773 -0.010554 0.0523177 0.0326427 -0.0467634 0.059667 -0.0297952 -0.0219504 0.0272501 -0.0232097 0.0198504 -0.00612733 0.00967703 -0.00200387 0.0104038 0.0311814 -0.000681909 0.0423928 -0.00515555 -0.0188313 0.00904426 -0.0188323 -0.00471551 -0.00991419 -0.0134756 -0.0113681 -0.00385282 0.0278871 0.012243 0.0319588 0.0110682 -0.0295386 0.00421224 -0.0118651 -0.0360785 0.0105007 0.0199235 -0.0311263 -0.00319772 0.0230145 0.0118128 -0.0131934 0.000703691 0.0109048 0.0238401 -0.03185 0.0189534 -0.0172783 0.0338591 -0.00838377 0.05113 -0.0127861 -0.0152263 -0.0234799 0.0144114 0.0395408 -0.017005 -0.0140787 0.0272855 -0.0266566 -0.0340817 -0.0363978 0.00607888 0.0243866 0.0129298 0.0158041 0.044161 -0.0177211 0.0171034 0.00149571 -0.0368707 -0.0210242 0.0298109 0.0200921 -0.0135011 0.018479 -0.0379874 -0.0102417 0.0314226 -0.0263897 0.0203803 0.0345957 0.0152149 0.00369546 -0.0156899 -0.0304683 0.00999688 -0.00204892 -0.0125306 0.0405503 -0.0270749 -0.0226333 0.00838501 -0.0199629 0.0213295 0.0148938 0.0188801 -0.00897741 0.0114642 -0.00337549 0.0259583 0.0392279 -0.0266993 -0.0103919 -0.00931651 -0.0456396 0.0147507 0.00633952 -0.00429872 0.0111933 -0.00514887 0.0164105 -0.00160804 0.0321872 0.00256616 0.00420439 -0.011866 0.036529 0.0050679 0.0324324 0.0195887 -0.0270951 -0.00631721 0.0294235 -0.0145146 0.00885378 -0.0597357 -0.0216022 -0.0747588 -0.00267453 -0.0280698 0.0101496 -0.00153692 0.0129509 -0.0264707 -0.0167444 0.0190837 -0.00302308 -0.0238295 -0.00726002 0.0128896 -0.0195491 0.0238612 -0.000382848 -0.0304679 -0.0070849 -0.000883673 0.029865 -0.00150766 -0.0171025 -0.0358498 0.0169839 0.00729956 -0.0303882 -0.00758957 0.0138507 -0.0183456 0.0155503 -0.011203 -0.0224187 0.0410013 0.0311661 0.0193769 0.0324373 0.00765543 -0.0563774 0.0201554 0.00853239 0.0469079 0.0468609 -0.00693963 -0.0235062 0.00610787 -0.0475918 -0.00352677 -0.000548257 0.0058025 -0.009959 0.0022105 0.0349432 0.0564099 0.024141 0.0359151 0.0030548 0.0928711 0.0173946 -0.0225453 0.00180005 -0.0162659 -0.000224315 -0.0355984 0.0115144 0.00239634 0.0113506 -0.00531897 -0.0709609 0.0110039 0.0364734 0.054778 -0.0418897 0.0276325 0.03051 0.00773832 -0.0281362 -0.00406398 0.0198726 0.0358106 0.0131816 -0.00033682 0.00036833 -0.0510128 -0.0314163 0.00410754 -0.0157292 -0.0100605 -0.00324923 0.0348798 -0.0305253 0.00886138 0.0228904 0.0652714 0.0523702 0.00896436 0.0279252 -0.0254327 -0.0154975 -0.0105094 -0.00351604 0.0121376 -0.0771255 -0.0182568 -0.0553037 -0.0239369 -0.0150285 -0.0162644 0.0186894 -0.0325456 0.0108379 -0.0240392 0.0504103 0.00530498 -0.0337067 -0.0267437 0.0825294 0.0235963 0.0305092
/other/product -0.0138428 -0.0173224 -0.0196562 0.0303062 0.0153841 0.0129276 0.0303555 -0.00276475 -0.0249781 0.00414167 -0.00306022 0.0165406 -0.0250496 0.0104656 0.00734055 -0.00210017 0.0199039 0.00118998 0.0328172 0.0211849 0.0109246 0.0260763 -0.00439452 0.0363926 -0.00771304 0.0104488 -0.0292869 0.0128474 -0.0250481 0.0109074 0.0122102 -0.00699048 0.00642197 0.00308547 -0.0211284 -0.0152918 -0.0115056 -0.00677707 0.0114179 0.00408805 -0.0115132 -0.0340209 0.0136022 0.00945369 -0.0305406 -0.00509137 0.0225652 0.0375675 -0.0634128 0.00126779 -0.0182052 -0.000667655 0.0132968 0.0626734 0.0307849 -0.00550415 0.0511341 0.0287189 -0.0638579 0.0361069 -0.0141999 -0.0317873 0.0106129 -0.0554682 0.0330633 0.00503109 -0.00862274 0.0242578 -0.01573 0.0271762 -0.00528489 0.033657 -0.0241844 -0.0128762 -0.00318622 -0.010424 0.00201389 0.00402247 0.00971567 0.0114848 -0.00806235 0.0333963 0.0105854 0.0194937 0.00321075 0.00376073 0.0173853 -0.0271908 -0.0101672 0.0054696 0.00755972 -0.00473145 -0.00144703 0.0194084 0.00338643 -0.0173888 -0.00824505 -0.00724456 0.0127599 -0.00788257 0.0344767 -0.00944157 0.0353483 0.00586547 0.0164193 -0.0210572 -0.0184455 -0.0338472 0.0486761 0.021268 -0.020735 -0.0164119 0.0133437 0.00280993 -0.0509893 -0.0373159 0.0147551 0.0464886 0.0156388 -0.010081 0.0369538 0.013062 -0.000198101 0.0205153 -0.0563932 -0.0137658 0.0456517 0.00810286 -0.0135457 0.00323465 -0.0469785 -0.0195538 0.0337457 -0.0258082 0.00722301 0.02604 0.0128383 0.0269497 -0.00454047 -0.0264704 0.00392475 -0.0125984 0.00442122 0.0561544 -0.0207766 -0.0193373 -0.000885658 -0.0183753 0.0359675 0.0343939 0.0210618 0.0318259 0.00837166 -0.00967775 0.0343338 0.00322628 -0.0349811 -0.0169781 -0.0301371 -0.0469286 0.00536488 -0.0282592 -0.0476519 0.0125559 -0.00533661 0.00129477 0.0030922 0.0225353 0.0105806 -0.00639234 -0.0178405 0.00273557 0.010006 0.0184147 0.00199129 -0.0228707 0.0260108 0.0188243 -0.00802813 -0.0192776 -0.039013 -0.0244537 -0.0679406 -0.00906431 -0.0148677 0.0363705 -0.00928408 0.0337937 0.0116805 0.0138876 0.016208 -0.00763358 0.0244662 -0.0256512 0.019362 -0.0102162 -0.0145753 0.0215326 -0.060988 -0.0194057 -0.0022794 0.0433474 0.0153053 -0.00997922 -0.0471552 0.00720804 -0.0118759 -0.0369531 0.0281356 -0.00705527 -0.0445122 0.0363226 0.0138892 -0.0316855 0.0455558 0.0503637 0.0379894 0.0334233 -0.00121744 -0.043947 0.00381354 0.0223562 0.0348682 0.0295232 0.0047694 -0.00397398 0.000520927 -0.0207812 -0.00221926 0.0336764 0.017074 0.00269908 0.00670535 0.0256012 0.0255279 0.0204542 0.0332552 0.00767124 0.101879 0.00775551 -0.0131993 0.00852317 -0.00513834 0.021477 -0.0499521 -0.00591103 -0.00492859 0.0497712 -0.0217268 -0.0588559 0.0273143 0.0028765 0.0376365 -0.0438439 0.0354847 0.0315196 0.0135251 -0.0239145 0.0101445 0.00696323 0.0215685 -0.0130086 0.00423982 0.0257228 -0.0335912 -0.043785 0.0123209 -0.0150586 0.00149982 0.0114543 0.00997629 -0.0248889 0.00972895 0.00178804 0.0583687 0.0168873 0.00597206 0.0209209 -0.010576 -0.00459046 -0.0203309 -0.00924936 0.0128781 -0.0492724 0.00863407 -0.0588212 -0.0333469 -0.0282991 -0.00335248 -0.00392369 -0.0182283 0.00366156 -0.0166143 0.0430669 0.0218193 -0.0442158 -0.0193092 0.0826744 0.0299135 0.00845375
/other/health/malady 0.0152726 0.000819328 -0.0587319 0.0457469 0.0406504 0.00579728 0.062456 0.0147353 -0.0208311 0.0318047 -0.00135729 -0.018061 -0.0398493 -0.0317106 0.00618749 0.0464069 0.0284214 -0.0507065 0.0571408 -0.0158872 0.0265366 0.023301 -0.0246065 0.0619797 0.00274923 0.0369864 -0.0472713 0.0325149 -0.0475823 -0.00360005 0.0250203 0.0142232 -0.00500019 -0.0192622 -0.0417034 -0.0194361 -0.043485 -0.046291 0.00677778 -0.00536259 -0.0267987 -0.00112493 0.0194112 0.0290696 -0.0192882 0.0129229 0.00975188 0.0025877 -0.00942023 0.000960562 -0.0117861 -0.0268039 -0.0200611 0.0363928 0.0533661 -0.0257661 0.073556 -0.00291654 -0.0426551 0.0234722 0.00216028 -0.0380414 -0.0153059 0.0129627 0.00878659 -0.00593276 0.0139563 0.0128751 0.0307899 0.0346562 -0.00140566 0.0608586 -0.0305895 -0.0229675 0.00606476 -0.0217581 0.0228587 -0.00105383 0.00227244 -0.0225321 -0.00671738 0.0451535 -0.00419237 0.0345247 0.00018739 0.0205904 0.0025617 -0.037373 -0.0633928 0.0326545 0.000127763 -0.00942718 0.00769643 0.0301381 0.0425583 -0.0127656 0.00873005 -0.00316234 0.0302322 -0.044876 0.0502569 -0.030326 0.00248492 0.00849856 0.0704461 -0.0721122 -0.0210507 -0.0401387 0.0199046 0.0448895 -0.0449771 -0.00594035 -0.00839757 -0.0139102 -0.0383062 -0.0427742 -0.00900389 0.0196022 0.0045485 0.000762575 0.00934365 -0.0146734 0.0107445 -0.00973168 -0.0396125 -0.0170292 0.02014 0.0200585 -0.0180992 0.0173169 -0.0329788 -0.00482711 0.0121808 -0.00827474 0.0238706 0.0175339 -0.00184967 -0.00992904 -0.0312828 -0.0413154 -0.00749501 0.0133513 -0.02163 0.0566255 0.0184214 0.0211464 0.0118251 0.0129831 0.00966362 0.0218691 0.0174503 -0.0165865 0.00739969 -0.00354118 0.0172581 0.0218954 -0.0271139 0.0127476 0.0180121 -0.013478 0.0140572 0.00527693 0.00143473 0.0171229 -0.0203249 0.00663035 0.015665 0.0292063 -0.0362779 0.0252621 -0.0422828 0.0455153 0.0125878 0.0334512 -0.0181889 -0.0377796 0.000833687 0.0407786 -0.0390813 0.00286109 -0.0133758 -0.0372 -0.0568605 0.0108445 -0.0202506 0.0283597 -0.0211852 0.0358253 0.0138192 -0.00244825 0.0177616 0.0239573 0.00863663 -0.00677481 -0.00922893 -0.00558673 0.0419695 0.057384 -0.0733719 -0.00688954 -0.0366518 0.0258572 0.0279991 0.0112712 -0.0692501 0.0159107 0.00860993 -0.0313395 -0.000992991 0.00110814 0.000731837 -0.0186526 -0.00519329 -0.040592 0.0494812 0.0552588 0.0262835 0.0621704 -0.0124869 -0.0579502 0.0284135 0.0119219 0.0723295 0.0367601 -0.0185889 -0.0109925 0.00846051 -0.0198679 -0.00458116 0.00123763 -0.00548416 -0.0319809 -0.0114658 0.0494125 0.044043 0.025969 0.0397831 0.00640858 0.0678852 0.0177229 -0.0260385 -0.00725907 0.00653945 -0.0204122 -0.0398632 0.0263927 0.0159457 -0.0104561 -0.0285633 -0.0509853 -0.00658471 -0.000714699 0.0524827 -0.00394755 0.0465678 0.0243442 0.0284638 -0.0497035 0.0033919 0.0265648 0.0180372 0.0104034 0.00204259 -0.0141423 -0.0142757 -0.0124265 0.00184289 -0.0188872 0.0351885 0.00777259 0.0134547 -0.011642 -0.00529793 0.0214614 0.0488627 0.0309148 -0.0269413 -0.0103408 0.0175312 0.00665338 -0.00546373 0.0274984 -0.010319 -0.054372 0.0230222 -0.0281877 -0.00175817 0.00447586 0.00377462 -0.00451395 -0.0357677 -0.00960741 -0.00807124 0.00905541 -0.0131712 -0.0530163 -0.0261869 0.0254507 -0.00400689 0.0409704
/organization/company 0.00252152 -0.0218958 -0.0489216 0.03823 0.0205198 0.0623152 0.0158044 -0.0244273 -0.0232354 -0.000910803 0.0385472 0.0114058 -0.0538154 -0.0252289 0.0013215 0.000886345 0.043911 -0.0454222 0.0424637 0.00757503 0.0138334 0.0219494 0.0143685 0.0194862 -0.0352539 -0.0153389 -0.0107938 0.0342768 -0.00752039 -0.0187019 0.0383601 0.0209706 0.00695353 0.00902234 -0.0233895 -0.04696 0.00828339 0.0119369 0.0235168 0.0500473 0.0228367 -0.0144108 0.01811 0.0180015 -0.0278268 0.00184373 0.0369377 0.0232266 -0.0662609 -2.2574e-05 0.0118509 -0.0314775 0.0415717 0.0955943 0.0310992 -0.0287381 0.0354773 0.0196427 -0.0295893 0.0175906 0.00900721 -0.00427894 0.0308272 -0.0282605 0.0013893 0.00150907 0.0139917 -0.0105152 -0.00338949 -0.00626409 0.0187756 0.000669704 0.0294153 0.00593692 0.00536084 -0.0238615 0.0132068 0.0209539 0.00248087 -0.0101903 -0.0101585 0.0210219 -0.0158683 -0.000312212 0.00994664 0.0484288 0.0141298 -0.00205533 0.0112273 -0.00585262 0.000188183 -0.0288254 -0.0241755 -0.00567291 0.0184267 -0.0149118 -0.0210093 0.0127663 0.0469264 -0.0139967 0.0340639 0.00244562 -0.000645304 0.0192463 0.00810037 0.0153857 -0.0243863 0.00415782 0.0271019 0.0261838 -0.0403231 -0.00601475 0.00447107 0.00669569 -0.0223897 -0.00711483 -0.0183087 0.0812095 0.0227791 0.0119911 0.0513754 0.0145652 0.00548734 0.0435789 -0.0557568 -0.01038 0.0525101 -0.00641038 -0.0334364 -0.0139515 -0.0536558 -0.0189793 0.00319596 -0.0206776 -0.00715249 0.0490242 0.00558752 0.0198922 0.0247307 0.00924904 -0.00887993 -0.0217164 0.0152498 0.0934909 -0.015513 0.0045301 0.0102107 0.00255631 0.0611573 0.0416766 0.0255753 -0.00267229 0.0183046 -0.0266738 0.0188321 0.0165319 -0.0245496 0.0282221 -0.0259718 -0.0780379 0.00906848 -0.0350001 -0.039897 -0.00329964 0.00315117 0.0161185 0.00203691 -0.000800287 0.000841249 -0.00120404 -0.0319351 0.000531764 0.0132477 0.0362363 -0.00545186 -0.0414235 0.0201426 0.041212 0.00341168 -0.0169693 -0.00535755 -0.0157835 -0.0518778 -0.0163013 -0.0276282 0.0439532 -0.00810908 0.0323188 0.000565047 0.0594345 0.00807565 -0.0113267 0.0124874 0.00173271 0.0330447 -0.0188223 -0.00240348 -0.00563673 -0.0249389 -0.0270686 -0.0177429 0.0408386 0.00060352 0.00373768 -0.0598472 0.0184134 -0.0153465 -0.0256975 0.0169299 -0.0308275 -0.0277129 0.0557877 -0.00497716 -0.036224 0.0517757 0.0494158 0.0140521 0.0441945 0.000211725 -0.048255 0.0150493 0.00644661 0.0495492 0.0181845 0.0390241 -0.00757362 0.0227448 -0.0443288 -0.0186526 0.00935154 0.0034383 -0.0118009 0.0215253 0.060758 0.0475558 0.015391 0.0149703 0.0162029 0.102953 -0.0228868 0.0159899 0.0275715 -0.00454878 -0.00657228 -0.0679092 -0.0160059 -0.0147883 0.0436704 -0.0415702 -0.0747593 0.0641054 0.0597413 0.0351769 -0.01822 0.0622073 0.0387062 -0.00429882 -0.00237063 -0.0160351 0.003525 0.0139505 -0.0143812 -0.0394114 0.0202418 -0.00280388 -0.0609863 0.0444679 -0.0428627 -0.00976504 0.00300153 0.0165097 -0.0358786 0.0274016 -0.0285222 0.0657183 0.00285259 0.00322348 0.0885925 -0.00066781 -0.0545133 -0.0217607 -0.0486722 0.0412438 -0.0411922 -0.00655942 -0.0303683 -0.0441238 -0.0106776 -0.0199206 0.000727246 -0.0422771 0.00348034 -0.0315332 0.0605045 0.0256892 -0.0292127 -0.036261 0.0642486 0.0172768 0.0166169
/person/religious_leader 0.0226118 -0.0149615 -0.0512117 0.0335811 0.0299515 0.0304922 0.0263959 -0.0122487 0.000719712 0.00506885 0.0281104 -0.0367006 -0.0378304 -0.0586219 0.00653819 -0.000232332 0.0984102 -0.105369 0.0133591 -0.0391294 0.0306902 0.0168192 0.000494767 0.0672247 -0.0541155 0.0519696 0.00214666 0.0089523 -0.0868196 -0.0302829 0.0349898 0.00154808 -0.0265808 -0.0239875 -0.0181739 -0.0103179 -0.0062129 0.0277298 -0.000367634 -0.0269345 -0.016734 0.00147381 0.00570433 0.0208407 0.00578903 -0.00961544 0.00314005 -0.0146521 -0.00868252 -0.0439809 -0.00920663 7.12233e-05 -0.0372358 0.0892686 -0.00857086 -0.0115444 0.0712042 0.031227 0.0034396 0.00421512 0.0103654 0.0319592 -0.0226575 0.0538111 -0.0173076 0.0157974 -0.0143718 -0.0295424 -0.0193832 0.0166317 0.0300253 -0.00666561 0.00691294 0.0231499 0.0165896 -0.0211969 -0.000938696 0.00607098 -0.0312786 0.00488326 -0.0277498 -0.0185072 0.00358941 0.0345974 -0.0258013 0.0722411 -0.0240922 0.0141885 -0.0185892 0.00182254 0.0194183 0.0300161 0.0153014 -0.0181307 -0.012723 -0.0099082 0.00845817 -0.0162524 0.0871025 -0.0497105 -0.00540143 -0.0399611 0.0263484 0.0374923 -0.0365062 0.00696793 -0.0515648 -0.0316643 0.0122327 0.00769724 0.0108659 -0.0756779 0.00798253 -0.0146343 0.0140846 0.0210716 -0.0196927 0.0529369 -0.0136857 0.014491 0.0299453 -0.0102732 -0.0149408 0.020397 -0.0882758 -0.0291678 0.10064 -0.00350115 0.0217904 -0.00206362 -0.0471719 0.000783241 -0.0113478 0.0335726 0.0116296 0.00436204 -0.0111585 0.0364673 0.0257954 0.00986439 0.0100001 -0.0226193 -0.019431 0.0754162 -0.0175203 0.0206942 0.0155056 0.00856558 -0.0135763 0.0930324 0.0385281 0.0208739 -0.0140052 -0.014309 0.0320656 0.0405887 -0.0451452 -0.012779 -0.0146482 -0.0453819 0.0313751 -0.0285681 -0.0270754 0.0148165 0.0291634 0.0155774 0.00761593 0.0163016 -0.0105783 -0.0163924 -0.0417073 0.0520733 -0.0227831 0.0455912 0.0396818 -0.0440334 0.0340212 0.012033 0.00417326 -0.0144931 -0.0236611 -0.0351881 -0.138024 0.00787393 -0.115285 0.110817 -0.00125946 0.0664749 0.0372104 0.0480779 -0.0358125 0.00601883 0.0695493 -0.00973159 -0.00947509 -0.0283138 -0.0150696 0.0396512 -0.029848 -0.0237717 -0.0182982 0.0727375 0.0134926 0.0419724 -0.0417599 -0.0229375 0.00423915 -0.0173231 -0.0116507 0.0416844 -0.0304299 0.0237244 0.0115007 -0.0340588 0.0826534 0.075557 0.0144501 0.0466507 -0.0257291 -0.0501396 0.0392786 0.0251625 0.12412 0.0540649 0.0256851 0.0190928 -0.0134504 -0.101067 0.0364366 0.0415069 -0.0141098 0.000761978 0.0249216 0.0661298 0.0678653 0.0284402 0.0558238 0.0326405 0.0436784 -0.00532398 0.00121341 0.0123456 -0.0116017 -0.0177571 -0.0152486 0.00722786 -0.033255 0.0113819 -0.0636272 -0.0390954 -0.0339241 0.0360267 0.000949456 0.0218228 0.061157 0.011906 0.0102366 0.00539412 0.0165007 0.028055 0.0401074 -0.0261349 -0.0019492 0.0120038 -0.0407945 -0.0342384 -0.00129936 -0.00748665 0.00330381 0.0329136 0.0290225 -0.0236598 -0.000838272 0.000246906 -0.00247966 0.00489738 0.00218433 0.0322209 -0.0481058 -0.0696831 0.0178574 0.0128586 0.006053 -0.0316624 -0.034115 0.0219039 0.00675687 -0.0130072 0.0273831 -0.0120944 -0.00405494 0.00439338 -0.00350202 0.0415002 0.00424864 -0.0118488 0.0146936 -0.017339 -0.00726951 0.0174593
