47 300
/ORGANIZATION/POLITICAL 0.00411379 0.00955208 0.00912177 -0.00222246 0.00132664 -0.0108697 0.0289356 -0.0181409 -0.0111554 0.0333149 0.0120138 -0.00181582 0.00603138 0.0220709 -0.0180817 0.0348706 0.0973836 -0.0288269 0.00604417 0.0234929 0.0251358 -0.0232072 0.0128356 0.0357082 -0.0489538 -0.0254695 0.0080223 0.0279239 0.0295384 -0.011754 -0.0231278 0.00286583 -0.0120552 0.00536402 -0.0302192 -0.0238445 0.0189646 -0.0295753 0.0406001 0.0423455 0.0383604 -0.0149974 0.0411559 0.0273947 -0.0322636 0.0025684 0.0227289 0.0124014 -0.0777644 -0.0306033 0.036845 -0.0200979 -0.00457022 0.0453151 0.0268054 0.0517896 0.0950335 0.0173736 0.0171373 0.00776065 -0.0287406 -0.00242798 0.00191617 -0.0239775 0.00178597 0.0110162 -0.0129587 0.00042565 -0.0200671 0.0649357 0.018615 0.0125711 0.00156645 -0.0139508 0.00393834 -0.0363078 -0.00421237 -0.020999 0.0233794 -0.0118127 0.00444286 0.0405175 0.0205535 0.0254056 -0.0401651 0.0649545 0.0143123 -0.0348715 0.0341287 0.00229244 -0.0131678 0.0165555 0.00976613 -0.00355028 -0.0122552 -0.0262879 -0.0171853 0.0262465 0.0492139 -0.0319752 -0.0199483 0.0169908 0.0057671 0.0382403 0.0202979 0.00496013 -0.00600455 0.00307843 -0.00563454 -0.0219287 -0.00195855 0.0559721 -0.00269316 0.0428976 -0.00531951 -0.0389432 0.0450565 0.064445 0.0340669 -0.0043746 0.0694151 0.0262566 0.0242135 0.00341166 -0.0372821 -0.01496 0.0710737 0.0320723 -0.0232925 0.00348147 -0.0343224 -0.0299892 -0.011163 0.043352 0.00935872 0.0335489 0.0377187 0.0166708 -0.0164991 -0.0307966 0.0318998 -0.0428974 0.0161203 0.0143171 -0.0297059 0.0214985 0.0269434 0.0171211 0.0445456 0.0451622 0.00864549 -0.0418079 0.0333244 -0.0198094 0.037865 -0.0350956 -0.0198959 -0.0108039 0.00183892 -0.0856932 -0.0294921 0.0129051 0.000834082 0.00353135 -0.0217114 -0.00930964 0.0322309 0.00622851 0.00902268 -0.0251703 0.0326604 0.0228113 -0.00610018 0.0281727 0.0282909 -0.0317701 0.0103794 -0.00284729 -0.0349694 -0.0095758 -0.0278819 -0.0353248 -0.0961804 0.00604606 -0.0232837 0.0433872 0.034439 0.0407332 -0.00285782 0.000149263 -0.0175059 0.00538631 0.0111411 -0.0294259 -0.0276234 -0.00424809 0.0104559 0.0429712 -0.0340147 0.0371518 0.00558663 0.0684286 0.0174147 -0.0256118 -0.0720533 -0.0054149 -0.0339393 -0.0271994 -0.01169 -0.0377887 -0.00573786 0.0109435 -0.0723057 -0.0381931 0.0574685 0.0757866 0.0257027 0.0481474 -0.0285257 -0.0543995 0.0471594 0.0445221 0.1308 0.0531182 0.0284297 -0.0694387 0.0209177 -0.0205892 -0.0152454 0.031966 0.00982937 -0.0130334 0.0273541 0.082114 0.0516621 0.049018 0.0680794 0.0230982 0.021106 -0.024199 0.00241826 -0.0117016 -0.0459085 -0.0672564 -0.0566063 0.00961426 -0.0290788 -0.0118411 -0.0220433 -0.0552106 0.0443272 0.0404706 0.056449 0.00483921 0.0797044 0.0696773 -0.0298338 -0.0234881 -0.0399587 -0.00124215 0.0386323 0.00384234 -0.0101165 -0.0107179 0.00680996 -0.0384401 -0.021356 -0.048432 0.000525755 0.00979919 0.00554421 0.0149772 -0.00876087 0.0181308 0.00239416 -0.00409004 0.00846294 0.0155282 0.0116875 -0.00544565 -0.00257396 -0.061526 0.0041855 -0.058364 0.00802828 -0.060825 -0.0470403 -0.0343317 0.0272974 0.00312424 -0.0321905 -0.0046258 -0.00476436 0.0212345 0.0517336 -0.0838946 -0.011765 0.0502109 0.041493 0.0285051
/SUBSTANCE 0.00874344 -0.00607624 -0.0404197 0.0253144 0.080858 0.0142511 0.0279369 -0.073394 -0.0291318 0.0253667 0.0168259 0.0421981 -0.0503566 -0.010467 -0.00241257 0.0159787 0.0125819 -0.000515823 0.0518717 0.00872747 0.0228899 0.0586447 0.013454 0.0585202 0.0114492 0.00151269 -0.00418526 0.0321961 -0.0391218 0.026052 0.0207218 0.00964334 -0.00205723 -0.00385463 0.0278186 0.0307256 -0.0301214 -0.00293985 0.00827077 -0.00156472 0.010378 -0.0275384 0.0128354 -0.0336764 -0.0128645 -0.0134815 -0.00521472 0.023405 -0.084645 -0.00762765 0.0400031 -0.0169808 0.0176731 0.0627066 0.0305011 -0.00678666 0.0431092 0.0308162 -0.0400493 0.0798746 -0.00697533 -0.0338458 0.0242664 -0.0338377 -0.00466372 -0.00934904 0.025802 0.0111956 -0.0191804 0.0251485 -0.00247956 -0.00554493 -0.0254178 -0.000425709 0.0224438 0.00375085 0.0243254 -0.0157288 -0.0272915 -0.00985053 -0.0166604 0.0426026 0.0143795 0.0414844 0.0116179 -0.0547113 0.0226282 -0.0541654 -0.0120236 0.0227501 0.0430206 -0.0132555 0.0151865 0.0304099 -0.0151554 -0.0229021 -0.012054 0.00939333 0.00242173 -0.0049648 0.0109288 0.0240181 0.0464638 -0.00534725 0.0393312 0.0102254 0.006551 -0.0398804 0.0417026 0.0112315 -0.0299528 0.00771389 0.0388206 -0.00548317 -0.0479917 -0.0317761 0.0247094 0.0212654 0.0327922 0.0094792 0.0251467 0.0114121 0.0252116 0.0308147 -0.0476059 -0.0239254 0.0550393 0.01828 -0.0454935 -0.025864 -0.0573065 0.00954045 0.0360572 -0.0244904 0.0263611 0.0628032 0.0190901 0.0284462 0.0176713 -0.024153 -0.0284829 -0.0358955 -0.0117808 0.0234909 -0.021669 -0.0386456 -0.00549986 -0.02718 0.0548476 0.00349379 0.021155 0.00177023 -0.0175813 0.00543725 0.0332304 0.0255649 -0.0714371 -0.00822883 -0.044743 -0.0700044 -0.0076443 -0.00290726 -0.0176428 0.023164 -0.0325969 0.000887658 -0.0143618 0.0647652 -0.0213976 -0.0173122 -0.00876273 -0.00138348 0.0185549 0.0299751 0.00745919 -0.0198793 0.00366818 0.0355495 0.000128058 0.0168308 -0.0493772 -0.0159668 -0.067841 -0.0228689 -0.028442 0.0378407 0.00411794 0.0282691 -0.000471341 -0.00633341 0.0426043 -0.0266033 0.0347903 -0.0564783 0.0378008 -0.0194886 0.0168102 0.0220997 -0.0492562 -0.0154045 0.00793243 0.0288123 0.0199329 -0.015153 -0.00498572 0.000942455 -0.0212466 -0.0261391 0.0113055 0.00254153 -0.0162997 0.0183044 0.0132273 -0.0292893 0.0417076 0.00991158 0.0298253 0.0326466 -0.0140129 -0.0805039 0.0171235 -0.00249095 0.0707515 0.037793 -0.0173905 -0.0147999 0.0114861 -0.0544154 0.00885383 -0.0179443 0.0303127 -0.0106145 0.0283892 0.0313761 0.0290224 0.0162298 0.00846843 -0.010987 0.0816987 -0.00271435 -0.0272167 -0.0183677 0.00736281 0.0155185 -0.0189736 0.00592201 -0.0125346 0.0416895 -0.0308531 -0.0828225 0.0128416 0.00720126 0.0864399 -0.0721735 0.0250181 0.0127704 0.0245409 -0.0448516 0.0124313 0.0452803 0.0369145 0.00900377 0.00652493 0.0355707 -0.0263205 -0.0143781 0.0135985 -0.0220622 -0.00757486 -0.0195512 0.0243701 -0.0379339 0.0134107 0.0161336 0.0832172 0.0168128 0.0293715 0.0366768 -0.0381984 -0.0236775 0.0114725 -0.0187865 -0.0236886 -0.0734684 0.00915462 -0.0324103 -0.0231635 -0.00969423 -0.0325386 0.00904981 -0.0608651 -0.0143699 -0.0544408 0.0667684 -0.00270534 -0.00712487 -0.0175781 0.0478902 0.0156541 0.0247828
/LOCATION/CONTINENT -0.00592671 -0.00524989 -0.0236303 0.0247617 0.0246005 0.0409319 -0.0228207 0.0144733 0.00119357 0.00966639 0.013382 0.00763079 -0.0429397 -0.00498196 0.00914911 0.0191035 0.0234598 -0.024519 0.0350631 -0.0154705 0.0328221 0.0400811 -0.00154091 0.0293463 -0.0214929 -0.00756846 -0.0283465 0.045078 -0.031628 0.0129888 0.0170038 0.00531014 0.0108021 -0.0176156 -0.0131138 -0.0335668 -0.00874795 -0.00703161 0.00686779 0.024461 -0.00230693 0.00752075 0.0233976 0.0171135 -0.0481773 0.00225952 0.0482302 0.0105662 -0.0460347 -0.00767299 0.0147673 -0.0199864 0.019746 0.0682275 0.0294006 -0.0225931 0.0524053 0.0135148 -0.0331156 0.00306881 -0.00542479 -0.00208802 0.00503381 -0.0140449 0.00550327 0.0040442 0.0237941 -0.0071542 0.00107179 0.0261201 0.0202596 0.0270165 -0.0203616 -0.00489236 -0.0167709 0.0174057 0.0166406 -0.0113294 -0.0296222 -0.00853649 -0.0105895 0.00321913 0.0159948 0.00236346 -0.0117033 0.0279525 0.0182099 -0.014009 -0.00166519 0.0112835 0.00378642 0.0166465 0.00368166 0.00626709 0.0108469 -0.0310745 -0.019396 0.0240049 0.0283701 -0.0497159 0.0262185 -0.00422861 0.0043261 0.00182328 0.00932285 -0.0119543 -0.0375031 -0.0369241 0.0362863 -0.0012322 -0.0108681 0.00107478 0.000891806 -0.00932013 -0.0299027 -0.0173987 0.0141219 0.0722178 0.00253323 0.0176729 0.0630605 0.0331215 0.0255301 0.0325033 -0.0621077 -0.017845 0.0470376 -0.0107939 -0.0182606 -0.0130145 -0.063081 -0.0412185 0.0369682 -0.0362881 0.00767166 0.020154 0.00892046 0.0152108 -0.0192803 -0.0286986 0.0151056 -0.0264556 -0.0269131 0.0606077 -0.0168513 0.0184784 0.00445592 0.0130162 0.0365951 0.0405351 0.0162957 -0.00342653 0.00732387 -0.0236106 0.0277936 -0.0180433 -0.025686 0.0259291 -0.026832 -0.0647496 -0.0285471 -0.0135969 -0.0408616 0.00702237 -0.00576936 0.00308842 0.00717441 -0.00540661 0.00152938 0.00746013 -0.0108566 0.0199771 0.025421 0.0441386 -0.00426923 -0.0208981 0.0105494 -0.00354253 -0.023793 0.00644305 0.000833838 -0.0251196 -0.0681522 0.00446967 -0.0352682 0.0217392 -0.0068848 0.0704066 0.0275203 0.041356 -0.0256822 -0.00194004 0.02498 -0.0110817 -0.0333772 0.00242193 0.00273451 0.0128943 -0.0206695 -0.00503512 -0.0105736 0.0280947 0.0235748 0.0160973 -0.028501 0.00496213 0.0027436 -0.0165419 0.0116952 0.00753117 -0.0262573 0.0110054 -0.0174026 -0.021939 0.0568131 0.0847881 0.00346895 0.0179176 -0.0110963 -0.0502794 -0.00619858 -0.00051385 0.0671471 0.0271659 0.0344421 -0.0351542 -0.0211055 -0.059822 -0.0269342 -0.004223 -0.00123039 -0.00175485 0.00993916 0.0597264 0.0371392 0.0252569 0.0407511 0.00468242 0.0441443 0.0227197 -0.00170021 0.00474048 0.0141377 -7.85088e-05 -0.0112575 0.000674894 -0.0124231 0.0206343 -0.0264428 -0.0630462 0.0315316 0.0247105 0.0565869 -0.0374354 0.0582875 0.0199224 0.00659993 0.00672238 -0.0162732 0.0187145 0.0340514 -0.0241577 -0.0712188 0.00883047 -0.0329617 -0.0458256 0.0199352 -0.0400334 -0.0209189 0.00650164 0.0273271 -0.0389922 -0.0124549 0.0107444 0.0313557 0.00546514 0.008482 0.0548738 -0.0166909 -0.0133558 0.0076079 -0.0192037 0.0316854 -0.0586321 -0.00269509 -0.0238546 -0.0386002 -0.0112635 0.00606945 -0.00477335 -0.0146359 -0.00506618 -0.0242026 0.0301269 0.0400473 -0.02398 -0.0121174 0.046064 0.00872821 0.0266929
/FACILITY 0.0136923 -0.00169098 -0.0451186 0.00959632 0.00496838 0.0461729 0.018632 -0.0106684 0.00293274 0.011928 0.018077 0.0147571 -0.0445633 -0.0179306 -0.00147739 0.00126408 0.0078267 0.00260281 0.0203001 0.0101443 0.0113104 0.0204059 0.013882 -0.00864384 -0.00415539 0.0251688 -0.0425411 0.0323178 -0.0398043 -0.0149813 0.0130834 -0.00560208 -0.0100176 -0.00920818 -0.0474105 -0.0200562 -0.017058 -0.0134878 0.00146329 0.0293036 -0.0145845 -0.00992544 0.0219172 0.0396151 -0.0333009 -0.0181158 0.0216167 0.00480539 -0.0456496 0.024342 0.00976481 -0.014273 -0.0110542 0.0424923 0.0218576 -0.0082014 0.0361908 -0.00526365 -0.0501977 0.0313809 -0.00330879 0.0203329 -0.000909642 0.0136921 0.0290884 0.00267779 0.0345565 0.0429192 -0.00473881 0.0170717 0.0325371 0.0151051 -0.00471248 -0.0145517 -0.00652337 -0.0219995 -0.00796777 -0.00543313 -0.0249357 -0.0012023 0.0116356 0.0145987 -0.00407012 0.0254849 -0.00195555 -0.0085254 0.0119357 -0.00767065 0.00756173 -0.0163792 -0.00931596 -0.0040944 -0.00776222 0.0351052 -0.00257606 -0.0199797 -0.0271063 0.0182945 0.0951894 -0.0366268 -0.000680569 -0.00469429 0.00386241 0.022952 0.00419712 -0.0274325 -0.0124285 0.00826321 0.0126469 -0.0027834 -0.011578 -0.0208874 0.000285536 0.00115075 -0.029198 -0.0314844 -0.00210531 0.0233747 0.00584306 0.0187873 0.031908 0.0133555 0.0109671 0.0533653 -0.0427159 -0.00348177 0.0158164 0.00995731 -0.0262442 -0.00693733 -0.0569608 -0.0363771 0.00169465 -0.012473 0.00216893 0.0261791 0.0159422 0.0144294 -0.00943966 -0.0192142 -0.00515069 0.0122588 -0.0289995 0.0549929 0.00405166 -0.00551871 0.00479269 -0.00105703 0.0264308 0.0274147 0.0349732 0.00183383 -0.00246304 -0.00614645 0.0125596 -0.0198033 -0.0393193 5.02899e-05 -0.0503331 -0.0671125 0.000579076 -0.0306845 -0.0468829 0.0232418 -0.0180979 0.0309242 -0.0101955 0.0135129 0.00365854 -0.00931334 -0.0205502 -0.00142683 -0.00230992 0.0491648 -0.0261247 -0.0107716 0.016406 0.0446042 -0.0199687 -0.0161581 -0.00790682 -0.0303581 -0.092867 0.00746739 -0.0549039 0.0177328 -0.015564 0.0593224 0.00654659 0.0349512 0.00831401 0.00341564 0.0502774 -0.0464648 -0.00186331 -0.0388725 -0.00495916 0.0269899 -0.0288303 -0.0206271 -0.0104169 -0.00212492 0.0145123 0.00300424 -0.0425827 0.019019 -0.00357074 -0.0318216 0.00859516 -0.00730193 -0.0313798 0.0239775 -0.0108497 -0.0407823 0.0524123 0.0423913 0.0401514 0.0421899 -0.00560976 -0.0680936 0.0328491 -0.000451645 0.0602024 0.0497618 0.0151322 -0.0311113 -0.0137866 -0.0396466 0.0167797 -0.0198155 0.0100407 -0.0262882 0.0136983 0.0222621 0.0378188 0.00841133 0.0280998 0.00337141 0.0744373 -0.0132522 0.0464459 0.0101186 0.00573255 -0.0255676 -0.0291643 0.0138629 -0.0141609 0.0326178 -0.0101126 -0.0501514 0.0355325 0.0340607 0.0674126 -0.0335355 0.0736056 0.0567266 0.0186094 -0.00536449 -0.0199032 0.00168926 0.0241519 -0.03417 -0.0378323 0.0451693 -0.0194116 -0.0793238 0.0282996 -0.0352568 -0.00722328 -0.00803416 0.0165375 -0.0160852 0.000280937 -0.0141269 0.0471152 0.018532 0.0392643 0.0347005 -0.010775 -0.0389971 0.0135147 2.8023e-06 0.0230811 -0.078758 0.0128667 -0.0510314 -0.0570026 -0.010936 -0.0074334 -0.00593301 -0.0437501 0.000322934 -0.0226812 0.0241841 -0.00170686 -0.00616109 0.00298591 0.00725599 0.00173017 0.0221331
/ORGANIZATION/EDUCATIONAL 0.0118267 -0.0257973 -0.0577258 0.0767985 0.0222007 0.0302692 -0.00400831 -0.0156388 0.0145892 0.0196369 0.0238243 -0.040648 -0.0323742 -0.0264504 -0.00517301 0.0165267 0.024687 -0.0529594 -0.0215046 -0.0103789 0.0192093 0.0111104 -0.00824496 0.0241882 -0.00534302 0.0174549 0.00846797 0.0215129 -0.00310496 0.000535486 0.0103887 0.00302819 -0.0183736 0.00583685 -0.0126923 -0.0285073 -0.0029066 -0.00600454 0.0165526 0.0239701 -0.0206101 -0.000648729 0.0151007 0.0292909 -0.0317412 0.00364543 0.00550098 0.0198051 -0.0457035 0.0151878 0.00101354 -0.0189852 0.0139183 0.0535997 0.0052456 -0.0133287 0.0711254 0.0263341 -0.0471084 0.0116638 -0.0041147 0.0287445 0.0126584 -0.00906131 0.0191731 -0.0027368 0.0115255 -0.0105422 -0.0140502 0.0352695 0.0103834 0.0113477 0.0372428 -0.00518736 0.0181919 -0.0197606 0.0190749 -0.00315595 -0.0351082 -0.00239554 0.00257853 0.0293943 -0.0100272 0.00172457 0.0158404 0.0272364 -0.0039095 0.0265 0.0256613 0.00312993 0.00386814 -0.0195339 0.0317408 0.0249834 -0.0179926 -0.0402372 -0.0177922 0.0299546 0.0590804 -0.0395084 0.0250458 -0.0355824 -0.00311143 0.0144987 0.00455834 -0.0266099 -0.00985677 -0.0250508 0.0265171 0.0189404 -0.0147047 0.00779071 0.00299835 0.00963675 -0.0332251 0.00440895 0.0144412 0.0496221 -0.00225685 -0.0101282 0.0533485 -0.0120036 0.0380847 0.0143071 -0.0487128 -0.0243757 0.00413676 0.0140924 -0.0278888 0.00151512 -0.0587716 -0.0339045 0.0191495 -0.0125766 -0.0209514 0.00312879 0.0479531 -0.00918586 -0.00554978 -0.00169776 0.0328651 -0.0193737 0.00790022 0.052783 -0.00904037 0.032416 -0.00319954 -0.00773159 0.0116428 0.0463155 0.0163588 -0.0122128 -0.0148848 -0.0192823 0.019267 0.0131615 0.00502936 0.00626897 -0.0522381 -0.0413409 0.00918045 -0.0376234 -0.039092 -0.00389313 -0.023439 -0.0103813 0.0212304 0.0408432 -0.00503755 -0.0310921 -0.0272777 0.00864596 0.00935851 0.020492 -0.00752352 -0.0104634 0.00764077 0.0298527 -0.0238107 -0.00807794 -0.00306954 -0.0313861 -0.0638551 0.0224347 -0.0726916 0.0398564 0.00097585 0.0814932 0.041938 0.0452314 0.0112008 -0.0018197 0.00905629 -0.0346411 -0.00590271 -0.0187833 0.0122009 0.019015 -0.0163554 0.0179424 -0.0178982 0.00561488 0.0238991 0.0600758 -0.0147936 -0.00815655 0.000132668 -0.0328099 -0.00136477 0.00960919 -0.0364104 0.0555688 -0.0165321 -0.013624 0.0353392 0.0395939 0.0295651 0.0475511 0.0084517 -0.0217357 0.0360215 0.0106057 0.0693447 0.0771352 0.00815576 -0.0407818 -0.0248488 -0.0604998 -0.00569246 0.00609902 0.0170527 -0.0229568 0.0167294 0.0570016 0.0543195 0.0320297 0.0391076 0.00905202 0.0621285 0.00320965 -0.0106589 0.0235158 -0.00924739 -0.00502807 -0.0196302 -0.00500524 -0.0316293 0.013145 0.00111089 -0.0452324 0.00916005 0.054407 0.0418267 -0.0355484 0.0467989 0.0323119 -0.013034 -0.0133976 0.00365171 0.00251453 0.0471822 -0.0122359 -0.0387621 0.012402 -0.0233378 -0.0503214 0.0200445 -0.0368936 -0.0395087 0.0121259 0.00406111 -0.0495487 0.0140544 -0.00651207 0.0249587 -0.00853938 0.0320794 0.0342307 -0.00178819 -0.0309914 0.0061311 -0.0311772 0.030168 -0.0743384 -0.0219662 -0.0636048 -0.071979 -0.0248169 -0.0367327 -0.00854193 -0.0223997 0.0183378 -0.0165778 0.0396614 -0.00185872 -0.0226875 -0.058774 0.0580854 0.0273104 0.0447562
/ORGANIZATION/GOVERNMENT -0.00543385 -0.037651 -0.026196 0.0276496 0.00497486 -0.033957 0.00401676 -0.0415598 -0.00253987 -0.00562108 -0.0110455 -0.0024216 -0.0442381 0.0018313 0.000821563 -0.00451517 0.0502746 -0.0432024 -0.000531128 0.0287615 0.00996791 -0.00306977 0.00573874 0.0329854 -0.0121 0.00944015 0.041722 0.00179668 -0.0016477 -0.0029335 0.0202252 -0.00261878 -0.0295422 0.0230259 -0.0155311 -0.0126718 -0.0133553 -0.0488376 0.00913321 0.0537068 -0.0119521 -0.0058793 0.0179973 0.0198033 -0.0124159 -0.0226445 0.0102604 0.0204701 -0.064581 0.0317966 0.0277031 -0.0358361 0.0154095 0.0571002 0.0256687 0.0286761 0.0909858 0.00792412 -0.0160337 0.0305121 0.00890825 0.00785815 0.0298831 -0.020153 0.0222501 0.0412819 -0.00100867 0.00296039 -0.0287172 0.0448408 0.0332309 0.0493414 -0.0155403 -0.0155445 -0.00404507 0.00432915 -0.0223863 -0.0383593 -0.0216301 -0.0199956 0.00955987 0.0203232 0.0268626 0.0111636 -0.0360237 0.0425516 -0.011984 0.0189328 -0.0147224 0.00100028 -0.0035102 -0.00538788 -0.00579202 0.0164204 0.00746681 -0.0472968 -0.00566256 0.00574573 0.0794479 -0.0352434 0.000288484 -0.0233155 0.00453513 0.0281772 0.011618 -0.0231177 -0.0133877 0.00410668 0.0050702 0.0352809 -0.0482305 0.0153497 0.00630149 -0.00187117 -0.0328335 -0.0122935 -0.0111069 0.0393743 0.00817605 -0.0160491 0.0481057 0.012422 0.0390752 0.0118587 -0.0380391 -0.0157196 0.0264704 0.0386819 0.0113622 0.0071912 -0.0666124 -0.0205012 -0.0257659 0.00431868 0.00474568 0.0477527 0.0124591 -0.00757281 0.0136487 -0.0242705 0.041382 -0.012216 0.0298292 0.0253178 0.0285776 -0.00346916 -0.000767778 -0.0121955 0.0537836 0.0247971 0.00462292 -0.00797589 0.00337963 -0.00976841 0.0188958 -0.0446461 -0.0104746 -0.00136043 -0.0170186 -0.0636593 0.00885685 -0.0275882 -0.0357325 0.0112386 -0.0278304 0.0450093 0.00344556 0.0238695 -0.015546 -0.0352201 -0.00240705 0.00955718 -0.00822975 0.00569753 -0.0115352 -0.00197089 0.0141191 0.00673617 -0.00242902 -0.0266386 -0.0316278 -0.031831 -0.0839249 0.0170486 -0.0394804 0.0296739 0.0277665 0.0640898 -0.00014363 -0.00637484 -0.0119423 0.00828654 0.0234453 0.00291717 -0.00361262 -0.0325301 0.0239759 -0.00642973 -0.0130258 0.0017875 0.0220996 0.0454805 -0.00906657 0.0441464 -0.0342054 0.0233602 0.00317122 -0.0178619 -0.0276035 -0.0165407 -0.00119496 0.0447426 -0.0213771 -0.0415069 0.0449428 0.0593036 0.0261515 0.0598473 0.000167498 -0.0666945 0.00755685 0.0522654 0.0498893 0.0292482 0.00313639 -0.0695872 0.00903806 -0.0638771 -0.00961413 0.0177356 0.0253986 -0.0109721 0.017079 0.0498053 0.0209618 0.0270876 0.0332476 -0.00722055 0.0733038 0.00405451 0.000729628 -0.00426574 -0.0154272 -0.0147913 -0.0367286 -0.00585141 -0.017198 0.0161268 -0.0293538 -0.0809439 0.0211406 0.0355078 0.0519651 -0.025943 0.0679009 0.0740531 0.00802058 -0.0058103 0.00967391 -0.00134656 0.0282978 -0.0204406 -0.031647 0.0375807 -0.0330662 -0.0649122 -0.010083 -0.0165253 -0.0245523 0.01532 -0.00854767 -0.0175317 0.00754924 -0.0360425 0.0257255 -0.0088696 0.00311103 0.0254523 -0.00634153 -0.0152412 0.0205513 -0.0193507 0.00194837 -0.0634377 -0.0204035 -0.0946391 -0.04492 -0.0270697 0.00604375 0.0077749 -0.0197085 0.0230795 -0.00884169 0.0250288 0.0198757 -0.0115424 0.00258072 0.0283704 0.0213394 0.0146904
/EVENT 0.0171827 -0.0037638 -0.0241889 -0.00769059 0.0207259 0.0241404 0.021408 0.0107558 0.0186498 -0.00842763 0.0149236 0.0109286 -0.0278947 -0.0050481 -0.00365147 0.0145704 0.0154124 -0.0371113 0.0134353 0.0145131 0.0360678 0.00704413 -0.00712636 0.0486006 0.017032 0.0346215 -0.0123217 0.0272469 -0.0204828 -0.0205431 0.0273681 6.42235e-05 0.0248842 -0.00721469 -0.0568121 -0.0389884 -0.0498037 -0.0323109 0.0316079 0.0329845 0.00189608 0.00402797 0.0415234 0.0217565 -0.0295055 0.00248096 0.0356667 0.00498347 -0.0132417 0.00646996 0.0129239 -0.00492901 -0.0159014 0.0607363 0.0218687 0.000826757 0.0688694 0.0306779 -0.0379836 0.0101305 -0.0296366 -0.0336613 -0.0198375 -0.0218194 0.0262868 0.00107871 0.00825872 -0.0116602 -0.0323495 0.0429433 0.0169041 0.0450912 -0.0134311 -0.0209209 0.0307875 -0.004233 -0.00637151 0.000735244 -0.0250037 -0.00150519 -0.00310284 0.0116415 -0.00351902 0.0409141 -0.00590599 0.0361027 0.00308728 -0.014023 -0.0256669 0.0129005 0.00513011 0.00250945 0.00634818 0.0194821 0.00916331 -0.0414719 -0.0166429 0.0147168 0.0681362 -0.0224537 0.0453078 -0.0434135 0.0211823 0.0119124 0.0417489 -0.0381749 -0.0299752 -0.00747113 0.00331281 0.0166057 -0.0082645 -0.00275235 -0.00126469 -0.0123112 -0.0210226 -0.012098 0.00259548 0.047354 0.0363247 -0.00194027 0.0426216 0.00431226 0.00965817 0.0103152 -0.0573032 -0.0148172 0.042415 0.0018297 -0.0346605 -0.00158659 -0.0184364 -0.0156021 0.0307405 -0.00556562 -0.00115804 0.010691 0.0116831 -0.000181957 -0.0361001 -0.0340244 0.000922747 -0.0260575 -0.0101526 0.0556623 -0.0186502 -0.0146178 0.00719282 -0.00339083 0.00683146 0.0147147 -0.00686878 -0.00333852 0.0132991 -0.0183112 -0.00785931 0.00625424 -0.0314386 0.00724559 -0.0224497 -0.0359993 0.0166224 -0.0123321 -0.0120726 -0.00999652 0.005463 0.0114094 0.00544167 0.0194765 -0.0185487 0.0129343 -0.01523 0.0220868 0.0100903 0.030909 0.007615 -0.0487415 0.0212379 0.0262298 0.00929905 -0.00100788 -0.0440786 -0.0363438 -0.0528183 0.0254848 -0.0120635 0.028532 -0.00391984 0.0421787 0.0223516 0.0380499 0.00540481 -0.00588059 0.0201868 -0.0125587 -0.0246952 -0.00760691 0.0109243 0.0355984 -0.0486134 -0.0219295 0.000572799 0.0532532 0.0180791 0.033602 -0.050602 -0.00750881 -0.0110591 -0.0158686 0.0123015 -0.00161459 -0.0132728 0.0230864 0.000223072 -0.0292267 0.0449361 0.0571465 0.0148581 0.0246471 -0.00512099 -0.0436966 -0.00917127 -0.000521172 0.0553138 0.00705405 -0.0057523 -0.0122644 0.00259467 -0.02926 -0.0291878 0.00416013 0.0133394 -0.0078704 0.0116381 0.0488889 0.038888 0.0109517 0.0350991 0.0250419 0.058298 -0.00880419 -0.00627954 0.0151257 -0.0276432 -0.0280242 -0.0307841 0.0166325 -0.0209929 0.0434637 -0.0289161 -0.0373616 0.0212972 0.0355604 0.04533 -0.00374723 0.0705152 0.0520642 -0.00194616 -0.00141888 -0.0335071 0.0330711 0.0215615 -0.000111921 -0.0297012 0.00796261 -0.0308199 -0.0400403 -0.000989808 -0.0271142 -0.0111618 -0.0040264 0.0074063 -0.0156081 0.014916 0.0127855 0.0140746 0.00839779 0.00869861 0.0247314 -0.000344094 -0.0134709 0.0104781 -0.00238818 0.0162988 -0.0328802 0.0235518 -0.0122083 -0.0368973 0.00671449 -0.00546116 0.0230018 -0.0301832 -0.014836 -0.00318807 0.0261029 0.0140629 -0.0348949 -0.0357199 0.0088386 0.00379224 0.0150963
/FACILITY/ATTRACTION 0.0159793 0.00240388 -0.0468251 0.0095226 0.0015541 0.0635109 0.0161414 -0.0213949 -0.0150327 0.0146638 0.0238893 0.00963356 -0.0439769 -0.00585825 0.00796761 0.00393778 0.0161196 0.00520366 0.0336346 -0.0095386 0.0116477 0.0264718 -0.00770111 -0.00284303 0.00659994 0.0344025 -0.0411361 0.0136835 -0.0324106 -0.00556131 0.0239901 0.00479054 -0.00527095 -0.00818101 -0.0470198 -0.0152963 -0.0217338 -0.0160081 0.000941578 0.0227829 -0.0144375 -0.00233445 0.0285859 0.0302733 -0.0115251 -0.0077325 0.0142752 0.0277784 -0.0567829 0.0283641 0.00031967 -0.0098291 -0.0089605 0.0423457 0.0270946 -0.00763566 0.0432694 -0.00103474 -0.042588 0.0331797 -0.0150949 0.0156868 -0.00681194 0.00654842 0.0379586 0.0104585 0.0453307 0.0380576 -0.00420351 0.0180257 0.0112553 0.0225835 -0.0312652 -0.0240798 0.0065136 0.000450245 0.0078022 -0.0154507 -0.0413857 0.005823 0.0109053 0.0116893 0.0116883 0.0188535 0.00297028 -0.0219623 0.0266171 -0.00941215 -0.000856845 -0.0194547 -0.013948 -0.00568083 -0.00608979 0.0474595 -0.00880669 -0.0341874 -0.0206044 0.0140085 0.0846423 -0.0499104 0.00306161 -0.000367529 0.0225363 -0.000642412 0.00528831 -0.0296102 -6.35014e-05 -0.0105776 0.0216159 -0.00965589 -0.0112277 -0.0202621 0.00109887 -0.0134801 -0.0416434 -0.0304547 0.0171684 0.0231143 0.0137639 0.0135867 0.0146359 0.0199208 0.0110165 0.0588805 -0.0496063 -0.0046101 0.0230641 0.0126292 -0.0277968 -0.00676962 -0.0652483 -0.0330765 0.00443363 -0.0309618 -0.000115057 0.0142439 0.017183 0.0127971 -0.0045833 -0.017127 0.00495209 0.00217528 -0.0249225 0.0470389 0.00724611 -0.0110694 -0.00738936 0.016626 0.0206015 0.0195622 0.0384785 0.00353957 -0.0103569 0.00543828 0.0144638 -0.0189968 -0.0556442 0.00475444 -0.0578251 -0.0688933 -0.00678644 -0.0327402 -0.0423062 -0.000344545 -0.0238028 0.0197392 -0.0172749 0.00373178 -0.016679 -0.0110562 -0.0153718 0.0027555 -0.00468926 0.0336027 -0.0166559 -0.0178564 0.0234038 0.0213053 -0.0111077 -0.014468 -0.0108068 -0.0371153 -0.096262 0.0073248 -0.0440928 0.0278168 -0.0120969 0.0555817 0.021958 0.0358296 0.0158349 0.00760236 0.0655624 -0.0516398 -0.00349106 -0.0309241 0.00281327 0.0302884 -0.037579 -0.00639731 -0.00782643 0.0223381 0.00827354 0.0125922 -0.0449999 0.0150299 -0.0138322 -0.0460736 0.0141801 -0.0108298 -0.0311814 0.0238925 -0.0125189 -0.0284916 0.0425133 0.0530451 0.0479568 0.0282218 0.00281914 -0.0655751 0.0187733 -0.00502694 0.0637782 0.0452716 0.0308225 -0.031514 -0.0146862 -0.0361944 0.0109737 -0.0237713 0.0138873 -0.0338685 0.011937 0.0383189 0.0341556 0.010843 0.0205588 0.00428255 0.0657701 -0.016171 0.0388236 -0.000287983 0.00675342 -0.0163104 -0.0118701 0.0229512 -0.0258805 0.0325691 -0.0126701 -0.0542649 0.0293098 0.0278983 0.0519829 -0.0184943 0.0610079 0.0461241 0.029565 -0.00123215 -0.0216145 0.0011812 0.0137461 -0.0283686 -0.0363893 0.0588049 -0.0187565 -0.0774017 0.027916 -0.043361 -0.0157232 -0.000244754 0.0161639 -0.0284542 -0.00481059 -0.00657328 0.0452688 0.0165864 0.0276856 0.0430905 -0.00835013 -0.02911 0.00897416 -0.0110192 0.0177663 -0.0665913 0.0133443 -0.0413522 -0.0498618 -0.0210667 -0.0125954 0.00244792 -0.0625765 -0.0178459 -0.0301512 0.0191714 0.00700916 -0.0193712 0.0194597 0.00824871 0.0131608 0.0191464
/WORK_OF_ART/BOOK 0.0112488 -0.0308242 -0.0500256 0.0102851 0.0323251 0.0141549 0.022964 -0.023745 0.00820722 -0.000338251 -0.00140278 -0.00670938 -0.0289947 -0.0269847 0.0161932 0.00208374 0.035384 -0.0366887 0.0451718 0.00370649 0.0206649 0.0149527 -0.0233372 0.0739768 -0.0124314 0.0262645 -0.0104249 0.0128191 -0.0064319 -0.000111118 0.0197049 0.00285483 0.0104839 0.00153406 -0.0430918 -0.0264984 -0.00126942 0.00351307 0.0268947 0.0127208 -0.000130561 -0.0046896 0.0122994 0.0133514 -0.00448444 -0.00682847 0.0284086 0.000394376 -0.0434209 -0.0176911 0.010883 -0.00809328 0.00953882 0.0629955 0.0317715 0.000162211 0.0429554 0.00684338 -0.0422141 0.00511173 -0.00163792 0.0139457 -0.0081178 -0.00985129 0.0121251 0.0068242 -0.00896434 -0.00422278 -0.0257259 0.0442465 0.0283952 0.033433 -0.0170072 0.00189451 0.0274708 -0.00339449 -0.0020447 0.0125414 -0.00558157 0.0119425 -0.00575814 -0.00116358 -0.011277 0.0309299 -0.00872787 0.0538186 0.00695341 0.00634702 -0.0181176 0.00894406 -0.00139115 0.0190053 -0.00372477 0.0215561 0.00217467 -0.0258543 -0.0134141 0.0196352 0.0582681 -0.0149072 0.0323529 -0.0135232 0.0242737 0.0275954 0.00948903 -0.00191858 -0.0134271 -0.0221308 0.0302302 0.0320524 -0.014681 -0.010073 0.0124897 -0.000729393 -0.038933 -0.00655844 0.00687831 0.0372967 0.0173485 -0.0267571 0.0387876 -0.00436218 0.0188699 0.00912812 -0.057837 -0.0120309 0.0350903 0.00603356 -0.0278678 -0.00134159 -0.0358421 -0.0114098 0.0327293 -0.0201026 -0.0041237 0.0068496 0.0228122 0.0135454 -0.0169799 -0.0091474 0.0199533 -0.0257132 -0.00314422 0.0815124 -0.0102346 0.00123739 -0.00656841 0.00687334 0.0136626 0.0284929 0.0121526 0.0172127 -0.0003347 -0.0175668 0.00909091 0.00940702 -0.00315345 -0.0121653 -0.0171507 -0.0368642 -0.00575936 -0.0103398 -0.0317894 -0.0120822 0.00215769 0.0187778 0.01431 0.0247804 -0.0248315 0.00274901 -0.0355637 0.0242498 -0.0136006 0.0247319 -0.00993339 -0.0628721 0.0294513 -0.00618817 0.00168814 -0.0180161 -0.0075911 -0.0265389 -0.0801914 0.0294937 -0.0387023 0.0393239 0.00493749 0.0521485 0.0295912 0.0340734 0.0156133 -0.00905347 0.0320383 -0.0224281 -0.0074669 -0.0212712 0.0117601 0.046811 -0.048611 -0.0271289 -0.000890365 0.0489386 0.0247615 0.0425011 -0.0627966 -0.0150507 -0.000838651 -0.0106192 0.00170139 -0.00533165 -0.0172296 0.0307049 -0.00891186 -0.0137191 0.0467244 0.0554305 0.0370123 0.0245886 0.0111105 -0.0142032 0.00436771 0.0320513 0.0610762 0.0361101 -0.0128716 -0.00502752 -0.014659 -0.0355673 0.00640333 0.00682227 0.00992076 -0.0185195 0.00735154 0.0532335 0.0441698 0.0183618 0.0365114 0.00343904 0.0714587 -0.0147543 -0.00768954 0.0275584 -0.00752877 -0.01371 -0.00587152 0.0136232 -0.00561259 0.0260215 -0.026222 -0.0465045 0.00821893 0.0248839 0.0138091 -0.0121549 0.034227 0.0362176 0.0037817 -0.0134935 -0.0175641 -0.00625713 0.0421722 -0.0122879 -0.0152345 0.0272895 -0.0226823 -0.0292847 0.0312405 -0.0178592 -0.0170292 0.00524304 0.000226436 -0.037602 0.0160954 0.00431172 0.033487 0.00484282 0.00702161 0.0244843 -0.0118847 -0.0207284 -0.0140065 -0.0153522 -0.00291593 -0.0528519 0.0102893 -0.0271192 -0.0285564 -0.018361 -0.0131729 0.00627333 -0.0102533 0.00667485 -0.00655055 0.0308627 0.0249063 -0.045176 -0.00688516 0.0412304 0.0259873 -0.0021696
/GPE/COUNTRY -0.016468 -0.00663905 0.0241059 0.00596108 0.00731385 0.0273321 -0.0274043 0.000777198 -0.0307351 -0.00385761 0.026258 0.0110899 -0.0139023 -0.00217927 0.0166914 0.00910959 0.00881003 -0.00760204 0.0123287 -0.0197952 0.0654676 0.0218884 -0.0095101 0.0335432 -0.0402289 -0.050581 -0.0194993 0.0526721 0.0058199 -0.00505791 0.0489086 0.0145072 0.0126235 -0.0021613 -0.0185854 -0.0148816 -0.0188138 -0.00280281 0.0457519 0.00251216 0.0307959 0.046243 -0.00790383 0.00581958 -0.098102 -0.00892521 0.0772596 0.0521295 -0.103854 -0.00570611 0.0240835 -0.00742469 -0.00379937 0.0866068 0.0401888 -0.0145728 0.055096 0.0386839 0.00818171 -0.00446317 0.00225448 -0.00111747 0.00572974 -0.0289541 0.0103523 0.00271589 -0.0115182 0.00389362 -0.0229322 0.0465114 0.0442695 0.0518907 -0.0124301 -0.00963022 -0.0286362 0.020688 0.0153983 -0.0133025 -0.0253675 -0.0319627 0.00692494 0.0207095 0.00520104 0.0173952 -0.026304 0.0431619 0.0103646 -0.0236759 0.0309823 -0.0245894 -0.0177048 -0.0119594 -0.0063008 -0.0123726 0.00758944 -0.066633 -0.00439353 0.017917 0.0339534 -0.0435343 0.00335026 0.00503723 0.0149542 -0.00460438 0.0102086 -0.00396791 -0.0341525 -0.0121438 0.026098 -0.0166213 -0.00850514 -0.00480123 -0.0170222 -0.00904642 -0.0625404 -0.0306225 0.00533478 0.0804313 0.0461645 0.00315737 0.0669198 0.036881 0.00806265 0.0150332 -0.029436 -0.0320865 0.0365675 -0.014326 -0.0127095 -0.00167345 -0.0509841 -0.0534569 0.0321778 -0.0288525 -0.00884729 0.00770339 -0.0048036 0.0209122 -0.0161556 -0.0202174 0.0155979 -0.0643554 -0.0252067 0.066186 0.00692196 -0.00411682 0.0208807 0.0262547 0.0345686 -0.0020856 -0.0344064 -0.0177907 0.0132226 -0.0283618 0.00459203 0.00305793 -0.0314252 0.01897 -0.00938814 -0.0530529 -0.0288985 0.00121201 -0.00987815 -0.000126452 -0.00451022 -0.0032315 -0.0179787 8.46342e-05 0.00659134 0.0005623 -0.0241934 0.00566708 0.0187378 0.0346756 -0.0441644 -0.00196288 -0.0536871 -0.00750318 -0.0226183 -0.0190421 -0.0172142 -0.0162593 -0.0725193 0.044676 -0.0170358 -0.017133 0.0147779 0.0614884 0.0116995 0.0276289 -0.0272661 0.00134693 0.0261837 -0.000923615 -0.0137624 0.0101768 -0.00369296 0.0170437 0.00935612 0.00425735 -0.0299756 0.00398531 0.0293843 0.0329935 -0.0161665 0.00528014 -0.0142162 -0.0119863 -0.0156072 -0.00277161 -0.00444022 -0.00726412 0.021043 -0.0264627 0.0382984 0.108208 -0.0106912 0.0190067 -0.0138394 -0.0778327 0.00441517 -0.0279743 0.0733479 0.00599255 -0.00426886 -0.024905 -0.0322443 -0.0443029 -0.033978 -0.0112426 0.00411979 -0.0063143 -0.0277769 0.0962028 0.0557274 0.0339393 0.0472927 0.0104631 0.0729842 0.0172453 -0.00551898 -0.0266876 0.0213567 -0.0143001 -0.0267039 0.00409765 -0.0234559 0.0229557 -0.01592 -0.0484333 0.024144 0.0100872 0.062002 -0.0164387 0.104407 0.0386372 0.00121186 -0.00421966 -0.0405606 0.0400823 0.0608107 -0.0638407 -0.0920065 0.00994288 -0.0278903 -0.0571645 -0.00341813 -0.0379322 -0.0104436 0.0347109 0.0590925 -0.0517263 -0.0252173 0.028687 0.0399431 0.0327595 0.0281025 0.073561 -0.0204005 -0.000471245 0.0164091 -0.0350275 -0.00306484 -0.0861213 0.0238091 -0.0335884 -0.0331381 -0.0204841 0.0384514 -0.0207949 -0.0217852 -0.0255955 0.00283392 -0.00204305 0.0520201 -0.0489469 -0.0234286 0.0043264 0.0315337 0.0847256
/SUBSTANCE/CHEMICAL 0.015466 -0.0350153 -0.0662601 0.0339855 0.0720815 0.0308974 0.0370941 -0.0631173 -0.0454181 0.0334867 -0.00148877 0.0440513 -0.0220618 -0.00649129 0.00467427 0.00353008 0.0148229 -0.00874708 0.059867 -0.00489433 0.0228677 0.0716608 0.0166093 0.0922322 -0.011201 0.0236732 -0.00627106 0.0371482 -0.0425727 0.0122743 0.0359967 0.00358189 0.0255581 -0.010361 0.00368247 0.0280359 -0.0375318 -0.0086403 -0.00772718 0.00167608 -0.0209366 -0.0147849 -0.00804936 -0.00676284 -0.0564427 -0.0115857 0.00203019 0.00734455 -0.0444778 -0.0238327 0.0263586 -0.0212385 0.0417969 0.0806652 0.036872 -0.0163895 0.0132034 0.0285956 -0.0511115 0.079743 -0.0152612 -0.0249567 0.0442357 -0.0321005 -0.00583987 -0.00797316 -0.00347309 0.00707039 -0.00530752 0.0239107 0.00357611 0.00836651 -0.0184129 -0.0212506 0.00855538 -0.0124138 0.0148696 -0.000519597 -0.00504905 -0.0106934 -0.00327733 0.0382634 0.0125102 0.0289173 0.030229 -0.0490409 0.00566391 -0.0532333 -0.0136085 0.0338775 0.0151042 -0.0352035 -0.0362319 0.0138505 0.008477 -0.00188427 0.0109735 0.00287151 -0.0171275 -0.00703625 0.00597863 0.0197065 0.0367787 0.00859301 0.0518966 0.00769514 -0.00440372 -0.0290862 0.0151904 0.0234614 -0.0299338 -0.0104777 0.0191952 -0.00152597 -0.015948 0.00770166 -0.0152994 0.0288301 0.0562569 0.0142146 0.0401159 0.00580072 0.0258083 0.00704892 -0.05118 0.000638646 0.0468285 0.031161 -0.0384084 -0.0179367 -0.0332074 0.0113335 0.0298258 -0.0253909 0.0387163 0.0497276 0.0209282 0.0266128 0.0132377 -0.00132001 -0.0154904 -0.0260801 -0.0105201 0.0283748 -0.0369586 -0.0209204 0.0166165 -0.0275543 0.040608 -0.00691177 -7.14947e-05 -0.0098465 0.00418605 -0.0118768 0.0478211 0.0400995 -0.0676432 0.021458 -0.0559362 -0.0806844 -0.005776 0.00851594 -0.0214815 0.0270086 -0.0136352 0.00876549 -0.0144899 0.0517975 0.00251462 -0.0376036 0.00974493 0.0159929 0.0100769 0.0433665 0.0259231 -0.0230011 -0.0171118 0.0291371 -0.00151953 0.0156966 -0.0461078 -0.0321518 -0.0819298 -0.0178159 -0.0300754 0.0418011 -0.00611625 0.00255431 -0.00946858 -0.0183068 0.0220669 -0.0182248 0.016817 -0.0072865 0.044735 -0.0205738 0.0200126 0.0160009 -0.0279757 -0.0186323 -0.00603501 0.058863 -0.012084 -0.0357956 -0.0168681 0.0128308 -0.0217801 -0.0171372 -0.0012735 0.00605048 -0.0239762 0.0174709 0.0277117 -0.0126998 0.0330751 0.0205586 -0.00369849 0.0425149 -0.00964789 -0.052223 0.0230878 -0.0145798 0.0874218 0.0342862 -0.0106675 -0.0150017 0.00691112 -0.0518382 0.000805419 -0.0131834 0.0155722 -0.0147475 0.0314542 0.0329668 0.0676571 0.0305019 0.0179691 0.00235533 0.0865975 0.0101276 -0.0166986 -0.017336 -0.0133717 0.0125874 -0.01829 0.0183335 0.00244269 0.0148181 -0.0295292 -0.0821923 0.0257703 0.0249423 0.0858599 -0.0648162 0.0542836 0.0184389 0.0437945 -0.0332524 -0.00483063 0.0451412 0.0444651 0.00852261 -0.00712255 0.0154615 -0.0437794 -0.0250204 0.00329539 -0.0340368 -0.00950109 0.0143053 0.0152803 -0.047018 0.0106973 -2.2269e-06 0.0810023 0.0181357 0.0169615 0.0302526 -0.0122413 -0.0171308 -0.00374191 -2.56303e-05 -0.00634361 -0.0419792 -0.00242589 -0.0324231 -0.000551547 -0.0191746 -0.0371697 0.00362868 -0.0657137 0.0134925 -0.0380994 0.0791369 0.00921499 -0.0190098 -0.027441 0.0695556 0.0248243 0.0364852
/GPE/CITY 0.0228598 -0.00902617 -0.0143323 0.0460685 0.0258016 0.0532969 -0.0229941 -0.028 -0.0381774 -0.000396482 0.0351815 -0.0210666 -0.0462961 0.00129858 -0.00492375 0.0105233 0.00416921 -0.0590445 0.018257 -0.040197 0.0380359 0.0292572 -0.0154909 0.00591561 -0.0174416 0.00297544 -0.00392018 -0.0031128 -0.0305254 0.00228409 -0.0212812 0.00960944 0.00394097 -0.0060166 -0.0571982 -0.0502643 -0.0182265 0.0224814 -0.00141422 -0.00251426 0.0127591 0.049917 0.00816028 0.0278408 -0.00908605 0.0269173 0.0223438 0.0264719 -0.0241203 -0.017474 0.0183786 -0.0212975 0.0150086 0.0488822 0.00301904 0.00662804 0.0396544 0.0101324 -0.00202624 -0.00617796 0.0131266 0.0286039 -0.00362771 0.0136165 0.0111585 -0.000148703 0.0381181 -0.0089325 0.028213 0.00452528 0.0244395 0.00512461 -0.0112802 0.00504172 -0.00364675 -0.00831404 0.00324664 0.0079439 -0.012461 -0.0153957 -0.0188839 -0.00119089 -0.00743166 0.0183353 -0.0152566 0.031375 -0.029802 -0.00203175 0.0171263 -0.000922265 -0.0160127 0.0359537 -0.0145867 0.0252666 0.0282358 -0.0442606 -0.0267796 0.0116151 0.0782598 -0.0532894 -0.00927286 -0.0165575 0.019262 -0.00897504 -0.0101014 -0.0334928 -0.0233635 -0.0218911 0.00768803 -0.0119534 -0.0109995 -0.0436363 -0.0151158 0.0229632 0.0145593 -0.00628389 -0.0206333 0.0433386 0.00664844 0.0189369 0.0226214 -0.013825 0.040593 0.0624203 -0.0509094 -0.00384177 0.0502159 -0.013703 0.000528084 -0.0212401 -0.0570932 -0.041848 0.0438903 -0.0385718 -0.0189259 0.00641782 0.0263247 0.0159405 -0.0181571 -0.0299839 0.0155873 0.0153861 -0.0325596 0.0519232 -0.0148052 0.022635 0.016364 0.0227686 0.0217724 0.0476194 0.0199363 -0.0083055 -0.00723263 -0.0184565 0.00274207 0.00966637 -0.0232561 0.0152359 -0.0453184 -0.045926 -0.0208584 -0.02651 -0.0417447 0.0118455 -0.00568652 0.0256432 0.0172539 0.0231654 -0.0166533 -0.0185517 -0.0199965 -0.00350418 0.0140071 0.0519126 -0.0271695 -0.0106824 0.0167268 0.0225343 -0.025621 -0.0135473 -0.00156573 -0.0291349 -0.118669 0.0209967 -0.0613495 -0.00965573 0.00771541 0.0697506 0.0315033 0.0590263 -0.0368776 0.0153994 0.0485274 -0.0356701 -0.0210944 0.00843034 0.0177021 0.0299688 -0.0109716 -0.00616706 -0.0296746 0.0185998 0.0231901 0.0513581 -0.0402963 -0.0109173 -0.016367 0.00245752 0.03846 0.0216528 -0.0131927 0.0458959 -0.0147719 -0.0649875 0.0464604 0.0311603 0.00133845 0.0161706 -0.0163614 -0.0437465 0.00113613 -0.00412853 0.0905743 0.0572932 0.0580588 -0.0212694 0.00378484 -0.0940711 -0.023095 -0.040141 0.013592 -0.00539998 0.0204909 0.0799391 0.0605734 -0.0102454 0.0474087 -0.0023992 0.0491662 -0.0204824 0.0297468 0.0276944 0.0165185 0.00137976 0.0107675 0.0229135 -0.0439272 0.0336857 -0.034625 -0.0502451 0.0600051 0.0530438 0.0953137 -0.0515061 0.0985529 0.0522106 -0.00600781 0.00139435 -0.00729648 0.0034203 0.0503098 -0.0585604 -0.0789395 0.00818736 -0.0268861 -0.060411 0.0286331 -0.0497925 -0.0101745 0.0232114 0.028682 -0.0557487 0.00796606 0.00914013 0.0252889 -0.0110344 0.0347519 0.0884174 -0.00965311 -0.0441042 0.0144274 -0.0364632 0.0529056 -0.0792724 0.037841 -0.0456635 -0.0805913 -0.019783 -0.00763569 0.0101492 -0.0231262 -0.00201923 -0.026875 0.0252888 0.0296967 0.0242043 -0.0293302 0.0680068 0.00741 0.0283254
/ORGANIZATION/HOTEL -0.000750847 -0.0101312 -0.036266 0.0140742 0.0369812 0.0421008 0.00883403 -0.0125813 -0.00614213 0.000936018 0.00868256 0.00621535 -0.0503507 -0.0213594 0.01848 0.023821 0.0401466 -0.026471 0.0324248 0.0052068 0.0268509 0.0366752 0.00361491 0.0259801 -0.014771 0.0206461 -0.0307983 0.0130313 -0.0205791 0.000388215 0.0164576 -0.0061309 -0.00685665 -0.0228318 -0.0303097 -0.0203625 -0.00183252 -0.00581606 0.00233833 0.0124847 6.38339e-05 -0.00235719 0.0124227 0.0179363 -0.0196255 -0.00567297 0.0284201 -0.00756486 -0.0489934 0.00562045 0.0109876 0.00324981 0.014255 0.0632587 0.0204914 -0.00072168 0.0569984 -0.000508529 -0.0432469 0.00179414 -0.00477559 0.00877274 -0.0049753 -0.00468315 0.00589393 0.00923343 0.0185244 0.0183002 0.00733229 0.0036525 0.0271446 0.00579113 -0.00530235 0.00248752 -0.00128416 -0.0236263 -0.0017315 -0.00301668 -0.0311955 -0.00880151 -0.0123141 0.0122785 0.00176989 0.0252009 0.00710698 0.0251477 0.0272038 -0.00531195 -0.00588922 0.000893578 0.0117897 0.00529272 -0.0131905 0.0346162 0.00171551 -0.0168961 -0.0151731 0.0220622 0.0646254 -0.0386313 0.0163284 -0.0207677 -0.00622519 0.0263484 0.000867921 -0.0237528 -0.00902903 -0.0217732 0.00658498 0.013903 -0.0227381 -0.0135961 -0.00646636 -0.0118165 -0.015665 -0.027095 -0.00167752 0.0419321 -0.00045275 0.0293076 0.0407401 0.0186906 0.0272851 0.0353274 -0.0664278 -0.0138031 0.0290109 0.0161743 -0.0306594 0.00491297 -0.0516332 -0.0136857 0.0310265 -0.0149828 0.0145173 0.0247143 0.0071103 -0.00804967 0.000129041 -0.0232634 -0.00596994 -0.00424822 0.00561409 0.0639186 -0.012022 -0.0150066 -0.00774412 -0.0101136 0.0210746 0.052728 0.0232597 0.00295579 0.0110112 -0.0147063 0.0148007 7.21678e-05 -0.0329221 0.00783514 -0.0108152 -0.054447 0.00935636 -0.014256 -0.0464095 0.00524532 -0.00693005 0.0039615 -0.0065982 0.00304408 0.00545396 -0.00893895 -0.0176736 -0.00212921 0.0195551 0.0516036 -0.00708858 -0.0284313 0.00738051 0.0281483 -0.0266475 -0.0168714 -0.00111806 -0.0490034 -0.0796719 -0.007601 -0.0469807 0.0185235 -0.00794059 0.0399103 0.0108181 0.0547161 0.0100022 -0.00459823 0.0433037 -0.0166029 0.00647805 -0.00147756 0.0132123 0.020332 -0.0312181 -0.012062 -0.0163799 0.0384764 0.0215696 -0.00033869 -0.0577219 -0.00151505 -0.00112487 -0.0457149 0.0144526 -0.000392021 -0.0295058 0.0288362 -0.0204192 -0.0268605 0.0613603 0.0553921 0.0261065 0.0350725 -0.0143444 -0.0590163 0.0354817 -0.000957921 0.0611913 0.0531916 0.00933129 -0.0223102 0.00533799 -0.0495556 -0.00471389 -0.000346045 0.0108939 -0.0156843 0.00492628 0.0395707 0.0525652 0.0321188 0.0214785 0.0039439 0.0777409 -0.00431177 0.0115237 0.0137481 0.0193116 -0.0102529 -0.0162043 0.00762679 0.00272009 0.0309662 -0.0318376 -0.0719931 0.034238 0.0379713 0.0604251 -0.0326699 0.0454524 0.0374704 0.0119458 -0.0139741 -0.0149892 -0.0033464 0.0255413 -0.0272463 -0.0178424 0.0339546 -0.028865 -0.0491503 0.0354126 -0.0318407 -0.00859902 0.00172073 0.0186557 -0.0307033 -0.00187737 0.0047067 0.0359429 0.0187624 0.0273571 0.0250769 -0.00876284 -0.0242621 -0.00597699 -0.0103834 0.0302629 -0.0688136 0.0135326 -0.0439679 -0.0345488 -0.0143648 -0.0178249 -0.00875539 -0.0124427 0.0166415 -0.02475 0.0235006 0.0235209 -0.0147814 -0.00249232 0.0495471 0.000103617 0.00177767
/PLANT 0.00661412 0.0353519 -0.0624368 0.0461423 0.0596989 0.0745397 0.0135984 0.0310866 -0.0241578 0.0368573 0.00629424 0.0177828 -0.0148022 -0.0283149 0.0154874 0.00569337 0.0302436 -0.0356538 0.0557644 -0.045144 0.0368128 0.0580066 -0.0422476 0.0645453 -0.00170863 0.0341391 -0.0155402 0.06926 -0.0450149 0.0250556 0.00149435 0.0282959 0.023165 -0.028183 0.0098928 0.00902364 -0.0274436 -0.042426 -0.021825 -0.00346908 -0.0342445 -0.0296764 0.0131082 -0.00317315 -0.00773113 -0.0202146 0.00020749 0.0211135 -0.0342684 0.0120589 0.0210391 -0.0130312 0.00388473 0.0336753 0.0121094 0.000401786 0.0858008 0.0335902 -0.0619967 0.0508603 0.0147289 0.00167164 -0.00767834 -0.00954733 0.00806311 0.0339566 0.0212762 0.036365 0.0161862 0.0195827 0.00149341 0.0413556 -0.0291895 -0.0249822 0.0342317 -0.0166581 0.00233665 -0.021639 -0.0270576 -0.00701431 -0.00838973 0.0159991 0.0123845 0.0133014 -0.00977524 -0.0302351 0.0126817 -0.0322503 -0.0136285 0.0307201 0.01106 -0.00711059 -0.0207357 0.00702092 0.0210801 -0.00440311 0.00261057 0.0142862 0.0154631 -0.0217314 0.0210464 -0.0131245 0.00434904 -0.0267115 0.038892 -0.00715018 0.0077389 -0.0295944 0.024228 0.032571 -0.0309672 0.0102342 -0.00572807 -0.00881489 -0.037153 -0.0334671 0.0247976 0.0280061 -0.00674887 0.0128597 0.0463523 0.0441086 -0.000234511 0.0418647 -0.0647144 -0.033214 0.0317021 0.0167546 -0.0353322 0.00187752 -0.0306209 0.0184209 0.0291659 -0.0262446 0.0234704 0.0210709 0.00997514 0.0106636 -0.0132293 -0.0554169 -0.00482537 -0.0185025 -0.0169337 0.0472006 0.00419586 -0.00660545 -0.00147414 -0.00693045 -0.00107851 0.00367362 0.0320866 -0.0167857 -0.00527441 0.00450223 0.0233675 -0.0010835 -0.0604034 0.0198022 -0.0131287 -0.0952904 0.0153274 -0.0109032 -0.00489348 0.0385406 -0.00981221 -0.00354301 -0.0119615 0.00980244 -0.00322497 0.0122223 -0.0211582 0.0340246 0.0425419 0.0220034 -0.00970404 -0.058298 -0.0049769 0.007124 -0.0350242 -0.0124386 -0.0342041 -0.027775 -0.099243 0.0109801 -0.0178976 0.0375046 0.00613288 0.0329372 0.0165285 0.0365871 -0.00552684 -0.0159203 -0.00816985 -0.0170048 -0.0156122 -0.0220976 0.0087968 0.0304671 -0.0593565 -0.00306439 0.00154541 0.0287473 0.0257328 -0.00174043 -0.0306345 0.00713756 -0.0286099 -0.0705391 -0.0188267 0.0374285 -0.0195116 -0.0103557 -0.0276441 -0.0298623 0.0697258 0.0592953 0.0422567 0.0332365 -0.00211954 -0.0795252 -0.0153667 -0.00544489 0.0386269 0.0113239 -0.00895051 0.0108434 -0.0113426 -0.0245716 -0.0184639 0.00401576 -0.012237 -0.0247471 0.00436923 0.0351468 0.0284253 0.0247885 0.00255311 -0.00957446 0.0652722 0.00855262 -0.0298471 -0.0250158 0.0252774 -0.000378496 -0.0148746 0.00872051 0.0190455 -0.0277094 -0.0347815 -0.0749602 0.0212059 0.0217215 0.0323352 -0.0399229 0.0235886 0.0245783 0.00882972 -0.0527605 0.003602 0.0270389 0.0300943 0.00605283 0.00417316 0.0282463 -0.0575085 -0.037119 0.012468 -0.0115441 -0.00764971 0.0141644 0.0253781 -0.0297405 0.00824898 0.0235353 0.0515128 0.0157164 0.0143926 0.0186761 -0.0271561 -0.00885357 0.000227205 0.014607 0.0110953 -0.0720342 -0.00195537 -0.0163081 -0.00320248 -0.0290704 -0.00823676 0.00403475 -0.0193692 -0.0147039 -0.0040199 0.0291444 -0.00209887 -0.0471265 0.00450421 0.0305375 0.0145035 0.00429585
/GPE -0.00352628 0.00207064 0.000279448 0.0341117 -0.00410546 0.041178 -0.0158051 -0.00570548 -0.0388483 0.00841105 0.0219739 0.00101569 -0.0349774 0.00138035 0.00113519 0.00519079 0.0144585 -0.0273459 0.0212221 -0.0323415 0.0521343 0.0349869 -0.0149148 0.0268177 -0.0265471 -0.0147312 -0.017474 0.0405395 -0.00871537 0.00624456 0.0297384 0.00754713 0.0109419 -0.013218 -0.0238191 -0.0222471 -0.0227384 0.00261852 0.0104305 -0.00673852 0.0170093 0.0253796 0.023947 0.0118382 -0.0403454 0.000929616 0.0625073 0.0383738 -0.0730865 -0.00710398 0.00996279 -0.0158501 0.0070452 0.0715844 0.0149756 -0.00682592 0.0483577 0.0168083 0.00248817 0.00718716 -0.00213803 0.0160522 -0.000559412 -0.0210057 0.0113266 -0.00396173 0.0146879 0.00632464 -0.0140275 0.0131786 0.0178337 0.0272712 -0.0271101 -0.0208883 0.00365096 0.00106737 0.0118836 -0.019366 -0.0395907 -0.0113595 -0.00704473 0.0120583 0.0098785 0.033181 -0.0184463 0.0306635 0.00410476 -0.00777251 0.00530756 -0.0250869 -0.020619 0.00691097 -0.021851 -0.00377912 -0.00781886 -0.0550646 -0.0160723 0.0131789 0.0680605 -0.0465319 0.0113239 -0.0144905 0.0173422 -0.0137281 -0.00653013 -0.0258208 -0.023099 -0.0128993 0.0186942 -0.00961686 -0.0146072 -0.0113556 -0.0113681 -0.000846898 -0.0311271 -0.0136234 -0.0048579 0.0694735 0.0154797 0.000618552 0.0368571 0.010126 0.0259508 0.0351835 -0.0569808 -0.0276941 0.0451011 -0.00224029 -0.0133537 -0.019889 -0.0556667 -0.0383347 0.0347964 -0.0310448 -0.0210994 0.00455415 0.00423865 0.0212507 -0.0145968 -0.000703438 0.00434642 -0.00381288 -0.00769813 0.0607901 -0.0111175 -0.00423307 0.00525982 0.0238992 0.0286956 0.00202425 -8.65592e-06 -0.0111822 0.00902793 -0.00811037 0.0188943 -0.00409145 -0.039038 0.024578 -0.0218646 -0.0367949 -0.0174574 -0.0126386 -0.0273424 -0.00277619 0.00176193 0.00554157 -0.00937188 -0.0154736 -0.00650049 -0.00942629 -0.0142556 0.013292 0.0139074 0.0456689 -0.0353211 -0.00191474 -0.0181009 0.0144143 -0.0330651 -0.0172793 -0.00250784 -0.0278743 -0.102218 0.0182106 -0.0408475 -0.0087885 0.0138253 0.0762428 0.0238015 0.0361039 -0.018612 0.000433243 0.0346938 -0.0250881 -0.0252582 0.0118644 0.015729 0.0338309 0.00316687 0.00502888 -0.0218221 0.0184985 0.00884755 0.0154163 -0.0344188 0.00461882 -0.000660606 -0.0138862 0.0178569 -0.000632011 -0.0227789 0.00765414 0.00494404 -0.0447541 0.0450449 0.0770536 0.00239889 0.00910863 -0.0131491 -0.0574012 0.0101374 -0.0171374 0.0852442 0.0305786 0.0272141 -0.00956407 -0.0172798 -0.062368 -0.0147976 -0.0166095 0.00176222 -0.00551735 -0.0130039 0.0659508 0.0535746 0.0301338 0.0433738 -0.00214597 0.0588046 -0.00239145 0.0141646 0.00173116 0.0240839 -0.0214424 -0.0245887 0.00496837 -0.0261085 0.018704 -0.0210458 -0.0437746 0.032013 0.00530045 0.0541588 -0.0371488 0.110678 0.0311881 0.00413776 -0.00328522 -0.0406621 0.00673103 0.0585875 -0.0533806 -0.0645486 0.0182609 -0.0411624 -0.0725175 0.0106738 -0.0435245 -0.00863782 0.0345569 0.0428455 -0.0561856 -0.0157322 0.0190862 0.0328764 0.000365906 0.0163873 0.0706073 -0.0136498 -0.00633202 0.0122218 -0.0362173 0.02904 -0.0776092 0.0180514 -0.0378316 -0.0480284 0.00144448 0.0259217 -0.00433875 -0.0299963 -0.00527789 -0.0076156 0.018848 0.0378397 -0.0300993 -0.00511195 0.00878365 0.0256459 0.0481727
/EVENT/WAR 0.0153274 -0.00828152 -0.0208146 -0.0121668 -0.0118499 0.0102701 0.0338997 -0.00954003 -0.00125659 0.00536275 0.00529165 -0.0067079 -0.0261449 -0.0241164 0.0153618 0.00615539 0.00748153 -0.0357372 0.0139284 0.00337549 0.0337721 0.00135419 0.00059385 0.0241185 0.0230587 0.00770286 -0.00568008 0.023115 -0.0368549 -0.0268662 0.0414981 0.00405675 0.0228046 -0.0279603 -0.053985 -0.0297705 -0.0390406 -0.0380233 0.0393554 0.0460615 0.00386711 0.000541647 0.0478281 0.0164191 -0.0578572 -0.0187423 0.0307034 0.0228245 -0.0394735 0.00281766 0.00148589 0.000719145 -0.0137173 0.0546811 0.0258502 9.88641e-06 0.0720529 0.0165235 -0.025461 0.0335221 -0.0351963 -0.0363809 -0.00257305 -0.0227063 0.0474645 0.0105164 0.00174594 0.000809422 -0.00782937 0.0331924 0.027227 0.0813433 -0.0213637 -0.0440649 0.00575327 -0.0256082 -0.000671063 -0.0139233 -0.0189383 -0.0176316 0.00755011 0.0385016 -0.00218007 0.0455351 -0.0301899 0.0388349 -0.00994253 -0.0181826 -0.0331657 0.0131195 0.0221137 -0.00104769 -0.00397679 0.036219 0.0196452 -0.0492931 -0.0259137 0.00847852 0.0692871 -0.0107975 0.0270885 -0.0269582 0.0257493 0.0234268 0.0509416 -0.0389146 -0.0218982 -0.0141974 0.0139438 0.0229449 -0.00139635 -0.0191057 -0.00206414 -0.0149625 -0.0191605 -0.0228661 0.00434358 0.0620022 0.0383711 -0.00236523 0.00487251 -0.00789819 0.0142727 -0.0102302 -0.0450936 -0.0296372 0.0541041 0.00976245 -0.0126239 0.0121213 -0.0406636 -0.0069695 0.0361893 0.0042883 -0.0241857 0.00673148 -0.00357578 0.00887197 -0.0269775 -0.0298393 0.00605499 -0.0174794 -0.0140726 0.0239001 -0.00828211 -0.00456041 0.0169638 0.00799809 0.018225 0.0209263 0.0118005 -0.0340703 0.0129904 -0.00656719 0.00725515 0.0038775 -0.0440692 0.0127312 0.00848429 -0.0172171 0.013643 -0.0231028 -0.00132804 -0.0045935 -0.0269321 0.0157225 0.0278531 0.0264494 -0.023723 -0.0135684 -0.0157184 0.0448918 0.017774 0.037 -0.00998329 -0.0385111 0.012631 0.0182742 -0.0241274 0.000898079 -0.0372263 -0.0350588 -0.0616398 0.0181935 -0.0196131 0.00981554 -0.0091228 0.0410981 0.0239678 0.0301625 -0.009478 0.00307582 0.00998069 -0.0217643 0.00141135 -0.0144452 0.0221969 0.0205142 -0.0375494 -0.0136475 0.00292609 0.0329353 0.0218248 0.0203617 -0.0425651 0.00684871 -0.00318008 -0.0138865 -0.00606859 -0.0153949 -0.00641145 0.0191114 -0.00925572 -0.0151081 0.0472866 0.0481244 0.027178 0.0458178 -0.00127205 -0.0753291 3.27663e-05 -0.0141111 0.0585695 0.0339261 0.00677188 -0.0220611 -0.000856901 -0.0268984 -0.0104611 -0.0027848 -0.00217848 -0.0124089 0.00742486 0.0443615 0.0277619 0.00759955 0.0437143 0.0156767 0.0646955 0.0362552 -0.01685 0.00436315 -0.0122318 -0.0239474 -0.0262504 -0.0013953 -0.0237802 0.0204506 -0.0263926 -0.055227 0.0145186 0.00610699 0.0519192 0.0174428 0.0647775 0.0422882 -0.00711141 -0.0326726 -0.00440134 0.024347 0.00599975 0.0171288 -0.0206345 -0.0132137 -0.0198973 -0.00978864 -0.00144294 -0.00983772 -0.010166 -0.012074 0.0179158 -0.0129251 0.01251 0.0185878 0.0317915 0.0171438 -0.0155701 -0.0061534 -0.00145784 -0.00331029 0.00392047 0.0234139 -0.00821697 -0.0262141 0.00751907 -0.037269 -0.0585757 -0.000459288 -0.00648566 0.0175712 -0.037308 -0.0147477 -0.018152 0.0195868 -0.00716469 -0.0310771 -0.0163846 0.0157912 0.0105664 0.024648
/LOCATION/LAKE_SEA_OCEAN 0.00883283 -0.012656 -0.0398618 0.0274116 0.0303668 0.0403136 0.000271367 -0.0117431 -0.0190101 0.003712 0.0113132 0.00191154 -0.04378 -0.0168921 0.0122905 0.0254423 0.0450439 -0.0432947 0.0309343 -0.0101963 0.0272381 0.0262883 -0.0101374 0.0338027 -0.0169421 0.00955332 -0.0186877 0.0214216 -0.0331765 0.00388335 0.0118207 -0.00219126 0.0107278 -0.0118757 -0.0376392 -0.0272157 -0.00997337 -0.0032521 -0.00409555 0.0104853 0.00264306 -0.00550803 0.0183938 0.014658 -0.0247985 -0.000623702 0.026316 0.0116936 -0.0422294 0.01014 0.00622851 -0.0162287 0.0187744 0.0621247 0.0153725 -0.00899657 0.0602622 0.00333302 -0.0292753 -0.000776494 -0.0131447 0.00161286 0.00198627 -0.00402867 0.00813891 0.00957543 0.0217271 -0.000117275 0.00845716 0.0172703 0.0175961 0.011707 -0.0185661 -0.00292207 0.00463107 -0.00827256 0.0107408 -0.00948062 -0.0173863 -0.0113441 -0.0136647 0.0129598 0.00377394 0.0109608 0.00102865 0.0279412 0.0125531 -0.00102784 -0.0145245 0.0115095 0.00471311 0.00334839 -0.00852414 0.0227496 0.011629 -0.0159101 -0.0162834 0.012691 0.0490367 -0.0366224 0.0277112 -0.0171285 0.00652298 0.0104384 0.0131426 -0.0187509 -0.0175071 -0.0286063 0.00577662 0.0183384 -0.0263285 -0.0144623 0.00269306 0.00140971 -0.012713 -0.0169922 0.00609415 0.0434262 0.000403281 0.0184652 0.0337225 0.0198869 0.0171991 0.028321 -0.0611763 -0.021356 0.0431351 0.00465013 -0.0251473 -0.00907586 -0.0524778 -0.00583128 0.0308315 -0.0170999 0.0090945 0.0242039 0.01343 -0.00182629 -0.00283612 -0.0196371 -0.00561241 -0.0100759 -0.0147502 0.0597132 -0.0213791 0.0031985 -0.00340577 -0.0138687 0.0219219 0.0519697 0.0310884 -0.00431815 0.00683545 -0.0123592 0.00942217 0.00264106 -0.0221229 0.00892132 -0.0281725 -0.0508585 0.00739019 -0.0264609 -0.0411542 0.0134275 -0.00519345 0.00753151 0.0200006 0.00481249 0.00617356 -0.0133209 -0.00461176 0.00995528 0.0296939 0.0379787 -0.000129719 -0.0303019 0.00713198 0.0135593 -0.0199867 -0.00570582 -0.0116842 -0.0343297 -0.0862656 0.00579145 -0.0367381 0.0330076 0.0025867 0.0436997 0.0147954 0.0398462 -0.00657825 -0.00421605 0.0225779 -0.0115194 -0.00798027 -0.0044465 0.0141352 0.0142562 -0.030096 -0.00840351 -0.0171592 0.0275756 0.0225778 0.00966593 -0.0486742 -0.000982656 0.000626353 -0.0345345 0.0128657 0.00382587 -0.0129819 0.0263772 -0.0190386 -0.0336691 0.0559568 0.0496219 0.0220008 0.0320444 -0.0198043 -0.0523667 0.0110144 0.00160696 0.0661208 0.0404304 0.0170078 -0.0145376 0.00600803 -0.0452884 -0.0202162 0.00447102 0.00867699 -0.00901034 0.00814076 0.050604 0.0598595 0.0165508 0.0283176 0.00673935 0.0654105 -0.00681796 -0.00154909 0.0155758 0.0165239 -0.00541897 -0.0110368 0.00964167 -0.012614 0.0281521 -0.0381919 -0.0587912 0.0396816 0.029987 0.0589505 -0.0274298 0.0619611 0.0410108 0.00800931 -0.00817591 -0.00599047 0.00393782 0.0359683 -0.0254858 -0.0123612 0.0178722 -0.0241726 -0.0414627 0.0271632 -0.0283634 -0.012605 0.00641564 0.0266342 -0.0282788 0.0105755 0.00673042 0.0266933 0.00478522 0.0234082 0.0354121 -0.00835086 -0.0140438 -0.00457141 -0.0191697 0.0315344 -0.0617786 0.00229103 -0.0355914 -0.0335669 -0.00699568 -0.00889405 -0.00885564 -0.019682 0.00745578 -0.0174828 0.0333044 0.0139632 -0.0223964 -0.00332814 0.0628456 0.00310613 0.00745397
/LOCATION -0.00391083 0.00395542 -0.026831 0.0430453 0.00529033 0.0529276 0.00106323 -0.0187176 -0.0254142 0.00791864 0.024933 0.00827939 -0.0296801 0.0210463 0.0248231 0.00325899 0.0163016 -0.033474 0.0282783 -0.031357 0.0239797 0.0233508 -0.011324 0.0120253 -0.0116823 -0.0108157 -0.0220269 0.0377018 -0.0187862 -0.00678154 0.0164298 0.00619414 0.0156579 -0.0131931 -0.0362934 -0.0105814 -0.0233454 -0.0101187 0.011886 0.00522423 -0.00515919 0.0284899 0.0259683 0.020061 -0.0257713 0.0144032 0.0333432 0.0140697 -0.0446841 0.00534983 0.00163638 -0.0119437 0.0200947 0.041534 0.0132321 -0.00955364 0.0449252 0.0207152 -0.0212333 0.00715065 -0.00747903 0.030946 0.00746254 -0.00411228 0.00655851 0.00633627 0.023627 0.0112991 0.00287389 0.011157 0.0238922 -0.00505581 -0.0164766 -0.0152678 -0.00907071 0.0108732 -0.00384485 -0.0133912 -0.0287859 -0.00678862 -0.0122266 -0.00639568 0.00577327 0.00170576 0.00516096 0.0216501 -0.000938894 0.0153155 0.00563816 0.00195958 -0.0249903 0.0062059 -0.00915404 -0.00224593 0.00252155 -0.0422562 -0.00697131 0.00156176 0.0677623 -0.0564927 0.0123006 -0.0158592 0.00903441 -0.00196936 -0.00301634 -0.0256768 -0.0164583 -0.0041218 0.0204433 -0.000605304 -0.00201148 -0.00132667 0.000124357 0.00412853 -0.0181935 -0.0163361 -0.00600815 0.059441 0.0163176 0.0047048 0.0357914 0.0135642 0.0306094 0.0371892 -0.072713 -0.0229114 0.0406111 -0.00271068 -0.020457 -0.0174358 -0.0699399 -0.0306055 0.014894 -0.0352514 -0.00720732 0.00780456 0.0336163 -0.000391583 0.000281557 -0.0185766 0.0128052 0.00731255 -0.0204831 0.0493237 -0.0236314 0.0184361 0.0143703 -0.000915427 0.0188898 0.015448 0.0216739 -0.00119791 0.00624421 -0.0011516 0.0165325 -0.00294253 -0.0446932 0.019438 -0.0416798 -0.0492698 -0.00325503 -0.0158708 -0.0387884 0.00481792 -0.0120561 0.0287134 0.00126175 -0.00161276 0.00154432 -0.0189921 -0.00877024 -0.00254191 0.0134543 0.0374176 -0.00709251 -0.0250517 0.0118734 0.0186758 -0.00883532 -0.0113806 0.0108025 -0.0345751 -0.117792 0.0260503 -0.0513571 0.0100801 -0.00120009 0.0754051 0.023558 0.0473164 -0.00108621 -0.000357489 0.0432071 -0.0515984 -0.0308157 0.0016093 -0.00531942 0.0341895 -0.0208323 0.0118148 -0.0238739 0.0295403 0.0143737 0.0235179 -0.0339412 0.0246696 -0.00318194 -0.00242578 0.0254155 -0.0116002 -0.0122781 0.0261787 -0.0130886 -0.0342107 0.052943 0.0314928 0.00958045 0.0219189 -0.00612204 -0.0617258 0.00449862 -0.00829577 0.0667762 0.0325604 0.0368194 -0.0149668 -0.0111833 -0.0647402 -0.00150871 -0.0164901 0.00030532 -0.009918 0.0103465 0.0584946 0.0535773 -0.0168442 0.0467428 -1.06348e-05 0.0444206 0.0121607 0.0175188 0.0113329 0.0223497 -0.0205708 -0.020743 0.00673436 -0.00465777 0.0324679 -0.02811 -0.0437635 0.0367979 0.0211276 0.0547597 -0.0446086 0.0800264 0.0423897 0.0125164 -0.0198585 -0.00643066 0.000939275 0.0277537 -0.0412401 -0.0414059 0.0259377 -0.024596 -0.0647765 0.0488238 -0.0455549 -0.0205772 0.0243604 0.0197391 -0.0346166 -0.0107211 0.00531185 0.0297246 -0.000176939 0.0240775 0.0617959 -0.00199742 -0.030373 0.00434005 -0.0464485 0.0344605 -0.0796622 0.0164811 -0.0584921 -0.0464604 -0.0163939 -0.00479752 0.000557018 -0.0423641 -0.00636142 -0.0204755 0.0461096 0.014481 -0.00731532 -0.0158358 0.0176983 0.0237549 0.0330467
/GPE/STATE_PROVINCE 0.0206099 0.0117159 -0.0077655 0.0436426 0.0749158 0.0647045 0.00474995 -0.0465202 -0.0132294 0.0464197 0.0508232 0.0148428 -0.0205816 0.036266 0.00948778 0.010621 -0.0338383 -0.0234063 0.00874774 -0.0449062 0.047713 -0.0055162 0.00327309 0.0244027 0.0110676 0.0154675 0.00527653 0.00103107 -0.0186154 0.0259347 -0.0152659 0.0284596 0.0170455 -0.00545851 -0.0206085 -0.0399739 0.0152557 0.00220214 0.0184586 0.000704712 -0.00179713 0.0291417 -0.00295531 0.0105976 -0.0217319 0.0127763 0.0304374 0.0300173 -0.055841 -0.0517366 0.0116421 -0.0456238 0.0353253 0.0149741 -0.00312062 0.0110406 0.0667223 0.00165335 -0.0189897 -0.0116295 -0.000644463 0.060441 0.00702374 0.023957 0.0288817 0.0167061 0.0255603 0.00719948 0.0244853 0.0147653 0.0568968 -0.0108191 -0.00854667 -0.0216291 -0.004222 -0.0149024 -0.00984947 -0.0427462 -0.0474849 0.00539451 0.00328929 -0.0297377 -0.00720964 -0.00808093 0.00750604 0.040167 -0.0053035 -0.0222139 -0.00653656 0.0140146 -0.0637739 0.0107043 -0.0238303 0.0223455 0.0168504 -0.0519656 -0.00513958 -0.00768264 0.0788059 -0.0568736 0.000897605 -0.0275187 0.0173264 -0.00920941 0.0261976 -0.0711811 -0.0674861 -0.0489865 0.0526515 -0.0117037 0.00659945 -0.00817878 0.0179319 0.0155743 0.0121094 -0.0136166 -0.0210259 0.0885585 -0.0425855 -0.00305934 0.0130202 0.00635584 0.000482399 0.0613428 -0.0401513 -0.0126905 0.0385769 -0.0179757 0.0282729 -0.0692516 -0.077402 -0.0663825 -0.00297834 -0.0351861 -0.0382633 0.0199596 0.0515826 0.0113061 -0.0524189 -0.0514814 0.0367115 0.0195674 0.00389938 0.00770169 -0.0169135 0.0341661 0.0157566 -0.0113131 0.0480885 0.0308189 0.00212374 -0.0113912 -0.0333067 -0.0134368 -0.00248914 -0.0402217 -0.0214534 0.0287736 -0.0293309 -0.0729796 0.0144509 -0.00530604 -0.0108997 -0.00405793 -0.0246018 0.0289368 -0.00200752 0.0172322 0.00105089 -0.0112292 -0.00961631 -0.0162453 0.012927 0.034933 -0.0334426 0.0187127 0.0188752 -0.0165487 -0.0691527 -0.0402432 0.0121702 -0.0225593 -0.140821 0.0332744 -0.0732717 -0.0199872 0.00507128 0.0672479 0.00737639 0.0386882 -0.00923819 0.0128936 0.0438319 -0.0153113 -0.022674 0.0639948 0.0530705 0.0608651 -0.0357271 0.0390142 -0.0230525 -0.0255821 -0.020298 0.0566203 -0.0550271 0.00782411 0.0118563 0.0335082 0.0339993 0.0113488 -0.0275825 0.0459981 -0.0189514 -0.0509779 0.0441187 0.0203796 0.00508933 -0.00890099 -0.00191525 -0.0635052 -0.0415328 -0.00690641 0.0848144 0.00486137 0.0312946 -0.0521203 -0.0269408 -0.0896088 -0.014509 -0.0411516 0.00811936 -0.0309906 0.00990459 0.0948496 0.0706742 -0.0209806 0.0699823 0.00578765 0.0515331 -0.0254633 0.0362069 0.0175116 0.0351925 -0.0138547 0.0299494 -0.0029265 -0.000179197 0.0110915 0.00706633 -0.0384367 0.0426407 0.0106789 0.0941632 -0.0424718 0.104778 0.0469167 -0.0290844 -0.00181806 -0.0326146 -0.0260987 0.0255769 -0.0887794 -0.0963246 0.00913874 -0.017874 -0.0611058 0.0452608 -0.0252967 -0.0462634 0.0400142 0.0234937 -0.112298 -0.0237233 -0.00869771 0.0699625 -0.0334643 0.0140439 0.0463001 -0.00492261 -0.0290986 0.000585181 -0.035033 0.0361103 -0.10809 0.00422176 -0.0544048 -0.0534948 -0.0193931 -0.0292319 0.00622075 0.0179322 -0.0275238 0.00537497 0.0594334 0.0329099 -0.0199919 0.00100089 0.0414898 0.0541073 0.0243843
/FACILITY/BUILDING 0.015401 -0.00482658 -0.0244125 0.0167082 -0.00735344 0.0559207 0.02282 -0.0356549 0.00490427 0.0100792 0.0186157 0.00724273 -0.0531376 -0.0167198 0.00473209 -0.00496199 0.0100888 0.00740336 0.0115034 -0.00315951 0.0314184 0.0403071 0.0214214 -0.00150832 -0.00512687 0.0306225 -0.032176 0.0101659 -0.0392639 -0.0182117 0.0156016 -0.0101244 -0.0153687 -0.0166219 -0.0516023 -0.0282473 -0.0207166 -0.0224625 0.0097129 0.0451943 -0.00670539 0.00616301 -0.00328528 0.029572 -0.011249 -0.0203121 0.00946087 0.0129923 -0.0432081 0.0200032 0.0197899 -0.00203662 -0.0149214 0.0459264 0.0361066 -0.0051837 0.066099 -0.00211361 -0.0587853 0.0341693 0.00561494 0.0223423 0.0217843 0.0244466 0.0323307 0.00499401 0.038947 0.0358628 -0.0232957 -0.00862376 0.0354487 0.0156669 0.0110848 0.00266433 -0.00173562 0.0139737 -0.00585889 -0.0123231 -0.0158472 0.00982618 0.0231225 -0.0107745 0.014811 0.0242218 0.0108203 -0.0149342 0.0387229 -0.00260323 0.0251715 -0.0218396 -0.00796795 -0.00135756 0.0085426 0.0495857 -0.0258988 -0.0503855 -0.0176163 0.0293077 0.0836162 -0.0518967 0.0190228 -0.0232183 0.00133448 0.0323947 0.0151 -0.0196333 -0.0306872 0.00477609 0.00750148 0.0113813 -0.0275283 -0.0259663 -0.0105932 -0.0203038 -0.0190079 -0.028451 0.012108 0.0276206 0.0120971 0.0179584 0.0419508 -0.00042932 0.0100106 0.05094 -0.0500243 -0.018238 0.0291444 0.0241218 -0.011394 -0.00718238 -0.0667052 -0.0301429 0.012905 -0.0018047 0.0132339 0.0220815 0.00192382 -0.00585377 0.0116164 -0.0265573 0.00445277 0.00245152 -0.0169658 0.0425588 0.0115479 -0.0143141 0.008962 0.0132066 0.053415 0.0664744 0.0341787 0.033297 -0.00202881 -0.0228298 0.0101783 -0.016831 -0.0397069 -0.0165431 -0.0311792 -0.0531178 0.00171864 -0.0373273 -0.0317042 -0.0113919 -0.0312039 0.0330128 -0.00999417 0.0129868 -0.00738368 -0.0271739 -0.0191224 -0.00623249 -0.0057945 0.0356906 -0.00487861 -0.0254497 0.0254423 0.0342133 -0.0180228 -0.0184077 -0.0161785 -0.0329471 -0.0764406 0.00899448 -0.0472726 0.0276725 0.00434658 0.0391059 0.0157578 0.0247567 0.0125373 0.00897869 0.0553317 -0.0571138 -0.0111712 -0.0354402 0.00690108 0.0230046 -0.00865339 0.00386832 -0.0157638 0.0131839 0.0135113 0.0048734 -0.0488868 -0.00846154 -0.00120898 -0.0652103 -0.00413036 -0.00383174 -0.00213744 0.0405288 -0.0192273 -0.0322872 0.0662812 0.0303662 0.0398402 0.0673185 0.00110328 -0.0510764 0.0366503 0.00939063 0.0565687 0.0524838 0.0133379 -0.022908 -0.0127807 -0.0274391 0.0210718 -0.000501532 0.0228056 -0.0374361 0.00643505 0.0328838 0.038002 0.0185252 0.029448 0.0026137 0.063534 0.00154385 0.0310572 0.00155407 3.98767e-05 0.00167214 -0.0168982 0.0153688 -0.0139259 0.0484904 -0.0112057 -0.0661699 0.0171785 0.0614185 0.072643 -0.0164405 0.0403657 0.0699596 0.00616969 -0.0181799 -0.0215451 0.00458948 0.030608 -0.0454976 -0.0268036 0.0377388 -0.00917037 -0.0772911 0.025599 -0.0458697 -0.000771534 0.0133258 0.0175394 -0.0290368 -0.0172646 0.00917271 0.0461058 0.0090889 0.0247456 0.0321775 -0.00948009 -0.043695 0.0127689 -0.00511126 0.0123491 -0.0755396 -0.00860535 -0.0560738 -0.072119 -0.00564473 -0.0355994 -0.0031089 -0.0229538 0.00019336 -0.0178499 0.0324494 0.0016192 0.00950614 -0.00753467 0.0230729 0.00738061 0.0131006
/PRODUCT/WEAPON -0.00418964 -0.0149337 -0.0227661 0.0440594 0.0318708 0.044134 0.0321968 0.00277041 -0.0133807 0.0301459 0.0187933 0.0122363 -0.0102608 -0.00662866 -0.000191098 -0.000110059 0.0346807 0.0090153 0.0669473 -0.0201999 -0.000597329 -0.0346071 -0.0123109 0.0402637 0.00642781 0.00592251 -0.0139361 0.0101475 -0.0121185 -0.0132065 0.0393241 -0.0185098 0.00805453 -0.00258832 -0.00744913 0.0270314 -0.0337475 0.0196109 0.00172388 -0.016062 -0.0166094 -0.0232404 0.0563932 0.0379906 -0.0310497 -0.00843743 -0.00960522 0.0667714 -0.081456 -0.0218266 0.00193156 -0.0153699 0.00675039 0.0625644 0.0134151 0.00472032 0.0771197 0.0164192 -0.0626809 0.0407946 -0.0102331 -0.0502089 -0.0105892 -0.0323348 -0.00654338 -0.00185682 0.00864622 0.0225936 0.0110499 0.0196343 -0.00441884 0.0364446 -0.0166137 -0.0180272 0.0266042 -0.0174137 0.0184193 -0.0113098 -0.00501923 -0.0148295 -0.0101608 0.0255323 0.00438048 0.0403931 -0.00190811 -0.0434218 0.00327428 0.0171004 0.00570357 0.0108159 0.0244895 -0.00300383 0.00183687 0.0283837 0.00972009 -0.0598333 0.00539552 -0.0136072 0.025045 -0.00899254 0.0146545 0.021834 0.0568687 -0.0012294 0.0416619 -0.0312167 -0.0187568 -0.0370381 0.0466838 0.0550617 -0.02064 -0.0485981 0.0202754 0.0289079 -0.0489711 -0.0276452 0.00324003 0.00934211 0.0105673 0.0235544 -0.00730437 -0.00376255 -0.0216243 0.0208839 -0.0816393 -0.0352424 0.0544283 -0.0331647 0.00106802 0.00564598 -0.0445313 -0.004752 -0.0225018 -0.030113 0.01111 0.0277637 0.0218446 -0.00209673 -0.04131 -0.0287933 0.00130029 -0.00909758 -0.006565 0.0489333 -0.00833194 -0.00363377 -0.00789178 -0.0315681 0.0239267 0.0339834 0.019532 -0.0218877 -0.0057385 0.0166888 0.0538815 0.0181126 -0.0495044 -0.0152678 -0.0354476 -0.0901939 0.0185658 -0.0344752 -0.0371662 -0.00795008 -0.0184261 -0.0298712 0.0123717 0.0378221 0.0141405 -0.0422408 -0.0233133 0.0226549 0.0350647 0.0781062 -0.00105738 -0.0342241 0.0512194 0.0324673 -0.0273465 -0.00744389 -0.0604676 -0.0231622 -0.0856397 -0.0146202 -0.0264737 0.0148134 -0.00504377 -0.0119848 0.0153713 0.0696771 0.0119313 -0.0122302 0.0294298 -0.0245703 0.0246247 -0.0259716 0.0165461 0.00766562 -0.0605942 -0.0374078 -0.0117702 0.0112795 -0.0167377 0.0305577 -0.0478175 0.00174669 -0.0253647 -0.0340093 -0.00936963 -0.00288113 -0.0222372 -0.011206 0.0264543 -0.0502857 0.0713075 0.0364337 0.0153536 0.0622695 -0.0315099 -0.0863451 0.0108499 -0.00434852 0.0774731 0.0384483 0.0110752 0.00505945 0.0151071 0.000868433 -0.0166872 0.00599561 0.00703753 -0.00161314 0.00736689 0.0125583 0.0519585 0.0229748 0.0152477 0.0209365 0.0979149 0.0205888 -0.00671588 0.0138913 -0.0110054 0.0186902 -0.0409201 0.026309 -0.0127889 0.0305531 -0.0279292 -0.0758938 0.0228851 0.0019825 0.0188242 -0.00874657 0.0652444 0.0480963 0.0225087 -0.0324642 -0.0207655 0.00502036 0.0463468 0.00498234 0.00745447 -0.00750353 -0.0450849 -0.0475435 0.00777879 -0.00119551 -0.0256502 0.00301779 0.0228848 -0.0215081 -0.016833 0.0217231 0.0259249 0.00307965 0.00951899 0.0283143 -0.00526094 0.012837 -0.0162657 -0.0122119 0.0255609 -0.0245938 0.0156099 -0.0599895 -0.0344134 0.0039478 -0.00467575 0.0122141 -0.0225146 -0.00765208 -0.0155973 0.0119481 0.00177005 -0.0139755 0.00643042 0.0172848 0.0201458 0.0303508
/ORGANIZATION/HOSPITAL 0.0162914 -0.0172353 -0.0451538 0.0441756 0.0167152 0.0417836 0.0183068 -0.015104 -0.0207533 0.0124065 0.0105032 0.00487511 -0.0500393 -0.0366054 0.00886738 0.0260817 0.0292386 -0.023658 0.0227723 0.00112195 0.0447763 0.0358808 -0.00100566 0.0246923 -0.0257501 0.0173822 -0.0321312 0.0167339 -0.0278092 0.0131425 0.0059685 -0.0103628 -0.00513095 -0.0109773 -0.0214097 -0.0246525 -0.00346138 -0.0135335 0.00262629 0.00302144 -0.00898361 -0.0149964 4.8808e-05 0.0213409 -0.0171032 -0.00968897 0.0103105 -0.00365476 -0.0390567 0.00421658 0.0165358 -0.0145844 0.00855817 0.048636 0.0259971 -0.0144724 0.0674111 0.000730789 -0.0421977 0.00677224 -0.0203761 -0.00291497 0.0115475 0.00214915 0.0115643 -0.00640907 0.0233081 0.0240406 0.0091499 0.022037 0.0219436 0.017517 0.00402798 -0.00492514 0.00190025 -0.00985595 0.0111154 -0.00135994 -0.00319756 -0.0196857 -0.020381 -0.0010691 0.00998044 0.0277318 -0.00724128 0.00856211 0.00626576 -0.000608405 4.76964e-05 -0.00388048 -0.00692092 -0.00054593 0.00341436 0.0333835 -0.0113052 -0.0385149 -0.0150781 0.0226921 0.0707413 -0.0432948 0.0373753 -0.0331438 -0.00555649 0.0138719 0.00477807 -0.023753 -0.0363626 -0.00519568 -0.00109611 0.0124456 -0.0246216 -0.0204764 0.00636607 -0.0108159 -0.00376144 -0.025213 0.00682627 0.0363442 -0.0151085 0.0256281 0.0326386 -0.000735244 0.0261408 0.0337654 -0.0448404 -0.0146145 0.0360008 0.0161828 -0.0297477 -0.00421949 -0.0506386 -0.018373 0.0164985 -0.0145072 0.000502901 0.0130438 0.0109041 -0.00137478 -0.00932608 -0.0181383 0.000762768 0.00624422 -0.0160322 0.0663295 -0.0259389 -0.00280851 -0.00552923 0.0074582 0.0208412 0.0535459 0.0212432 -0.0135886 -0.000369239 -0.0125999 -0.000277532 -0.0104049 -0.0190291 -0.00253262 -0.0382507 -0.0316878 0.0127137 -0.0284213 -0.048299 0.0135811 -0.0208319 0.0153847 0.0285443 0.00856598 0.00315319 -0.0131789 -0.0169413 0.00769757 0.0179102 0.0516921 -0.0185075 -0.021123 0.00226031 0.0263925 -0.0254548 -0.00261258 0.00184322 -0.0264912 -0.0859798 0.0106121 -0.0585134 0.0210267 0.00476632 0.042365 0.0121813 0.0287289 0.00126357 0.0141723 0.00896854 -0.024526 -0.016998 -0.0137523 0.0190402 0.0105604 -0.0171175 -0.00935833 -0.0134826 0.0221307 0.0171057 0.0206267 -0.0624038 -0.00413307 0.0110073 -0.0349168 0.0134081 -0.0065662 -0.016411 0.0388188 -0.0305791 -0.0308403 0.0540222 0.0466898 0.0234661 0.0422909 -0.011707 -0.0385411 0.0277219 0.00774199 0.0551883 0.0487683 0.00897107 -0.00498149 -0.00721787 -0.0417449 -0.00636325 0.0108904 0.0103737 -0.0276866 -0.00476379 0.0416182 0.0456415 0.0237974 0.0350672 0.0094347 0.0607937 -0.00407198 0.00728769 0.0122785 0.000244483 -0.00363717 -0.0221049 0.00650534 -0.00227278 0.0381788 -0.0236737 -0.0472752 0.0447669 0.0543445 0.0609246 -0.0266573 0.0463266 0.0501649 0.0112277 0.00131462 -0.00514715 0.00120137 0.0340073 -0.040666 -0.0122351 0.0227355 -0.0264706 -0.0603124 0.0324957 -0.0292993 -0.0148414 -0.00429944 0.0398733 -0.027716 -0.00146732 0.0147904 0.0371568 0.0179496 0.0356316 0.0398599 0.00816529 -0.0239028 -0.000156682 -0.0235621 0.0226906 -0.0818686 0.00112644 -0.0596269 -0.0483806 -0.0122005 -0.00571205 -0.0128131 -0.0157471 0.0304308 -0.0156773 0.0333607 0.0123793 -0.0131635 -0.00822882 0.0525153 0.00176486 0.0141267
/PRODUCT 0.0186331 -0.0136832 -0.0344836 0.0288257 0.0634466 0.041599 0.0203275 -0.0205473 -0.0305273 0.0140563 0.0134814 0.0282795 -0.0443927 -0.00857508 0.0078136 -0.00412883 0.0540591 -0.0153205 0.0634169 0.00360013 0.0164525 0.0433827 0.0135228 0.0512394 -0.000709736 0.0240769 -0.0318259 0.0335748 -0.00451149 -0.000562462 0.0336981 -0.0169365 0.0323094 -0.0118751 -0.00972148 0.0105069 -0.0270909 -0.0148879 0.00667635 -0.0409785 0.0230456 -0.00138342 0.00923383 -0.0155103 -0.0355232 -0.00858287 0.0187303 0.00656875 -0.072337 -0.0064991 0.027049 -0.0235973 0.0355823 0.0700271 0.0332649 -0.00942393 0.0579242 0.0100796 -0.0432202 0.0330959 -0.00396842 -0.0170035 -0.00269928 -0.0155889 -0.000193893 0.0180709 0.0441503 0.0175414 -0.00776126 -0.018311 0.00215441 -0.00618783 -0.0123784 -0.0255864 -0.00744217 -0.0132342 0.00795897 0.0203993 -0.0258351 0.00537019 -0.0159353 -0.000206077 0.0081568 0.0432116 -0.00847651 -0.00490916 0.016755 -0.0138984 -0.0299252 0.0242216 0.0269524 -0.0162464 -0.0107573 0.00823843 -0.00187527 -0.00766307 -0.0116992 0.0146754 -0.00299445 -0.0208714 0.0231855 -0.00995147 0.0179892 0.00630806 0.0538209 -0.0270191 0.0271644 -0.0205847 0.0361109 0.00922855 -0.032557 -0.00723866 0.0272387 -0.0059225 -0.0571335 -0.0100679 0.0105632 0.0535909 0.00454425 0.0498119 0.0561105 0.0334727 0.0274583 0.00843132 -0.0767952 -0.0251809 0.0339036 0.00370249 -0.0385153 -0.0140127 -0.0288726 0.0187882 0.0284013 -0.0471422 0.00495115 0.0228822 0.0193982 0.0342699 -0.000265528 -0.0467437 -0.0214981 -0.0200548 -0.0114261 0.0681306 -0.0329713 -0.00892141 0.00758918 -0.030429 0.0357837 0.0271294 0.0134317 -0.00379735 0.0126849 0.0100099 0.0128975 0.026414 -0.058529 0.0103875 -0.0452388 -0.0885849 -0.0031602 -0.0174945 -0.0368755 0.0116871 -0.00661135 -0.00619192 -0.00787476 0.0102335 0.0162486 0.0103245 -0.00867217 0.00261539 0.0388708 0.0204782 0.0115848 -0.0143397 0.0234654 0.0171524 -0.0166343 0.00656101 -0.0448843 -0.0381459 -0.0692376 -0.0347782 -0.0135122 0.0127591 -0.00617599 0.0184001 0.00512191 0.0216107 0.0205196 -0.0385848 0.0172104 -0.00324076 0.0288065 -0.016684 -0.000907294 0.0216692 -0.0523267 -0.0091783 -0.0114859 0.0610731 0.00636302 -0.0206658 -0.055198 0.020236 0.0108715 -0.0539812 0.0258844 -0.00976251 -0.0358938 0.0356756 0.0178553 -0.0278818 0.0686358 0.0406847 0.0112946 0.0200704 -0.0109205 -0.0777131 0.0275987 0.00585858 0.0318985 0.0222547 0.00556963 -0.0201175 0.0157498 -0.0492851 -0.0134628 7.79119e-05 0.0162113 0.00312469 0.0161876 0.0183629 0.0456281 0.0142027 -0.00692691 0.0064919 0.100753 -0.00508849 -0.00286981 0.000445477 0.0127493 0.0233505 -0.0326429 0.0163026 0.00652982 0.050584 -0.0330773 -0.0804531 0.0309924 -0.00202219 0.0594726 -0.0576197 0.0292279 0.0209404 0.0271025 -0.0196243 -0.0178244 0.00237276 0.0233253 -0.0198789 -0.00180937 0.0134914 0.00165286 -0.0446569 0.0175164 -0.0328645 0.0182772 -0.00356154 0.0305262 -0.0486163 -0.0145183 0.0126251 0.0726944 0.0319168 0.00453933 0.0229764 -0.00990298 -0.0303514 -0.0233248 0.00496395 0.0284046 -0.0715013 0.0126257 -0.0146193 0.0185403 -0.00863156 0.00529376 0.0164955 -0.00943705 -0.0005248 -0.0394958 0.0577907 0.0204471 -0.0277073 -0.0167553 0.0712135 0.0198753 8.69978e-05
/FACILITY/HIGHWAY_STREET 0.0280042 -0.00286947 -0.0423324 -0.0191894 0.0511185 0.0393126 0.00709098 -0.0159421 0.0265288 0.0156089 -0.0130497 0.0305004 -0.0420584 -0.0134465 0.00523013 0.00511318 -0.0019236 -0.0164461 0.0045232 0.00075928 -0.00686166 0.00879991 0.0162181 -0.00242838 -0.0105479 0.0393317 -0.0344491 -0.0120847 -0.0390397 -0.000339829 0.0246991 -0.00802024 0.0198286 -0.025127 -0.0626948 -0.0280138 -0.028987 -0.00491733 -0.0216234 0.0167534 0.00426524 -0.00653537 0.0226625 0.0521975 -0.0478972 -0.0181133 0.0206876 0.0149976 -0.0313738 -0.00633902 0.00694606 -0.0042926 -0.0196669 0.0430325 0.00749211 -0.0070509 0.0322786 -0.0340934 -0.0298697 0.00419185 -0.0108374 0.0191003 0.00666047 0.0182831 0.0100638 -0.0173831 0.023034 0.00389013 0.00720166 0.0325596 0.0258379 0.00748273 -0.0127278 0.0025633 0.00472238 -0.020377 -0.00913203 -0.0354769 -0.0202563 -0.022515 0.000681514 0.00518929 0.0233578 -0.00409164 -0.0268929 -0.000120535 0.0184212 -0.0292866 0.0158051 0.000267285 -0.0217727 -0.0061366 -0.0117256 0.0121889 0.00192496 -0.0156957 -0.00591 0.0233225 0.0725375 -0.0551865 -0.00791959 0.00854347 0.00690828 -0.00561462 0.0192646 -0.0487711 -0.0033497 0.00075404 0.0181045 -0.0120604 0.000906375 -0.0241386 0.010194 0.0124077 -0.0400739 -0.0373579 0.0160237 0.055546 -0.0181238 0.0234104 0.0558149 0.0251815 0.0171773 0.0545757 -0.04445 -0.0144743 0.028235 -0.00126596 -0.0465798 -0.0019262 -0.0588606 -0.0382247 0.0156661 -0.0153807 -0.00546276 0.0243471 0.0190177 0.00786171 -0.0275769 -0.0198936 0.00326013 -0.0100556 -0.0301403 0.0463239 -0.0122418 0.01866 0.00858423 -0.0177994 0.0421691 0.0217248 0.060152 0.00177768 0.0132882 -0.00458318 0.00710094 0.00494092 -0.0422341 0.0014555 -0.0506827 -0.0623323 -0.00701952 -0.0694135 -0.0568819 0.0279388 -0.028237 -0.0120596 0.00255575 0.00805036 0.00641531 -0.00164301 -0.0182386 -0.00785987 -0.0189958 0.0352689 -0.019814 -0.0122393 0.0234245 0.042921 -0.0221946 -0.0128738 -0.0085749 -0.0400598 -0.102533 0.0427431 -0.0549492 0.0382823 -0.0214586 0.065599 0.0260875 0.0322499 0.0028371 -0.0221921 0.0497509 -0.0412702 -0.0164565 -0.0179681 -0.00966663 0.0487057 -0.033444 -0.0264087 -0.00706441 0.0134398 0.0144556 0.00640825 -0.0333673 0.0376948 -0.00775938 0.011937 -0.00274569 -0.0164185 -0.0303562 0.035135 -0.00251247 -0.0251482 0.0559065 0.0237425 0.0292142 0.00874188 -0.00209706 -0.059826 0.0239989 0.0132608 0.0664146 0.0467058 0.0292474 -0.0424768 -0.0198307 -0.0333746 -0.0172353 -0.0269529 -0.00454977 -0.0109811 0.0238005 0.00116506 0.0466513 0.004507 0.0402667 -0.0053777 0.0460315 -0.00780064 0.0493109 0.0385359 -0.00617797 -0.0330791 -0.0140887 0.0420306 -0.00303501 0.0230232 -0.00271513 -0.0709647 0.0182892 0.0262027 0.0350569 -0.0191632 0.0578066 0.0401578 0.0160736 0.0094584 -0.031823 0.000210196 0.0448805 -0.0458818 -0.0544396 0.0407405 -0.0186975 -0.0373588 0.0393793 -0.0329409 -0.0230956 -0.013117 0.00629224 -0.0115943 0.00405896 -0.0160212 0.043236 0.00107303 0.0224307 0.0272003 -0.0160835 -0.0472414 0.025486 0.000176606 0.0128346 -0.0653556 0.0245019 -0.0262947 -0.0457719 -0.00744656 -0.00419502 0.00896786 -0.0203445 0.0161243 -0.0489256 0.0301879 0.0152012 -0.00953983 0.00684074 0.0321945 -0.00955815 0.0191656
/DISEASE 0.0110009 0.00782551 -0.0570953 0.0431784 0.0502196 0.016884 0.0669206 0.0113663 -0.023236 0.0275835 0.00458991 -0.00562699 -0.0453947 -0.0343605 0.0120916 0.0431516 0.0173513 -0.0413822 0.0523591 -0.0167339 0.0360609 0.0369686 -0.0211617 0.0805728 0.0038556 0.0307372 -0.0412046 0.0432731 -0.0642271 -0.00494882 0.0216644 -0.0150657 -0.00620432 -0.0310079 -0.0364633 -0.0241788 -0.0537532 -0.0624427 -0.000200652 0.00340165 -0.0236247 -0.0130004 0.0122616 0.023404 -0.0082722 0.012998 0.0153846 0.00205907 0.00636963 -0.00352254 -0.00251462 -0.0176593 -0.0157279 0.035615 0.04196 -0.0141064 0.0767705 0.00578608 -0.0558688 0.0218106 -0.000968161 -0.0247084 -0.00376442 0.0206101 0.02144 -0.0178562 0.0113715 0.00598403 0.0309823 0.0480509 -0.0100856 0.0730927 -0.0303583 -0.0371366 0.0154014 -0.0154339 0.025267 -0.00193551 -0.0125507 -0.0124295 -0.0107145 0.0481101 -0.00189711 0.0319028 0.00426659 -0.00010099 0.00229659 -0.0375454 -0.0507765 0.0256734 0.00191183 -0.0254448 0.0037739 0.0368452 0.0411023 -0.00367671 0.0131793 -0.00508973 0.0226483 -0.0457638 0.0456552 -0.0287066 0.00388188 0.00184731 0.066821 -0.06106 -0.0165447 -0.0379677 0.0212796 0.0277715 -0.0373544 0.00382442 0.00195441 -0.0205574 -0.0415639 -0.042578 -0.0026219 0.0225677 0.00394287 0.00392071 0.0184887 -0.0100912 0.00686352 -0.0126578 -0.0242686 -0.0272508 0.00992457 0.020079 -0.0204757 0.0308688 -0.0372665 -0.0027037 0.00280683 -0.0194383 0.0330422 0.0214614 0.0217592 -0.00432258 -0.0231594 -0.0440281 -0.0100851 0.0046467 -0.015195 0.0588173 0.0179553 0.00953974 0.0160796 0.00559544 0.0113701 0.0167621 0.032642 -0.0125215 0.0221266 -0.0102205 -0.00218363 0.0162604 -0.021159 0.00980306 0.0105454 -0.0221538 0.00148732 0.0107098 0.00327593 0.0284886 -0.0125345 0.00256712 0.011388 0.0413268 -0.0300359 0.00615213 -0.0230428 0.0486386 0.00930187 0.0440201 -0.00318571 -0.0569665 -0.00597588 0.0416489 -0.0367043 0.00142565 -0.0260627 -0.0470404 -0.0648063 0.0109466 -0.0216248 0.0275207 0.00296651 0.0376981 -0.00946613 -0.00725537 0.0253053 0.0219664 -0.0151156 -0.00301728 0.00198535 -0.011102 0.0372244 0.0489183 -0.0618402 -0.0142115 -0.0409394 0.0367207 0.0219817 -0.00835697 -0.0609598 0.024992 0.00656272 -0.0227901 -0.00887049 0.00133002 -0.00330136 -0.00539287 -0.0159283 -0.0351073 0.0321169 0.041058 0.0182076 0.052962 -0.00569669 -0.0427079 0.0391867 0.0153425 0.0755835 0.0319077 -0.0199437 0.00179052 0.0200751 -0.0262333 -0.0160901 0.0100188 -0.0207534 -0.0294761 -0.0127403 0.0643088 0.0505177 0.0271665 0.0289425 0.00607804 0.0907439 0.0128346 -0.0374421 -0.0112657 0.000951313 -0.0111201 -0.0306497 0.0195966 0.0111091 -0.0174274 -0.00950071 -0.0493825 0.0107485 0.0119552 0.0436216 -0.0148347 0.0378813 0.0389151 0.0318581 -0.0476919 0.00908489 0.0481117 0.0135361 0.000573637 0.00253544 -0.0134198 -0.0364729 -0.0195272 0.00338605 -0.0159644 0.0311458 0.00637751 0.0115237 -0.00930805 0.0115706 0.02548 0.0506735 0.0356616 -0.0154513 -0.00528827 0.00711135 0.00451413 -0.00367907 0.0328751 -0.0151448 -0.0702592 0.0130573 -0.0306742 -0.0104064 -0.00975052 -0.00876502 -0.0114971 -0.0406128 0.0015282 -0.00652191 0.0296492 0.00147978 -0.0554201 -0.0255089 0.0446995 0.00483836 0.0427213
/EVENT/HURRICANE 0.0176153 -0.0146534 -0.0375139 0.0205435 0.0397501 0.0444632 0.00327659 -0.00732488 -0.0129738 -5.35857e-05 0.0167499 -0.00656636 -0.0550325 -0.021393 0.00695619 0.0265093 0.0523016 -0.0475543 0.0475256 -0.0180853 0.0190219 0.0256315 0.000740136 0.0380658 -0.0137156 0.00197536 -0.0255749 0.0137425 -0.024773 -0.00667764 0.0131885 -0.00061997 0.00787013 -0.0156062 -0.0378226 -0.0161413 -0.0109691 -0.00916599 -0.00637499 0.0122336 -0.000231054 0.000711632 0.0170804 0.0162983 -0.00638801 0.00104416 0.0230492 0.0100355 -0.0405742 -0.00448706 0.0123671 -0.0173154 0.0152564 0.064199 0.020428 -0.00988153 0.0536564 0.00526027 -0.0291796 0.000853981 -0.0108258 0.0133288 -0.00358396 0.0165277 0.00403306 0.00966352 0.0194899 -0.0185179 -0.00252214 0.0161776 0.0130885 -0.00212832 -0.0220157 -0.00493232 0.00979729 -0.0182304 0.0198591 -0.00168186 -0.0119412 -0.0164998 -0.0157385 0.0129955 0.0103136 0.019556 -0.00839603 0.041779 0.00752044 0.00286304 -0.0189241 0.00677455 0.00662121 8.95883e-05 -0.00901345 0.0231883 0.00640154 -0.0247967 -0.0189802 0.0120841 0.0500969 -0.0333454 0.0287613 -0.0246621 0.00672418 0.00892397 0.00863573 -0.0214902 -0.0168207 -0.0253641 0.00167984 0.00880165 -0.0300291 -0.0148131 0.00686214 0.00126844 -0.00444202 -0.0144772 0.00142088 0.0511014 0.0067388 0.0164684 0.0270132 0.00894426 0.00435144 0.0292377 -0.0690554 -0.0243877 0.0507292 -0.00234404 -0.0238221 -0.0231 -0.04474 -0.00079638 0.0266371 -0.0128586 0.0133268 0.0206986 0.0161148 -0.00374096 0.00259099 -0.00948037 -0.00710428 -0.0118788 -0.0216442 0.0739641 -0.023335 0.00297631 -0.0147401 -0.00982867 0.0256186 0.0493768 0.0239349 0.0024712 0.00643848 -0.0128035 0.00435387 0.00140322 -0.0261183 0.00941191 -0.0220093 -0.0606034 0.00408219 -0.0326694 -0.0436016 0.0112591 1.0599e-05 -0.00347387 0.0254013 0.00284702 -0.000869733 -0.0187648 -0.0146357 0.00943673 0.0219421 0.0467447 0.011903 -0.0312367 0.0134934 0.0172441 -0.0270107 -0.00704858 -0.00907438 -0.0322062 -0.0778347 0.0128987 -0.054857 0.0398902 0.00623017 0.0493905 0.0167282 0.0469216 -0.00836445 -0.00235683 0.0178569 -0.0139824 -0.0163551 0.00228511 0.0145181 0.0271692 -0.0335816 -0.0120955 -0.0174984 0.0362009 0.0287183 0.0127113 -0.0568931 -0.00213221 0.00409354 -0.0383282 0.0127298 -0.000667526 -0.00994703 0.0248783 -0.0256044 -0.0373239 0.0534774 0.056607 0.0203141 0.0247719 -0.0215246 -0.0536673 0.0158494 0.010136 0.0706872 0.0364179 0.0213406 -0.00266919 0.0129788 -0.0512147 -0.0177759 0.00289258 0.00884543 0.00206218 0.00809657 0.0476337 0.0506975 0.0172716 0.03044 0.0106169 0.0632191 -0.0116572 -0.00489596 0.0155108 0.00311809 0.00357438 -0.00978011 0.0180145 -0.0203561 0.0215868 -0.0417102 -0.0590644 0.0417062 0.0384341 0.0490205 -0.0198145 0.0781964 0.0348848 0.0067725 -0.0133405 -0.0118129 0.000488786 0.0361062 -0.0250167 -0.0215439 0.0153097 -0.0224973 -0.0377732 0.0261554 -0.0280361 -0.0155524 0.00619419 0.0197356 -0.0317557 0.00784186 0.012203 0.0122673 0.00654063 0.0219788 0.0431259 -0.0131503 -0.0180845 -0.00282764 -0.0151085 0.0321083 -0.0622036 -0.00446809 -0.0200979 -0.0227155 -0.00557553 -0.00619574 -0.00619037 -0.0199322 0.00818066 -0.0226084 0.0419603 0.0208541 -0.0176465 0.00062997 0.047804 -0.00281889 0.000837861
/LAW -0.0342178 -0.0682092 -0.036335 -0.00549235 -0.0101821 -0.0301846 0.0116592 0.0315543 0.00960733 0.0204996 0.00711852 0.0109328 -0.0642607 -0.04168 0.0362798 0.00481287 0.0228207 -0.0453874 0.0318079 0.0345708 0.010385 0.0307419 0.0323912 0.0691075 0.000127772 0.0245857 0.0302925 0.00228966 -0.0282657 0.0159687 0.000371972 0.00876165 -0.012843 -0.00869938 -0.0633899 -0.0161819 -0.0592209 -0.0311501 0.00483743 0.056499 -0.0494387 -0.0113986 -0.00195367 0.0352944 -0.066071 -0.0449021 0.0393109 0.0215877 -0.067705 -0.0199829 -0.000732841 -0.00461453 0.0201879 0.0444726 0.0394492 0.0163522 0.0667893 0.0117762 -0.0234252 -0.0155598 -0.0138195 -0.00837796 -0.0132257 -0.0594589 0.0516426 0.0140352 -0.0317055 0.0166201 -0.00802379 0.0166366 0.0288954 0.0665789 -0.058022 -0.0613343 0.0244976 0.00395406 0.0193632 -0.043989 -0.0134774 0.0485451 0.0119032 0.0653577 -0.0170142 -0.00166918 -0.0096705 0.0771027 0.00096516 -0.0359775 -0.0301358 0.00818873 -0.0038452 -0.00217275 -0.00885698 0.0299692 0.00401505 -0.0547524 -0.0186193 -0.0240078 0.0566379 -0.00416585 0.0235941 -0.00676278 0.0285596 0.0111076 -0.0140612 0.00921632 -0.00430549 0.00396172 -0.00690922 0.0208471 0.0097739 0.0155701 0.0342701 0.00351697 -0.0250616 -0.0333373 0.0212068 0.0733332 0.00825556 -0.00634488 0.100302 0.0358583 -0.000954431 0.000433985 -0.00910848 -0.0135197 0.0268653 0.0285818 -0.0141586 -0.0142641 -0.0299906 -0.0230026 0.000223066 0.0086349 -0.0091049 0.0186229 0.0374566 0.0259207 -0.00755664 -0.0448769 0.0123184 -0.0102618 -0.0253176 0.0523726 0.00470514 -0.0206866 -0.0294259 -0.0421371 0.0543295 -0.000201467 0.0201703 -0.0103696 0.0184782 -0.0107285 0.00372982 -0.0673993 -0.0269382 -0.00822143 -0.0333458 -0.0408698 0.0111378 0.00299369 0.0142992 -0.0104618 0.00557364 0.0254003 0.00931243 -0.000933892 0.00412749 -0.0510314 -0.00802156 0.0159465 -0.00647564 -0.000733332 -0.0329601 -0.0315055 -0.00611464 0.00144789 0.0352277 -0.0223635 -0.0429562 0.0011752 -0.0687792 0.0570267 -0.0430139 0.0474025 0.00712227 0.035785 0.00279824 0.0100899 -0.0174823 -0.0376445 0.0192769 -0.0315224 -0.0322646 -0.00592253 0.0201598 0.0218554 -0.00652543 -0.048088 0.031951 0.0385113 -0.0377002 0.00738794 -0.0184223 0.0415911 0.0136302 -0.0185201 0.0022672 -0.0165924 0.000332038 0.0265471 -0.0170245 -0.0383502 -0.00286438 0.034438 -0.00527519 0.0467201 -0.0119031 -0.0467264 -0.0230787 0.0212376 0.0241579 0.0184911 0.0281684 -0.0580762 -0.0158354 -0.0367187 -0.0253709 -0.0064117 0.0456819 -0.0384324 0.012017 0.0596064 0.0147881 0.021782 0.0181306 -0.00380267 0.0489648 0.0424149 -0.0197012 -0.018044 -0.014716 0.0037502 0.00975891 0.013058 0.00115326 0.00236684 -0.0110936 -0.065303 0.0307656 0.0530864 0.0953934 0.0112679 0.0543428 0.074342 0.00325062 -0.0205929 0.0368165 0.00665531 0.0323766 -0.034787 -0.0276468 0.031203 -0.0590841 -0.0722456 0.0185508 0.00301932 -0.0169233 0.0214093 0.0313059 -0.0382384 0.0340712 -0.0215155 0.0336978 0.0359954 -0.0316231 0.0254495 -0.0212056 -0.00847953 -0.00899299 -0.0222029 0.0387926 -0.0484416 0.00737652 -0.0285812 -0.0264334 -0.0116202 -0.011326 0.016706 -0.0100069 0.0333594 -0.00499836 0.0355523 -0.000255179 -0.0245825 -0.0447608 0.0720627 0.053473 0.0312901
/LOCATION/RIVER 0.0494405 -0.0162182 -0.0388324 0.0128583 0.017422 0.0531813 0.0272287 -0.00437738 -0.00806932 0.028969 0.0348368 -0.0177819 -0.0328658 -0.015705 0.0119786 0.00383211 0.0324598 -0.0407491 0.0571366 -0.0248598 0.0434915 0.00589769 -0.00626277 -0.00403468 0.00338069 0.0278115 -0.0337034 0.0236764 -0.012357 -0.0204901 0.0233013 0.0283244 0.0311927 -0.00587285 -0.0458727 -0.02348 -0.00471459 -0.00401598 -0.0220283 -0.0150899 0.00722347 0.00899137 0.0418663 0.0338048 -0.0145375 0.0219701 -0.0257118 0.0148818 -0.0417449 0.0201498 -0.000974118 0.00306069 -0.0028237 0.0619675 0.0379619 -0.010937 0.0491346 0.000188449 -0.0195405 -0.00582326 0.00380582 0.0124056 -0.00893682 0.0220913 0.0283601 0.00447739 0.0388305 0.027073 -0.0118624 0.0203134 0.0109385 0.00936144 -0.0185434 -0.033032 0.00990177 -0.0131441 0.0105247 -0.0292116 -0.029641 -0.00365373 -0.0163607 -0.00889453 0.0238435 0.015812 -0.0131377 0.0100652 0.00462465 -0.00582956 0.00437784 -0.000776694 -0.00893251 0.0193764 -0.00337613 0.0271538 -1.47282e-05 -0.00319645 -0.0296942 0.00403428 0.0742357 -0.0691967 -0.022526 0.00914043 0.00355974 -0.00391759 -0.00676987 -0.0338495 -0.00692398 0.00180401 0.00335829 0.00497969 -0.00482339 0.0165923 -0.00725632 -0.00997642 0.00832518 -0.0060057 0.00123867 0.0392581 -0.0252607 0.00879417 -0.015904 0.0206549 0.0431173 0.0553618 -0.032977 -0.0452672 0.0609381 0.0192178 -0.0259175 -0.0265344 -0.0460077 -0.033308 0.0274734 -0.0399533 -0.00686525 0.00675691 -0.000778347 -0.00159833 0.0128038 -0.0269781 -0.00734531 0.0347035 -0.0237699 0.0436737 0.00203113 0.0229621 0.0114481 -0.0312131 0.012172 0.0307556 0.0381195 -0.0276845 -0.0213497 0.00846707 -0.00565726 -0.00407914 -0.0439079 0.0107804 -0.0528469 -0.0572998 -0.010157 -0.0159015 -0.0430343 0.0109669 0.00286922 0.00331424 0.0255387 0.0100971 0.00838034 -0.00553331 0.0103486 0.0294673 0.00455549 0.0328396 -0.00135948 0.000269944 0.00643081 0.0168435 -0.0226161 -0.00913482 -0.0144913 -0.0180166 -0.124988 0.0381793 -0.0499841 0.0491186 -0.0149066 0.0451305 0.0163261 0.0412619 -0.0114941 0.000912609 0.0405515 -0.0265882 -0.0304282 0.00892387 0.0105822 0.0490406 -0.0379835 -0.0157261 -0.0204495 0.0318095 0.0202572 0.0202527 -0.0310043 0.0230826 -0.0172221 -0.0211055 0.0226969 -0.0105038 -0.0347604 0.0569578 -0.00874323 -0.0274199 0.0540442 0.0585402 0.0153649 0.0104415 -0.0331301 -0.0744666 0.0155868 -0.0226735 0.0888534 0.041384 0.02536 -0.013327 -0.0127041 -0.0763388 -0.0162577 -0.0164 -0.000176646 -0.0283621 0.0381878 0.0858633 0.0577856 0.00152986 0.0522035 0.0109186 0.101168 -0.0105772 0.016696 0.0336801 -0.00285334 -0.0216093 -0.00329714 0.00225363 -0.0162093 0.0330846 -0.0117994 -0.0407175 0.0332809 0.00664112 0.0226257 -0.0245338 0.0804715 0.0351508 0.0309825 0.00123799 0.00360171 -0.00147324 0.0313081 -0.0128054 -0.0706785 0.0385835 0.00966367 -0.0526626 0.0276781 -0.0423757 -0.0499803 0.0295689 0.0216069 -0.0376244 0.0245583 -0.00893262 0.026805 -0.0122308 0.0330004 0.0644166 -0.00152177 -0.0309351 0.00961125 -0.0331016 0.0216826 -0.0657347 0.0210399 -0.0181461 -0.0325028 -0.0110268 0.00926609 -0.0304319 -0.04537 -0.000470321 -0.0167295 0.0272857 0.0101538 -0.0166964 -0.0198434 0.0296851 0.0352635 0.0320421
/CONTACT_INFO 0.00966929 -0.00930897 -0.0208986 0.0216327 0.0282307 0.0276237 0.00909831 -0.0171834 -0.0133315 0.000332635 0.0084881 -0.000417457 -0.0485894 -0.0186319 0.0172811 0.0185817 0.0332719 -0.0438968 0.02582 -0.00940212 0.0293773 0.0282633 -0.016323 0.0554036 -0.0106064 0.0126625 -0.0308195 0.0205491 -0.0277586 -0.000942985 0.0176252 -0.000412683 0.0130587 -0.014264 -0.0329399 -0.0340116 -0.0116147 -0.0151478 0.0052076 0.009838 -0.00872053 -0.0090699 0.0163218 0.0254055 -0.0173381 0.00788664 0.0184076 0.00214246 -0.0381935 0.000126108 0.00640591 -0.0167861 0.0212679 0.0651778 0.0159804 -0.0112171 0.0489938 0.00544407 -0.0284174 0.0174396 -0.00464605 -0.000986244 -0.00157174 -0.0171176 0.00133076 0.0161751 0.017047 0.00928103 0.00871001 0.0283425 0.0145095 0.0257794 -0.0201983 -0.0118461 0.0100302 -0.0105907 0.0121832 0.00047169 -0.0193075 -0.0126381 -0.0088715 0.0149066 -0.00869005 0.00798362 -0.0137135 0.0311604 0.0190481 -0.00871269 -0.0101002 0.00426427 0.0162494 0.00335908 -0.00384031 0.0153809 -0.000281119 -0.00812722 -0.00795827 0.0172573 0.0442214 -0.0330785 0.0230512 -0.0271031 0.0159803 0.015612 0.0233284 -0.014787 -0.00747236 -0.0229873 0.0204402 0.0190387 -0.0179647 -0.0109388 0.00317028 0.00659707 -0.0272333 -0.0153698 0.0217366 0.0533947 0.00357364 0.00720996 0.0464297 0.0257966 0.0210824 0.0186349 -0.0722264 -0.0116416 0.0344706 0.00529303 -0.0326099 -0.00855027 -0.04575 -0.0055562 0.0382043 -0.0226223 0.00211097 0.0130515 0.0306534 -0.00750639 -0.00440381 -0.0313814 0.00761352 -0.0160256 -0.00733882 0.0535889 -0.0189452 -0.00264654 -0.0130628 -0.00234387 0.0251955 0.0454556 0.045149 -0.0033307 0.0150677 0.00412431 0.0174992 0.00501865 -0.0260966 0.00516564 -0.0258789 -0.0521771 -0.00643866 -0.0196682 -0.0403712 0.0141434 -0.00391764 0.00621957 0.0158328 0.0149606 -0.00456892 -0.00879737 -0.00582672 0.00310727 0.021928 0.0400907 0.00786319 -0.0434872 0.0121653 0.0145251 -0.0222435 -0.0162297 -0.00727865 -0.0349097 -0.0800373 0.00898365 -0.0374324 0.0212899 -0.00127903 0.0461287 0.0276465 0.0459695 0.0122849 -0.0149551 0.0243128 -0.0310058 -0.00217334 -0.00281475 0.00658961 0.0356061 -0.0410641 -0.0165368 -0.0242941 0.042054 0.0125817 0.0127589 -0.0447657 -0.0124045 -0.00388451 -0.0387816 0.000347334 -0.00656406 -0.0145517 0.0247323 -0.0129472 -0.0178758 0.0502001 0.0556845 0.0303026 0.0217976 -0.00422482 -0.0377898 0.0137737 0.0115666 0.0635143 0.0537525 2.52492e-05 -0.0198224 -0.00562788 -0.0401022 -0.0246932 0.00612931 0.0128136 -0.00897819 -0.00207389 0.0448651 0.0477451 0.00397743 0.0274536 0.00737077 0.0580131 -0.00611629 -0.000528679 0.0173424 0.00537505 -0.0130043 -0.0214329 0.0108583 -0.0154997 0.0263846 -0.0305438 -0.0542768 0.0315838 0.0252346 0.0440847 -0.0206572 0.04371 0.0359591 0.0112793 -0.00718316 -0.00602798 0.00410781 0.0306663 -0.0166601 -0.00795794 0.0151967 -0.0182865 -0.0335685 0.0182385 -0.0195497 -0.0113026 -0.0023785 0.0235106 -0.0270748 0.00599124 -0.000308626 0.0263394 0.0157551 0.0158878 0.0330681 -0.00509065 -0.0146705 -0.0056993 -0.0208874 0.0125354 -0.0673221 0.00954974 -0.0268819 -0.0298058 -0.0075538 -0.00444628 -0.00177846 -0.0182279 -0.00418619 -0.0125829 0.0273375 0.0198116 -0.0368553 0.000714222 0.0502279 0.0253962 0.0128413
/PERSON 0.00826841 -0.0255692 -0.0330016 0.0354519 0.0225893 0.0109514 0.00613462 -0.0384791 -0.0303512 -0.0229343 0.0212876 -0.0075477 -0.0467981 -0.010409 0.0126284 -0.0058378 0.0880121 -0.07025 0.00626943 0.0292655 0.0155449 -0.0029804 0.0205507 0.0421064 -0.00212201 0.0184725 0.0238356 0.0124997 -0.0299114 0.0126117 0.0245232 0.0125742 -0.00621939 0.0275627 -0.00864138 -0.032562 -0.00888566 -0.00824097 0.0271346 0.0532135 0.0101679 -0.0162886 0.0121252 0.0210428 -0.00194405 0.00404743 0.024673 0.00257358 -0.0536067 0.0059548 0.00680787 -0.021385 0.0165436 0.0782756 0.0281972 0.00329845 0.0258452 0.029124 -0.0168362 0.00554572 0.0158955 0.0185549 0.00639721 -0.0127932 -0.0126877 0.0255848 0.0198621 0.00204716 -0.00979548 0.0319716 0.0162235 0.0263899 0.0121347 -0.0112213 -0.0013911 -0.0218594 -0.00360905 -0.00985155 -0.00678521 0.0048299 0.00538977 0.0196735 0.00767536 0.0236491 -0.0108971 0.0702841 -0.000214121 0.0192796 -0.0336326 -0.00193487 0.0207677 -0.00115752 0.00503095 0.0271281 0.0306338 -0.0472843 0.0133121 0.00967441 0.0739975 -0.0479966 0.0244305 -0.0245841 -0.00499424 0.0269727 -0.0162982 -0.0305363 -0.0259393 0.0106685 0.00204852 0.0144282 -0.0223143 -0.00767458 0.0190466 -0.00309234 -0.00273311 -0.0186223 0.0100241 0.0541708 -0.00286773 0.00677558 0.0749852 0.000965902 0.0278771 0.00682091 -0.0350188 -0.0231593 0.0591599 0.00486596 -0.0275822 0.00330022 -0.0339683 -0.0228864 0.0407094 0.0196112 0.0108016 0.0140064 0.00977201 0.0314382 0.00815194 0.00316823 0.033793 -0.00793244 0.00904049 0.0484798 0.00376638 0.0080589 0.0160021 0.0124291 0.0312811 0.0453252 0.0388776 0.014381 0.00986712 -0.0264528 0.0228047 -0.00898387 -0.0101548 0.017925 -0.0117026 -0.0554419 0.007253 -0.0158204 -0.0288845 -0.00155194 -0.0176701 0.0171943 -0.00749422 0.0292455 -0.00107207 -0.0266274 -0.0431817 0.0150795 -0.00200679 0.0313999 -0.0067993 -0.0118795 0.0262726 0.00424628 0.0103774 -0.00592917 -0.022175 -0.035849 -0.0479367 0.0160562 -0.0610595 0.0666976 0.015972 0.0582453 0.00658636 0.0217628 0.00643071 0.000442212 -0.00581474 -0.0054651 -0.0203434 -0.00908919 0.0247496 0.00239204 -0.0380784 -0.0181882 0.0038557 0.0505387 0.0156405 0.00813433 -0.030691 -0.0120874 -0.0168734 -0.00659435 0.00606761 -0.0120151 -0.0181379 0.0449146 -0.0164867 -0.0261603 0.0697981 0.0617957 0.000847982 0.0544626 -0.0276704 -0.0550444 0.0173359 0.0113238 0.055044 0.0375562 0.020319 -0.0131073 -0.0084805 -0.037309 0.00635491 0.034832 0.016266 0.0273817 0.0106776 0.0544066 0.0400284 0.0219463 0.0369613 -0.0061328 0.0601682 -0.0176303 0.000559148 0.0158892 -0.00674449 -0.0208783 -0.0595055 0.00413789 -0.0111278 0.0236561 -0.0476361 -0.0694536 0.0216178 0.0595176 0.0207402 -0.0333637 0.0819539 0.028332 0.0131094 -0.0262084 0.00624249 -0.00424806 0.0169511 0.00095264 -0.013784 0.0106197 -0.00981808 -0.0306841 0.0206125 -0.0236259 -0.0248067 -0.00579508 0.0168328 -0.0243995 0.0208301 -0.00113155 0.00979853 -0.0244796 0.0174893 0.0538204 -0.015924 -0.0398881 0.0131741 -0.0175494 0.025962 -0.0661862 -0.0333791 -0.0648521 -0.0383731 -0.00434588 0.00400898 0.00597046 -0.00400875 0.0204376 0.00611927 0.0448351 0.0241287 -0.0154192 0.00627263 0.0373892 0.0307659 0.0146908
/ANIMAL 0.0300486 0.0712841 -0.0376754 0.0549765 0.0607603 0.077962 0.0298141 0.0673856 -0.0226905 0.0303401 0.051304 0.00258714 -0.024164 0.00156609 0.00763744 0.0234262 0.0534642 -0.0251367 0.0715842 -0.0561001 0.00824099 0.0249055 -0.0380911 0.0456471 0.0221042 0.0182474 -0.0250625 0.0619548 -0.0276366 -0.00527973 -0.000785605 0.011164 0.0262369 -0.00774925 0.0114673 0.00916521 -0.0220291 -0.0277813 -0.0389821 -0.0435213 -0.0276997 -0.015485 0.00192622 0.00645828 -0.00999872 -0.0152118 -0.00241545 0.0100312 -0.0643455 0.0111946 0.0066577 -0.0330884 0.0195752 0.046873 0.0128607 -0.00343616 0.101518 0.0350396 -0.072937 0.0680613 0.0157215 -0.00322208 -0.0337139 -0.0212079 0.00862566 0.0357375 0.0268586 0.0560677 -0.00767473 0.00110841 -0.0226779 0.0101698 -0.0132232 -0.0151065 0.0405353 -0.0137568 -0.0272935 -0.0334812 -0.0158403 -0.00248463 -0.0273521 -0.00642385 0.00199067 -0.029529 -0.00561389 0.00807842 0.0286385 -0.0180839 -0.0196703 0.0251796 0.0169794 0.01792 -0.0372933 0.0404285 0.0104277 -0.0267687 0.00224127 0.00412468 0.00796186 -0.0531454 0.0396969 -0.0129379 0.00213731 0.00292869 0.0263761 -0.010291 -0.0010855 -0.0331014 0.0398633 0.038491 -0.0298397 0.006362 0.00804358 -0.00470436 -0.0472791 -0.0442122 0.011435 0.0281443 -0.0296657 -0.00541407 0.0326989 0.0628372 0.00408035 0.0344357 -0.075784 -0.0168114 0.0349385 -0.0106728 -0.0202337 -0.029458 -0.0116534 0.00058759 0.00755417 -0.00790286 0.00802415 0.0184524 0.01962 0.0160238 -0.0309983 -0.061687 -0.0172037 0.0208216 -0.0131281 0.0648669 -0.0189516 0.0118443 0.0193319 -0.0281072 -0.0100107 0.0108566 0.0301784 -0.0179694 -0.020922 0.000617313 0.0224016 0.000979415 -0.0754017 -0.0038338 -0.00342714 -0.113593 0.0158869 -0.0165568 -0.0308796 0.034362 -0.00806184 -0.0103464 0.00641706 -0.0108974 -0.00478754 0.0266442 0.0188356 0.0316693 0.0482077 0.0142203 0.000356819 -0.0339535 -0.0238846 0.0100228 -0.039264 -0.0198553 -0.0133949 -0.0379448 -0.0974042 -0.00775128 -0.0144442 0.0331998 -0.0063913 0.0332266 0.0365758 0.0166172 -0.0180149 -0.0292882 0.0116139 -0.0354868 -0.0327225 -0.0354267 -0.00217377 0.0323393 -0.0603178 -0.00714734 -0.0307204 0.0325002 0.040798 0.0136881 -0.0709975 -0.00937351 -0.0298078 -0.0783063 -0.00837685 0.0450868 -0.0211033 -0.0259277 -0.00348113 -0.0404317 0.0974734 0.0601548 0.016896 0.0245526 0.0120708 -0.090148 -0.0303831 -0.0164164 0.0188126 -0.0042895 -0.0156758 0.0248268 -0.00157464 -0.0304995 -0.00534816 0.00545249 -0.00938071 -0.014552 0.00540928 0.0294444 0.0147937 0.00435683 -0.000415024 0.00821357 0.0620157 0.00628492 -0.0287837 -0.0181903 0.0190871 0.0104278 -0.0346927 0.0123406 0.0275328 -0.0262583 -0.0694795 -0.0805821 0.0496466 0.0301276 0.0379818 -0.0437426 0.0176966 0.033905 0.0176393 -0.0318241 -0.011207 0.0165632 0.0433942 -0.00885906 -0.0171345 0.0284039 -0.02397 -0.0102796 0.0420659 -0.0274905 -0.00769852 0.0265241 0.0510312 -0.0345064 0.0398625 0.0164704 0.0423141 0.00480421 0.00481066 0.0151628 -0.0387058 -0.0160098 0.0015086 -0.000836399 0.0333012 -0.0916443 -0.00916217 -0.0213515 0.0182188 -0.0268397 -0.0101506 -0.00772896 -0.00903189 -0.00664008 -0.00879887 -0.000926375 -0.00125161 -0.0638758 0.000199061 0.0162458 0.0117989 -0.017769
