113 300
/product/mobile_phone 0.00126219 -0.00723553 -0.0526895 0.01527 0.0274838 0.0682969 0.0235955 -0.0295283 -0.0215918 -0.00541345 0.0230805 0.0421439 0.00466504 -0.0391798 0.00849954 -0.0048852 0.0316845 -0.00226016 0.0497506 -0.00566937 0.0128128 0.0145829 -0.0349807 0.0636927 -0.0180347 -0.00342677 -0.0588665 0.0200772 -0.0333854 0.0041213 0.0418978 0.0208995 0.0385434 -0.00426259 -0.0624593 -0.0538999 -0.0271995 -0.0251558 0.0170671 0.0367564 0.0172714 -0.0291323 0.0198001 0.0430649 -0.062976 -0.0271044 0.0259659 0.0188889 -0.0176113 -0.0139473 -0.0088193 -0.0144715 0.000764636 0.0834501 0.0232948 -0.0672864 0.00484347 0.012693 -0.0528486 0.0472493 -0.0264747 -0.0554124 0.0233203 -0.0541173 0.0356637 0.0164641 0.00374291 0.00924842 0.00796311 0.0257281 0.0107126 0.0491102 -0.00393632 -0.00552782 0.00394044 -0.0120737 0.0295446 0.0098764 0.0188325 5.54937e-05 -0.0190836 -0.0119618 -0.0166025 0.0270822 -0.0203602 -0.0080585 0.0180091 -0.0149375 -0.00125276 0.00845554 -0.00642577 -0.0347995 -0.00761114 0.0192191 0.0119304 0.000399308 -0.00493283 -0.0102223 -0.0060369 -0.00635769 0.0505987 -0.0359924 0.017451 0.00597849 0.0394033 -0.0205713 -0.0256416 -0.00769103 0.0141605 -0.00925154 -0.0260505 -0.00594443 0.0046025 -0.00917258 -0.0102188 -0.00311773 -0.0274533 0.0444975 -0.00645195 0.00208049 0.0416372 0.0319821 0.0298914 0.0324709 -0.0805776 -0.0115146 0.0395716 -0.0214861 -0.0313654 -0.0130763 -0.023456 -0.0072373 -0.017762 -0.0331189 -0.00652938 0.0437846 0.0162671 0.0225966 0.000349809 -0.0251525 -0.00322058 -0.00929468 -0.00365501 0.0641334 -0.00973262 0.00174224 0.0047279 0.00641301 0.0572903 0.0514546 0.0443351 0.0187742 0.0261889 -0.0100569 0.0391061 0.0143137 -0.0365127 0.000259903 -0.0422126 -0.099974 -0.0113714 -0.0413577 -0.0589324 0.00840921 0.0145523 0.00833941 0.00431706 -0.00172901 0.00405537 -0.0165125 -0.0461483 -0.00758041 0.0125893 0.054394 0.0213265 -0.0740197 0.0364186 0.0220421 -0.0328753 -0.0142866 -0.0390033 -0.0465313 -0.0756384 0.016839 -0.0198695 0.0376957 -0.0183099 0.0323694 0.0093514 0.0161506 0.0107001 -0.0312026 0.0135967 -0.000200467 0.00662607 -0.020878 -0.0167947 0.0388226 -0.0552453 -0.0203367 -0.0101559 0.0358112 -0.00940729 0.00740387 -0.0801758 0.0148603 0.0153957 -0.0432414 0.0174377 -0.00700418 -0.042026 0.00196586 -0.00292419 -0.0209209 0.0360453 0.0409849 0.0449826 -0.00407706 0.00615099 -0.0617582 -0.0134618 0.00825453 0.0291318 0.0126464 -0.000686377 0.00125384 0.0431129 0.0108912 -0.0378284 -0.015025 0.0206848 -0.0258348 0.00408553 0.0659198 0.058483 0.0381921 0.0124001 0.0219055 0.0693336 -0.00609419 0.0135883 0.0285325 0.00115065 -0.0205409 -0.0335297 0.0298978 -0.0271027 0.0398224 -0.0268652 -0.0601668 0.0112948 0.0474831 0.00414026 -0.0159847 0.048566 0.0547832 0.0102808 -0.0058347 -0.0100755 0.0180163 0.0437859 -0.0198597 0.010904 0.0361486 -0.0205011 -0.0536974 0.0315434 -0.0187716 -0.0100308 -0.0207472 0.000318905 -0.0310923 -0.00557535 -0.0116256 0.0354515 0.0233145 0.00515973 0.0364301 0.00356504 -0.0248781 -0.00655862 -0.0461872 0.0185255 0.00572068 -0.0315762 -0.0269477 -0.0118999 -0.029142 -0.0207001 -0.00695647 -0.0588848 -0.00637256 -0.0190599 0.0304883 0.0209402 -0.0723941 -0.0345486 0.0632082 0.0608579 0.0111706
/location/country -0.00568816 0.0197246 0.0451457 -0.0296129 0.0162194 0.0266123 -0.0212514 0.00770321 -0.0121821 -0.0201313 0.0368534 0.0285438 -0.00307579 -5.89871e-05 0.0525858 0.0260081 0.00530979 -0.0419537 0.00430323 -0.0340076 0.0762366 0.0267029 -0.056243 0.0560115 -0.06849 -0.0111884 -0.0172369 0.0539919 0.0149549 -0.0132259 0.0443661 0.0223441 0.00342294 0.00942467 -0.0159854 -0.0124202 -0.025675 0.0181612 0.0381631 0.0252295 0.0359881 0.0389535 -0.0095837 0.0100392 -0.090676 -0.0246447 0.117163 0.0377992 -0.109057 -0.00849312 0.0121043 -0.00591461 -0.0257121 0.103435 0.0371467 -0.00650804 0.0527389 0.0593884 -0.00586735 0.00698455 0.00195185 0.0234561 -0.00160222 -0.00143769 0.00552578 -0.0198679 -0.0303981 0.000399273 -0.00287102 0.0348478 0.0355548 0.0432101 -0.00746712 0.019185 -0.0191879 0.007414 0.0426341 -0.0142063 -0.018144 -0.0174165 0.00785332 -0.00973425 0.00193714 0.0203653 -0.0268147 0.0312914 0.0103903 -0.0202058 0.00621866 -0.00788029 0.00380793 -0.0241268 0.0151542 -0.0186336 0.0046721 -0.0550292 -0.00517691 -0.000597006 0.0362389 -0.0347419 0.0127108 0.0264947 -0.00673527 0.00797058 0.00376356 -0.0200607 -0.0206741 -0.00486389 -0.00715273 -0.0608857 -0.00576088 0.0109294 -0.00740372 -0.0473466 -0.061684 -0.0541364 -0.00231818 0.0895383 0.0653441 0.0110384 0.0516951 0.0337056 0.019029 0.0285425 -0.0165645 -0.0309722 0.0140776 -0.00643706 0.0195089 0.0121954 -0.0467029 -0.0629989 0.0200736 -0.0375179 -0.0061183 -0.00587624 -0.0071664 0.0463006 -0.00163005 -0.0316706 0.0242013 -0.0358543 -0.0146292 0.0359484 -0.0235573 -0.00208377 0.0310285 0.0204702 0.016851 -0.00226837 -0.0530285 -0.0218532 0.00780288 -0.0446397 0.00359188 0.0068764 -0.048358 0.0387278 -0.00620635 -0.0462889 -0.00543466 0.0266643 0.00225861 -0.00687941 0.00840074 0.0143948 -0.0239531 -0.000305729 0.00767752 -0.0145256 -0.0237237 0.00823524 0.0020926 0.0144679 -0.046473 0.00224576 -0.0660378 -0.0102686 -0.0357029 -0.0417213 -0.0142492 -0.00164276 -0.0737035 0.0453777 -0.029029 -0.0209722 -0.011158 0.0761032 0.0144022 0.0310012 -0.0192973 -0.00763698 0.020363 0.0189834 -0.0320998 0.0553694 -0.00225452 -0.000686613 0.0194353 -0.000717031 -0.0182673 -0.0272707 0.000789509 0.0281581 -0.000624545 0.00555908 -0.0138307 -0.0060226 -0.0229112 0.0133956 -0.0174079 0.0242729 0.0138566 -0.0410965 0.0363667 0.152006 -0.0100901 0.0270676 -0.0301574 -0.0862614 0.0106574 -0.0312421 0.0671699 0.0197431 -0.0194745 -0.0160552 -0.0537068 -0.091675 -0.0681918 -0.00998973 -0.00177371 -0.0319926 -0.0343806 0.104665 0.0950097 0.0149735 0.058493 0.00635808 0.0969995 0.00168274 0.00125414 -0.0369317 0.0328339 -0.00890198 -0.024663 -0.010157 -0.0244579 0.0313364 -0.00653818 -0.0483328 0.0328021 0.0112654 0.0716782 -0.0327875 0.104361 0.0468578 0.0207509 -0.00684121 -0.0130186 0.0752954 0.0743972 -0.0654924 -0.0913407 0.0263749 -0.0464163 -0.0632689 -0.0294366 -0.0425999 -0.00280098 0.0632211 0.0317727 -0.0462636 -0.022243 0.0205262 0.0562526 0.0265072 0.0204588 0.102894 -0.000936079 -0.0261121 0.0100199 -0.0227666 -0.00893487 -0.0960598 0.0113905 -0.0316593 -0.0115426 -0.0184988 0.0409881 -0.0427096 -0.0364681 -0.0263455 0.0111235 -0.000845646 0.0448914 -0.0812186 -0.0330898 -0.0371091 0.0410727 0.0884787
/event/military_conflict -0.00155225 0.000560928 0.0214688 -0.00707516 -0.0406855 0.00854824 0.0598231 0.0219803 -0.00903492 -0.00723733 -0.0256537 0.00804682 -0.00260408 0.00988367 -0.0128253 -0.0293747 0.0128801 -0.0296138 -0.00700098 0.0206504 0.0610881 -0.0171913 -0.00790166 -0.00520897 0.0209447 0.0306134 0.00627755 0.0438726 -0.0254229 -0.0352053 0.0665469 0.038573 0.0339396 -0.0493937 -0.0348433 0.0145197 -0.0329981 -0.0361415 0.0668658 0.0190058 5.49512e-05 0.0105031 -0.0202027 -0.00554145 -0.027896 -0.0210079 0.0689991 0.0375268 -0.0199934 -0.0211155 0.015773 -0.00570742 -0.0137328 0.0928448 0.0723562 -0.0148533 0.0988493 0.0145014 -0.0268897 0.0179388 -0.0542929 0.0215679 0.0140132 -0.0229983 0.0781305 0.0220136 -0.0112044 -0.0449612 -0.0030934 0.071208 0.0349935 0.0807139 -0.0436731 -0.0314574 0.0138019 -0.0548757 0.00167501 -0.0490771 -0.0349711 -0.0256886 -0.015533 0.0243285 0.0402774 0.0766103 -0.025486 -0.00489673 -0.00866543 -0.02973 0.0585757 -0.0360963 0.0260077 0.0346247 0.0149414 -0.0169515 -0.00261187 -0.0535595 -0.0226357 0.0255987 0.0782525 -0.0700646 0.00457184 -0.0676038 -0.00236827 0.0305522 0.0817336 -0.0365012 -0.0580486 -0.0139821 0.00970441 0.0424828 0.0167956 -0.0130571 -0.0291982 -0.0139909 0.0050512 0.0454809 0.0058802 0.0753511 0.0350649 -0.0223218 0.020109 0.01862 -0.0280377 -0.00924806 -0.0604545 -0.0209468 0.046981 0.0143099 -0.0312117 0.038032 -0.0479463 -0.0356796 0.0664908 0.0163605 -0.0272776 0.0350043 -0.0398621 0.0209053 -0.013836 0.0228619 0.0196873 0.000678469 -0.0186704 0.0871147 -0.017977 0.020622 0.00741853 0.00249483 0.094474 0.0230371 -0.0391547 -0.0398321 -0.00490524 -0.0225879 0.034179 0.0155053 -0.0574354 0.0199703 -0.0294752 0.00225084 -0.00264703 -0.0351536 -0.0433172 0.00835853 0.042219 0.000826889 0.0602555 0.0268811 0.00466767 -0.0204534 -0.0117081 0.0467586 0.0332716 0.00513739 -0.0204802 0.046663 0.0497135 -0.0158079 -0.0719277 -0.031726 -0.0227008 -0.046405 -0.0896504 0.0565033 -0.0157858 0.0511135 -0.00764175 0.0153306 0.0119511 0.0734305 0.0343403 0.0198543 0.0408686 -0.053369 -0.0141221 0.024119 0.0569011 0.0387199 -0.0558628 -0.0118531 -0.00942807 0.0210481 -0.0571773 0.0235244 -0.0632639 0.0160947 -0.0403247 0.0114731 -0.0133025 0.00636297 0.0187059 0.0169352 -0.00171774 -0.0566027 0.0523133 0.080132 0.0221454 0.0298892 0.0390512 -0.0318324 0.013351 -0.0338951 0.0650495 -0.0124106 -0.0161874 -0.0555032 -0.0196144 0.00144506 0.00778931 -0.0383721 0.062662 -0.076396 0.00482688 0.0633304 0.013796 0.00782909 0.0397723 -0.0163498 0.104143 0.0359623 -0.0443336 -0.00829096 0.0227648 -0.0241944 0.00199005 0.0712616 0.00907073 0.0315807 -0.0974337 -0.0324773 0.0255165 -0.0167463 0.0886393 0.0250519 -0.00782106 -0.000372832 0.0307718 -0.00885523 0.0237877 0.0554602 0.0423403 -0.0178945 -0.0442599 0.0130137 -0.00558065 -0.0304421 0.013962 -0.0334992 0.0112716 -0.0376533 0.0109214 0.00169753 -0.00116558 -0.0257656 0.0136153 -0.0096982 -0.010884 0.0288142 -0.0178282 0.0438426 -0.0083594 -0.00436494 0.0196758 -0.0817031 -0.0486351 -0.0568644 -0.0632941 0.0460117 0.0541846 0.0257492 -0.0676084 0.0258191 -0.00806367 -0.0391727 0.0160024 -0.058535 -0.0106358 -0.0243793 0.0267597 0.0415532
/transit 0.0155948 -0.0189799 -0.0589449 0.0201787 0.0518298 0.00753785 0.0131317 -0.01613 -0.00873461 -0.0507265 0.00773966 0.0403044 0.0078425 0.0305906 -0.0343225 -0.0201369 0.0162857 0.0243464 0.0137258 0.0566876 -0.00379283 -0.0191704 0.00437862 0.00785209 -0.0101136 -0.0399886 -0.0883522 0.0728075 -0.0397111 -0.0265522 0.0440269 -0.047136 -0.00479242 0.0226826 -0.0813827 -0.0799718 -0.00104109 0.0216969 -0.0251166 0.0647853 0.0156452 -0.0120066 0.00670089 0.0145117 -0.0856513 -0.0389734 -0.0102439 0.0247958 -0.0811967 0.0540475 0.0113475 0.00869175 0.0167064 0.0508197 -0.000972576 -0.0204513 0.0193973 -0.0096802 -0.0242379 -0.0233285 -0.0223632 0.00284413 -0.00683217 0.0113986 0.0110777 0.0218285 0.0350491 0.0186882 -0.0192613 0.025281 0.0202577 0.0902914 -0.0346875 -0.0210846 -0.0257443 -0.0535494 0.0201152 -0.0310166 0.00330135 -0.0218013 -0.0235088 0.0295729 -0.0290467 -0.0140663 0.000217201 -4.51623e-07 0.0552999 -0.0263274 0.0496885 -0.0311011 -0.0130684 0.0181515 0.0029427 -0.0197446 -0.00754137 -0.0380357 -0.0558702 0.0232399 0.0818702 -0.0189236 0.0490451 0.0373667 0.0337426 0.0207815 0.0463716 -0.0132518 -0.00383233 -0.00278911 -0.000952393 0.0469927 -0.00382386 -0.0218289 0.00851173 0.0516565 -0.0687861 -0.030528 -0.0400498 0.0795463 -0.00630972 0.0069977 0.049884 0.0233196 0.0406593 0.0341345 0.0150951 -0.00717318 0.0318318 -0.00471301 -0.0613319 0.00777449 -0.0411246 -0.0354468 0.0161593 -0.0317778 -0.0128691 0.049662 0.00533758 0.0110245 0.00506289 -0.0228898 0.00356678 0.0559237 -0.0399475 0.0546826 -0.0262617 -0.0193173 -0.00196994 -0.0185743 0.0478179 0.0138454 0.0436945 0.0283301 0.03553 0.0160902 0.0131714 -0.00537317 -0.0397128 -2.28043e-05 -0.0912849 -0.0675637 0.041519 -0.0325131 -0.0492774 0.0652849 -0.0337565 0.0445682 -0.0130759 -0.0177494 0.0431093 0.000414762 0.0060391 -0.0163126 0.0600736 0.0376883 -0.0314831 -0.0347527 0.0182758 0.0200044 -0.0557226 -0.0476786 0.00281699 -0.0443271 -0.110505 -0.00769227 -0.0521143 0.0216687 -0.0360144 0.0158187 -0.00784352 0.000678489 -0.00441945 -0.0133328 0.027393 -0.0187065 0.0368901 -0.0642358 -0.046344 0.0356635 0.00481595 0.0013425 0.0341086 0.0277761 0.0174858 -0.0141481 -0.0564051 0.0792135 0.0349488 0.0123209 0.0180832 -0.00466334 -0.0368473 0.049704 -0.012911 -0.0273397 0.0691313 0.0255345 0.0058687 0.0449661 -0.0108273 -0.0765792 0.0595374 0.0262831 0.0606328 0.0292146 0.0361516 -0.0762485 0.0253443 -0.00989909 -0.0103279 0.00028424 0.0228093 0.00549849 0.0133719 0.0208333 0.0269811 -0.0368158 -0.0134932 0.0192784 0.0813266 -0.0196997 0.0885192 0.0619465 -0.0250211 -0.0320651 -0.0287536 0.0330865 -0.0235633 0.0591406 0.00456603 -0.0793465 0.0479412 0.0387795 0.0457392 -0.0407218 0.0232873 0.0349908 0.00748274 -0.00885792 0.0127379 -0.00925858 0.01254 -0.042933 -0.0241185 0.0462076 0.00197869 -0.0424653 0.0765347 -0.0473215 -0.00905154 -0.00524744 0.0252927 0.01725 0.0522788 -0.0552161 0.0679076 0.0220256 0.0905964 0.0268024 -0.0140742 -0.0333299 0.000569268 -0.0582614 0.0252739 -0.0499548 0.0241429 -0.0164887 -0.0227369 -0.0807947 -0.0492886 -0.0234359 -0.0801505 0.00871977 -0.0497735 0.0673562 0.0423923 -0.0494112 0.0123969 0.0384932 0.00573329 0.0182933
/broadcast_program 0.0250748 -0.0104973 -0.0426743 0.0195986 0.0296243 0.0482347 0.0320068 0.00408906 -0.00977412 0.0191284 0.00975424 0.0154086 -0.0291896 -0.0111427 0.00210889 0.0138511 0.0349901 -0.0250793 0.0468111 -0.00973634 0.0205915 0.0300669 -0.0289446 0.0606694 -0.0117366 0.0178999 -0.0339701 0.0341645 -0.0123492 0.0207755 -0.00321508 0.00223499 -0.00748248 -0.0156617 -0.0294952 -0.0438774 -0.0281111 -0.00244322 0.0152991 0.0216985 -0.0142636 -0.0185869 0.0275669 0.0404023 -0.0075863 -0.0151019 0.00978608 0.0056433 -0.0139932 0.00109455 -0.00744663 -0.0129479 0.00179328 0.0681898 0.0298256 -0.0177488 0.0611367 0.0200808 -0.0519674 0.0108769 -0.0068931 -0.00465652 -0.0093067 -0.0234522 0.00503033 0.00799321 0.018667 0.00191666 0.00103015 0.044833 0.000648647 0.0364048 -0.0302861 -0.00263789 0.00244 0.0268084 -0.00517287 -0.00618882 -0.00187657 0.00453064 -0.0207974 0.0234952 -0.00414995 0.0315982 -0.0124659 -0.000313154 -0.00134151 -0.00542627 -0.00843145 0.00333228 -0.000958127 -0.00730163 -0.00694528 0.0501225 0.010427 -0.0214543 -0.00730063 0.0142196 0.0540494 -0.0296476 0.0560502 -0.0277391 0.0103127 0.00123587 0.0515177 -0.0510409 -0.00166366 -0.00170902 0.0158373 0.0253445 -0.0220903 -0.00540425 0.00605079 -0.00321027 -0.00845526 -0.00521288 0.00264929 0.0301408 -0.000908887 -0.00998047 0.0473346 0.00633443 0.0177898 0.0388558 -0.0762914 -0.00900713 0.0437742 0.00656459 -0.0237895 -0.0056777 -0.00745589 -0.0147577 0.00538831 -0.0147732 0.0126229 -0.0155408 0.0269003 -0.00695072 -0.0356781 -0.0437908 0.0173555 -0.0123963 -0.0303534 0.075636 -0.00870096 0.0118299 0.0187544 -0.0017065 0.0248848 0.0269719 -0.00241264 0.00338665 -0.015944 -0.0104582 0.0127951 0.00236799 -0.0333395 -0.0122362 -0.0369856 -0.0564932 -0.0230712 -0.0266683 -0.0200019 0.0112457 -0.00904899 0.00665655 0.0223061 0.00689124 -0.010549 -0.000523532 -0.0186365 0.000668303 0.00524396 0.0366412 -0.00707558 -0.0310041 0.021686 0.00770248 -0.00986015 -0.0126332 -0.0243499 -0.0182659 -0.075425 0.0380973 -0.0387108 0.041605 0.00954676 0.0605375 0.0466783 0.022497 -0.00516602 -0.00656449 0.0481733 -0.0403224 -0.0183346 -0.00518889 0.00563347 0.0360687 -0.0517317 -0.0480064 -0.0328999 0.0310119 0.00662285 0.0384055 -0.0672806 -0.000769083 0.0118345 -0.0239648 0.0251808 -0.0146257 -0.0243369 0.0153047 -0.0202233 -0.0233078 0.0431268 0.0630206 0.00572494 0.0353752 0.00701442 -0.0313666 -0.014781 0.00949117 0.0388103 0.0124536 -0.00201487 -0.00323834 -0.00413814 -0.0449565 0.00459922 0.0101774 0.00403673 -0.0140402 -0.0102225 0.0594903 0.0384583 0.00523922 0.0103466 0.0212657 0.0517282 -0.00561708 0.0146112 0.00212786 0.0157164 -0.0262277 -0.034215 0.0233291 -0.0121921 0.0339443 -0.0151759 -0.0472728 0.01935 0.0296558 0.0272517 -0.0275807 0.0524029 0.032552 0.000704859 -0.000335101 -0.00532993 0.0232282 0.0380496 0.0019506 -0.00958292 0.0263923 -0.0231534 -0.0119345 0.0267399 -0.0235162 0.00361108 0.00112906 -0.00882374 -0.0363435 -0.0025561 0.00948564 0.0286984 0.0054171 0.012732 0.00544472 -0.000374351 -0.016964 -0.00354235 0.00159192 0.0189135 -0.0704028 0.0179239 -0.0381796 -0.0260118 -0.0213971 0.00152458 0.0110873 -0.00231187 0.00849132 -0.0221053 0.0321529 0.0341585 -0.0193188 -0.00592655 0.00496933 0.0200202 0.0284096
/person/monarch -0.0100521 -0.000519901 -0.0445754 -0.0193218 -0.00789507 0.0371244 -0.0151365 -0.0281244 -0.00495496 0.0197623 0.00910492 -0.0162373 -0.00878546 -0.0648999 0.0212239 0.00863748 0.0214947 -0.0488832 0.00491852 -0.066246 0.0534987 0.0362953 -0.0355325 0.052135 -0.012593 -0.00187409 -0.0174088 2.95533e-05 -0.0444811 -0.0421854 0.103492 0.0197503 0.011074 0.00654315 -0.0878854 0.0205217 -0.00215142 -0.0217686 0.0230493 0.00792521 0.00665349 0.0421175 0.0212623 -0.011858 -0.049077 -0.0572964 0.0925045 0.00541129 -0.0513539 -0.0202116 0.00453123 0.00161484 -0.00485387 0.0799911 0.0135299 0.00934212 0.116998 0.0466845 0.0107463 0.0125206 -0.00543234 0.0112601 0.0128267 -0.0240041 -0.00166526 0.00907987 -0.0267961 0.01162 -0.0121353 0.0447729 0.0255642 -0.00382162 -0.000483491 -0.0103449 -0.0159898 -0.0146612 -0.0211403 0.0143268 -0.000852359 0.00962955 -0.0112254 0.000156894 -0.0203687 0.0452524 -0.00367334 0.013213 -0.00208207 -0.0216199 -0.036565 0.0698551 0.0548662 -0.0060445 0.0075333 0.002929 0.00213188 0.00928306 -0.00134741 -0.0435282 0.0786366 -0.0426057 -0.00246722 -0.0427501 -0.0322541 0.0262628 0.0121596 -0.0290354 -0.0302726 -0.0310438 -0.0327343 -0.0387371 -0.00476533 -0.0100542 0.00897095 -0.0162468 0.0139644 0.0176249 -0.0207984 0.0393775 0.00209938 -0.0294235 0.0288236 -0.00283497 0.027163 -0.0127009 -0.0474788 -0.0159603 0.0425879 0.00213402 -0.0314661 0.0155595 -0.0614831 -0.0339466 -0.00288709 0.0141494 -0.0148568 0.014006 -0.0408933 -0.00352862 0.0198322 0.0161555 -0.00634344 -0.03444 -0.011831 0.0639142 -0.0311485 0.0168636 0.00612876 -0.011662 0.0626755 0.077753 -0.000739511 -0.0248524 0.03123 -0.0216295 0.0217621 -0.00421849 -0.0310533 0.0271807 -0.0327088 -0.0187228 0.0659843 -0.0631357 -0.020878 0.0191166 0.0224168 0.0286032 0.0311678 0.0144554 -0.0159738 -0.022127 -0.0113333 0.0483819 0.0249035 0.0434386 0.0232634 -0.0182221 -0.0219736 0.0241273 -0.0539899 0.0202369 -0.0031566 -0.017557 -0.125027 0.0145183 -0.0830739 0.0486193 -0.0108203 0.0961155 0.0123765 0.0340233 -0.0108405 0.0131551 0.0793721 0.0218202 0.00608644 -0.0426952 -0.0464744 0.0580355 -0.0207541 -0.0378066 -0.0113613 0.0276986 -0.0181556 0.00527892 0.0102743 -0.00940212 -0.0173299 -0.0129361 0.000453578 0.00901088 -0.0407632 0.0420276 0.00935497 0.004803 0.0559776 0.0830625 -0.0326865 -0.00651839 0.0192911 -0.0689125 -0.00183346 -0.0150462 0.0398178 0.00557172 0.0452825 0.00462766 -0.0131698 -0.0451649 0.00933734 0.00690175 -0.0270648 -0.0379646 -0.0363429 0.0233895 0.0428825 0.0410615 0.0445073 0.0179374 0.0510995 0.0556746 -0.0402427 -0.00995432 0.0116955 -0.00423921 -0.0376198 0.0646206 -0.0371702 0.0272252 0.0062325 -0.0736308 0.00711741 0.011654 0.0473352 -0.0207474 0.0668503 0.0217043 0.0293747 -0.00215208 -0.0110228 0.0248007 0.048886 -0.0315568 -0.0257985 -0.00363605 -0.0242113 -0.0612064 0.0130077 0.00618445 -0.00992249 0.0164991 0.0397441 -0.0290473 -0.00959756 0.0154903 -0.00473328 0.0113102 0.00637475 0.0380962 0.00921243 -0.0018336 -0.0102411 0.00525645 0.0328575 0.0191204 -0.00810964 -0.0044437 0.000779215 0.00270846 -0.0133392 0.0239734 -0.0366098 0.0467557 0.0169827 0.00706532 0.000681062 -0.0237508 -0.00485247 -0.0338426 0.015897 0.0521297
/play 0.0208702 -0.00350693 -0.0531551 0.00629849 0.0132464 0.0270995 -0.00861045 0.0121997 -0.00436682 0.0129356 -0.0178549 -0.00193866 -0.0762407 -0.0250307 0.00139777 0.0218902 0.0590173 -0.0443771 0.0489641 -0.0395519 0.048366 0.0531399 -0.00600061 0.0913026 -0.0295157 0.0315549 -0.078124 0.0580958 -0.0196798 -0.0206976 0.0380546 -0.0301045 0.00440913 -0.0287649 -0.0684824 0.00935859 -0.0110014 -0.00946329 -0.00436009 -0.0585452 -0.041608 0.0554205 0.00892993 0.0101491 -0.00546019 -0.00773621 -0.0130681 0.0158211 0.0165015 -0.00211188 0.00548036 0.0229215 0.0308177 0.10532 0.00713443 -0.00993497 0.039781 0.019779 -0.0149277 0.00499345 0.0156285 0.0239272 -0.00864377 -0.022363 0.018267 0.00982324 -0.00685762 -0.00525845 0.0196269 0.0197303 -0.00965218 -0.0022591 -0.0248748 0.00916908 0.0258892 -0.014619 -0.0108074 -0.00317264 -0.00338432 -0.0167088 -0.0128745 0.0115314 -0.030184 0.0601761 -0.0245863 0.00121692 0.0175388 -0.0104629 -0.00724304 -0.00417877 0.0284429 0.00157993 -0.0190027 0.0833434 -0.00493333 -0.0432646 0.00726956 0.0383802 0.0583089 -0.0243958 0.0425452 -0.0184226 -0.00888805 0.0271459 0.0253722 -0.0129496 -0.0192912 -0.0295689 0.00136141 -0.00567985 -0.0643639 -0.00027704 -0.0210421 -0.0329837 0.00359912 0.00220853 0.0170465 0.0661501 0.0309078 0.0298878 0.0379771 0.0170415 0.0230925 0.0287543 -0.0837388 -0.0535006 0.0275718 0.000752419 -0.0362979 -0.0193829 -0.0285384 0.000755973 0.0177491 -0.029473 0.00586974 0.00458133 0.0129927 0.023418 0.0244432 -0.00207459 0.00684047 -0.0166393 -0.01412 0.0792012 -0.00561771 0.00329796 0.00716374 -0.0146096 -0.000277378 0.0376176 0.0182958 -0.00466885 -0.0258535 -0.0224539 0.0321131 -0.0129938 -0.0168373 0.00673789 -0.040785 -0.0151203 0.00961987 -0.00969532 -0.0300028 0.0219096 -0.00279864 0.0193875 0.0178667 0.0193525 -0.0365687 -0.00996034 -0.00464307 0.00397546 0.0161628 0.0481738 -0.00610998 -0.0719465 0.0470643 0.0368657 -0.0217738 -0.0106956 -0.0471046 -0.0478496 -0.0702657 0.0197407 -0.0585527 0.0371562 -0.0308857 0.0347045 0.0645227 0.0486964 -0.00685482 -0.00629281 0.0755947 -0.036375 -0.016001 -0.0319564 0.000178727 0.0447801 -0.0407059 -0.037746 -0.00577766 0.0241926 0.0100061 0.0145066 -0.0624962 0.0151362 0.00584315 -0.0706604 0.017792 -0.029019 -0.0280995 0.0311643 -0.0169699 -0.0469823 0.0578049 0.0728156 0.0218126 0.0308375 -0.0119139 -0.0605458 0.00282577 -0.0177829 0.0703794 0.0220641 0.00686149 0.0200838 -0.0168622 -0.0567712 -0.00166495 -0.020452 0.00482265 -0.0403069 0.0114051 0.0665586 0.0550528 0.0289433 0.0340843 0.0290078 0.0987195 -0.0218773 0.0152339 -0.0176078 0.00307151 -0.0108514 0.000531881 0.0380001 -0.020714 0.0166893 -0.024582 -0.066953 0.0327941 0.00891385 0.0658268 -0.0407527 0.068715 0.0192939 0.0288019 0.0086746 -0.027088 -0.0191692 0.0459686 -0.0269796 -0.0187327 0.0264151 -0.0167467 -0.0712194 0.0108568 -0.0494729 -0.00519631 0.0187927 -0.00229915 -0.0266009 0.00195866 0.0133146 0.00859445 -0.0190172 0.0283503 -0.00349337 0.0236477 -0.0138708 0.00216186 0.0141673 0.00963564 -0.0137702 0.00955677 -0.0191327 -0.00252898 -0.0520248 -0.00776406 0.0236975 0.00727606 0.0333678 -0.00869706 0.0321107 0.0124597 -0.000611877 0.0131598 -0.0195668 0.0111376 0.0204719
/game 0.000147982 -0.00133031 -0.0238534 -0.00315611 0.0168732 0.0502494 -0.00739552 -0.0394835 -0.0286527 -0.00564251 0.0223011 0.0069942 -0.0092487 -0.0246834 0.0143705 -0.02159 -0.0030478 -0.0269537 0.048892 -0.0562426 0.0382626 0.0292053 -0.0624263 0.0558292 -0.000781119 0.00218558 -0.0397681 0.0161019 -0.0090576 -0.0148589 0.0483666 0.0162478 0.012382 0.00699538 -0.07506 -0.0489924 -0.0179 -0.0322552 0.0227101 0.0126513 -0.00769981 -0.0306795 0.0148623 0.0316691 -0.0690668 -0.0403938 0.0616679 0.000956128 -0.0255355 -0.019972 0.00371209 -0.00972458 -0.014629 0.0871542 0.0425247 -0.0291498 0.0518213 0.0363543 -0.0439961 0.0398885 -0.0355484 -0.0360324 0.0209049 -0.0379062 0.00110124 0.0221722 0.00352545 0.0119003 -0.0130208 0.0417634 -0.00819431 0.0167238 -0.0357728 -0.0138796 0.00746811 0.0164428 -0.00788626 -0.00750288 -0.00437244 0.0225818 -0.0140803 -0.00915567 -0.0273922 0.021672 -0.0175724 -0.0217841 0.0182374 -0.0105063 -0.00412324 0.0185656 -0.00231804 -0.0111006 0.000494054 0.0343652 0.000671249 -0.0330054 -0.0220876 -0.00981011 0.0243294 -0.0143263 0.0392951 -0.0485551 0.0163472 0.0112483 0.0480926 -0.0295442 -0.0129653 -0.0154603 -0.00441169 0.0211239 0.00653082 0.0131853 -0.0076806 0.0104764 -0.0142465 0.00977861 -0.00726632 0.0311292 0.00443277 -0.0311417 0.0391723 0.0158397 0.0290326 0.0187076 -0.0946948 -0.0274319 0.0361127 0.0133793 -0.0199405 0.0133682 -0.0205772 -0.0122382 -0.00665645 -0.0147028 0.00348383 0.00501544 0.0217675 0.00496292 0.00872652 -0.0305755 0.00415755 -0.0428349 -0.00660906 0.0747789 -0.0440795 0.0264232 0.022711 -0.00463477 0.0441374 0.0181885 0.0152409 -0.0077251 -0.000439059 -0.000869309 0.0549766 0.00319571 -0.0400833 0.0178065 -0.0363736 -0.0832891 -0.0012711 -0.0467301 -0.0464272 0.0133022 -0.0100689 -0.00720415 0.0370909 0.0207898 0.00595736 0.00673167 -0.0157061 0.0263432 0.013665 0.0450958 0.0202018 -0.0551069 0.0202093 0.0165889 -0.0499728 -0.0147563 -0.0207528 -0.0466223 -0.0940476 0.0216101 -0.0349332 0.014271 -0.00599659 0.043281 0.00456006 0.0518353 0.0019517 -0.0107847 0.0425667 0.00612327 -0.0236358 -0.0288838 0.0169223 0.0388654 -0.0575729 -0.0391484 -0.0244719 0.0533856 -0.0225659 0.0245651 -0.0393246 0.00560633 0.00924177 -0.0336513 0.0118097 -0.00498856 -0.0376456 0.00925606 -0.013517 -0.00550994 0.0473002 0.074092 0.0178809 0.00513376 0.0200359 -0.029844 -0.00451318 -0.0303509 0.0456571 0.0257597 -0.00773846 -0.000255539 0.00189024 -0.00160364 -0.00457747 -0.0332049 0.0263486 -0.0307742 -0.0267092 0.0362976 0.0516017 0.0192672 0.0165978 0.0151302 0.0405791 0.0141798 -9.95928e-07 -0.00501119 0.0138309 -0.00555225 -0.0225151 0.0450122 -0.0323966 0.0333915 0.00255284 -0.0770325 0.00616257 0.0490085 0.0293756 0.0027252 0.038651 0.0410247 0.0152634 -0.000132485 -0.0257116 0.0331259 0.0275068 0.0134538 0.00181247 0.0217096 -0.050705 -0.00480985 0.0215616 -0.00756618 -0.00524241 -0.0155055 0.00825521 -0.00528788 -0.0228387 -0.00494649 0.0164803 0.0220001 0.0227996 0.0171471 -0.00554492 -0.0181638 -0.0185842 -0.0201018 0.0290363 0.00911999 -0.00309694 -0.0318701 -0.0255737 -0.0118977 -0.00424835 0.021591 -0.0261105 0.00864651 -0.00289098 0.013055 0.0226787 -0.0352068 -0.0351547 0.0289274 0.0318812 0.0203378
/broadcast_network 0.0632596 -0.0467094 -0.0377035 -0.0107805 0.00612747 0.0326134 0.0150979 0.000793002 -0.032809 0.0087498 0.0273247 0.0511572 -0.00863819 -0.018391 0.0039177 -0.0119124 0.0184162 -0.0174788 0.0701742 0.00724047 0.0318267 0.0291617 -0.0727105 0.0475493 -0.0507174 -0.0350947 0.000117054 0.0553519 0.000846043 0.0160421 0.018475 -0.0557357 -0.0160979 0.005072 -0.0452069 -0.104763 -0.0217258 0.0158675 0.0529146 0.0958977 0.0431677 -0.0509485 0.0446277 0.0190484 -0.0355381 -0.0106264 0.0068312 0.0285679 -0.0152866 0.00888917 -0.0276839 -0.00742303 0.00390028 0.13674 0.0795203 -0.0251756 0.0375197 -0.00663285 -0.0612244 0.0218246 0.00874675 -0.0375695 0.0334195 -0.0588391 -0.0113982 -0.00083742 0.0196221 0.00123357 0.0234857 0.0607091 0.0134142 0.0533485 -0.0185757 0.0257554 0.00940261 0.0430074 0.023474 -0.0208953 0.0212011 0.00721135 -0.0340282 -0.00241972 0.00925741 -0.0115124 -0.0444128 -0.010968 0.0049634 -0.00339025 0.0235533 -0.0187811 -0.0343548 0.0153674 -0.0116771 0.0253882 0.0203825 0.0280112 -0.0147689 0.0159957 0.043676 -0.00978135 0.0811988 -0.0264345 0.00698145 0.0166255 0.0537981 -0.0216118 0.0218386 0.0261192 0.0204959 0.0152389 -0.0367233 -0.00650874 0.00630709 -0.00330845 0.00279344 -0.0184216 -0.00724458 0.0379165 0.0366114 -0.0262872 -0.010745 0.0189164 0.0366891 0.0342399 -0.0866129 0.0182485 0.0747872 -0.0241592 -0.055685 -0.0224248 0.021338 -0.0306388 0.03759 -0.0391963 -0.0277537 -0.0167518 0.0400276 0.0189172 0.00982476 -0.0329625 0.0209836 -0.0207059 -0.0134958 0.110836 -0.00601699 -0.0111773 0.0245552 0.0559629 0.0341276 -0.0028584 -0.0166797 0.0123636 0.025329 -0.0177442 0.0124136 0.0085946 -0.0129772 -0.0332286 -0.0371426 -0.057766 -0.0490837 -0.0161265 -0.0429941 -0.00902565 0.00666653 0.0218708 0.0255468 -0.0313627 0.0180598 0.00439423 -0.014701 -0.0015821 0.00222436 0.0486106 -0.0415572 -0.0404383 0.0312739 0.00484049 0.00471143 -0.0491089 -0.00502908 -0.0143568 -0.0451526 0.0209429 -0.0278196 0.0550225 0.0270385 0.079645 0.0619013 0.00273564 0.0229705 -0.0154506 0.0239096 -0.0274516 0.00477186 0.0215149 -0.053271 0.0315225 -0.0648495 -0.0437523 -0.00628976 0.0183053 -0.0259689 0.0377978 -0.10828 -0.00955927 0.0335714 -0.0464419 0.031639 -0.0202509 -0.00644653 0.0168789 0.000733324 -0.0207767 0.0139924 0.071089 0.0366106 -0.00349224 0.0120276 -0.0260076 -0.0202492 0.00869833 -0.0106515 -0.0152513 0.000202002 -0.0280783 0.00238432 -0.0494207 0.0163681 0.0613763 -0.0231146 0.00120687 0.00363091 0.052303 0.043205 0.0116194 -0.0163623 0.0357067 0.0763089 -0.0326432 0.017001 0.0236374 0.008277 -0.042597 -0.0685149 0.0275653 -0.0170269 0.0749609 -0.0121977 -0.0709669 0.0698433 0.0484025 -0.00161375 -0.0156326 0.0791294 0.104372 0.00347309 0.0107496 -0.0567198 0.0510953 0.0395733 -0.0203107 -0.0205737 0.0855396 -0.015693 -0.0479828 0.0267899 -0.0521515 -0.00931476 -0.0157299 0.0139694 -0.0646032 0.043363 -0.0111151 0.0686306 -0.00165581 0.0361299 0.0472793 0.0034146 -0.0421122 0.0013568 -0.0293201 0.0467624 -0.0523101 0.0190429 -0.0217992 -0.0191122 -0.0530642 -0.0602494 0.0224491 -0.0439989 0.0176437 -0.0324856 0.0561457 0.105954 -0.05468 -0.0191896 0.0292771 0.0610173 0.0463905
/military -0.0219995 -0.0127364 -0.00804451 0.0442399 -0.066811 -0.014711 0.00634282 0.0170085 -0.0358412 -0.013134 0.0034049 0.0175689 -0.00189134 0.0220265 -0.0274953 0.0180151 0.0423077 0.00327775 0.000409939 0.0297635 0.0305572 -0.0231074 -0.0181586 0.00023941 -0.0209506 -0.0463999 -0.0227181 0.0556164 -0.00941114 0.00814921 0.0557791 0.0435352 -0.0443542 -0.0136692 -0.0305319 0.0109879 -0.0165661 -0.0171211 0.0207607 0.0328386 0.0187855 0.00252101 0.0020361 0.016982 -0.0207835 -0.029579 0.0297494 0.0736852 -0.0696341 -0.0211394 0.0500669 -0.0143593 0.0326913 0.082953 0.0429459 0.0131284 0.0958064 0.0107212 -0.0224565 0.0140767 -0.0173208 -0.0452813 0.0128644 -0.0478308 0.00816675 0.0159857 0.0271424 0.0200875 -0.0442971 0.0620386 0.041584 0.0883411 -0.0294506 0.0124036 0.00573094 -0.00340849 -0.0371807 -0.0244399 -0.013842 0.00274977 0.0316906 0.0485004 0.0293825 0.043698 -0.0374135 -0.0102365 -0.0273089 0.0239545 0.0275122 -0.0298487 0.0143562 -0.0273266 -0.0118349 -0.0389134 0.0407293 -0.0726105 -0.0213338 -0.0113997 0.0850818 -0.0227168 -0.00648813 0.0103473 0.0128192 0.0345095 0.0363956 -0.0362366 -0.00895226 -0.0187895 0.0337633 0.0461719 -0.0585348 -0.0434592 0.0362575 0.00187985 -0.064231 -0.0266599 -0.0279691 0.0383662 -0.0225943 0.00594218 0.0181197 0.0390036 0.00458795 -0.00762854 -0.0328406 -0.0188021 0.0574588 0.0343769 0.0253385 -5.35064e-05 -0.0768487 -0.0257766 -0.00929324 0.00704985 -0.0147571 0.0528806 -0.0124409 -0.00384551 -0.0239367 -0.0263231 0.0349781 -0.0156463 0.0217948 0.0331407 0.0281179 0.00859857 0.0213013 -0.0287354 0.0273597 -0.00280705 -0.0118147 -0.0508154 0.0140136 -0.0348876 0.0238853 -0.0485609 -0.0374387 -0.0259772 -0.0708952 -0.103621 0.0107236 -0.0309975 -0.0266513 0.0389133 -0.0245764 0.0137198 0.0786497 0.0450258 -0.0112922 -0.064979 0.0160463 0.00365762 0.032258 -0.000528451 -0.0260268 0.00990555 0.0434923 0.0371905 -0.038981 -0.0538061 0.00631764 -0.0357229 -0.0958242 0.0267573 -0.0370823 0.0044047 0.0192881 0.0384325 -0.00683704 0.000264981 -0.0118389 0.014203 0.0254637 0.0121728 0.0450926 -0.0501349 0.0500583 -0.0284738 -0.037013 -0.0267083 0.00884915 -0.00568116 -0.016778 0.0772126 -0.0304383 0.0148668 0.00476415 0.00844226 -0.0166086 -0.0171216 0.00250363 0.0307846 -0.00573221 -0.0313498 0.0483172 0.0936171 -0.00175078 0.0542335 -0.0273874 -0.0762337 -0.0209169 0.00170605 0.0953501 0.0126099 0.0310979 -0.0262804 0.0227245 -0.0159647 0.00180792 0.0185757 0.00861729 0.0101301 -0.0128043 0.0573123 0.0192037 0.0275347 0.0372326 0.0239279 0.114774 0.0835947 -0.00899151 -0.014037 0.00509462 -0.0694456 -0.0723099 0.0190454 -0.0266356 0.0335811 -0.0201996 -0.067867 0.0208858 -0.00127381 0.0185013 -0.0182719 0.0751241 0.0206301 0.00557303 0.00700327 -0.00642781 0.019507 0.00305192 -0.0635488 -0.0125442 0.0230175 -0.0335045 -0.038017 0.00602012 -0.0108608 -0.0452464 -0.0117337 0.0129491 -0.031899 0.0262687 -0.0304181 0.0196027 -0.0134107 -0.00399502 0.0142962 0.00527712 -0.000961475 0.0206197 -0.0227984 0.0324003 -0.067107 -0.00513353 -0.104191 -0.0500351 0.00713566 0.023643 0.0145639 -0.0588448 0.0549332 -0.00382082 -0.0155571 0.0113673 -0.00681539 0.0230132 -0.00292534 0.0408498 0.0122635
/visual_art/color 0.0447132 0.0653957 -0.00445283 0.0394969 0.11231 0.0612293 0.0433007 -0.0139775 -0.0429758 0.0133302 0.0219017 0.0664002 -0.0583002 -0.0355355 -0.0213757 0.0680684 0.0545736 -0.0357826 0.0704401 -0.0412989 0.0403852 0.0611079 -0.0286509 0.0295442 0.0280293 -0.0148732 -0.0552144 0.0362559 0.0118323 0.0192122 0.0508187 0.00288646 0.0228336 -0.00733603 -0.0620707 0.015286 0.00575712 -0.0107535 0.0139552 -0.0516119 -0.00543635 -0.00675929 -0.026648 0.0335939 -0.0198658 -0.0234965 -0.0248295 0.0315287 -0.0607227 0.0124389 0.0172136 0.000880291 0.00986187 0.0181218 0.0220166 -0.00855936 0.0782886 0.0215471 -0.0451619 0.0361999 0.014096 -0.0171617 0.0142729 -0.0352304 0.0362429 0.0299328 0.0101538 0.00094044 -0.00969798 0.0244027 0.000781902 -0.0139673 -0.0243249 -0.0170981 0.00108706 -0.00960457 -0.014449 -0.0110483 -0.0138074 -0.00498873 -0.00419704 0.0126261 -0.0264771 0.004978 -0.0442931 -0.0386994 0.0116456 0.0270914 -0.0346452 0.00607989 0.0317896 0.0348199 0.0109422 0.0395487 0.00651074 -0.0385356 -0.0253683 -0.0216393 0.0582067 -0.0360676 -0.00641827 0.0493932 -0.0122055 0.00109995 0.085716 0.0101605 0.0556142 -0.0256496 0.0409765 -0.00771003 -0.036378 0.0227558 -0.00265789 -0.00757518 -0.0192563 -0.0247406 0.018508 0.0462187 -0.00763766 0.0405856 0.0284632 0.0181254 0.0744972 0.042698 -0.0896768 -0.00116212 0.0659598 0.0361775 -0.0583346 -0.0200725 -0.0585059 0.019687 0.0179504 -0.0271199 -0.0117608 0.0430599 0.0340769 0.00739354 0.009663 -0.0278312 0.0269467 -0.00288274 -0.0020887 0.028342 -0.055026 -0.063464 0.0163904 -0.034416 0.00315902 0.00865573 0.0256583 0.0176453 -0.0301508 0.0105819 -0.00826348 -0.000789227 -0.0935024 -0.0142897 -0.0366134 -0.112217 -0.00728798 -0.056451 -0.038703 -0.00616767 -0.0150621 -0.0706833 -0.0166243 0.0229971 -0.00544683 -0.00919114 -0.0343238 -0.0194779 0.0214774 0.0279232 -0.00320238 -4.60951e-05 0.00503967 0.0218146 -0.014666 0.0523597 -0.0392033 -0.0259931 -0.0513171 -0.0321626 -0.0747745 0.0842196 -0.042321 0.0242512 0.00142095 -0.00339653 -0.00130258 -0.025957 0.0417552 -0.0489786 -0.0107209 0.0158569 -0.0107082 0.0685488 -0.0008183 0.0224539 -0.0210553 0.0835686 0.0586295 0.0212186 -0.0615224 0.0145572 -0.00464526 -0.0328829 0.00752225 0.0334991 -0.074721 0.0295511 -0.0301593 -0.0065516 0.0592267 0.0141236 0.0226368 -4.80597e-05 -0.0469881 -0.0936466 -0.0118836 0.00190067 0.102087 0.0370534 -0.0302084 0.040307 0.0248965 -0.0294344 0.0114622 -0.0341951 0.016712 -0.00192801 0.0270454 0.0287 0.0430747 -0.0143936 0.0127814 0.00928079 -0.00416404 0.0173697 -0.013526 0.00762997 0.00640657 0.00976351 -0.0342165 0.039045 0.0391809 0.0269053 0.00283517 -0.0635823 0.00564469 -0.0234928 0.0094324 -0.0624834 0.0244103 0.00177112 0.000637639 -0.0279356 -0.00135507 0.0384444 0.0381375 -0.0238012 -0.0200137 0.0197968 -0.0686698 -0.0109077 0.0334803 -0.0691881 0.0103878 -0.0218858 0.0467323 -0.0149648 0.0179521 0.0158409 0.0239504 -0.0209975 0.0111725 0.00928535 -0.0189983 -0.00920205 -0.0103748 0.00213868 0.0460547 -0.0399519 -0.015109 -0.0448962 0.00503823 0.00830888 -0.033946 -0.0122729 -0.0745215 -0.0378646 -0.00499688 0.0425787 0.0220484 -0.0579258 -0.0224555 0.0337342 0.0667958 0.0584551
/law -0.0224582 -0.0571215 -0.0447203 0.00940433 -0.0194411 -0.03171 -0.017952 0.0131608 0.0129254 0.00699312 0.014661 -0.00979669 -0.0611937 -0.0281251 0.0349882 0.00894612 0.0392888 -0.0395157 0.00237694 0.0205487 0.0458025 0.029321 0.0164348 0.0676632 -0.0143074 0.0268677 0.0172665 -0.008757 -0.010188 0.00178379 0.0203599 -0.0124925 -0.00114983 -0.0195903 -0.0736411 -0.010015 -0.0522184 -0.000119683 -0.00605475 0.0224622 -0.0216614 0.0226231 -0.00329271 0.0161942 -0.0551975 -0.0261069 0.0322327 0.0194124 -0.0353098 -0.00575358 0.0181027 0.017448 0.0115366 0.0640161 0.0217316 0.00906774 0.0962338 0.0121031 -0.00294064 -0.0235654 -0.00189165 -0.00679389 -0.0113633 -0.0418809 0.0316058 0.00553069 -0.0356499 0.00187859 0.00659439 0.00617648 0.0261957 0.05603 -0.0473791 -0.0148445 0.0252931 0.00104341 0.0370156 -0.0467499 -0.021749 0.0293851 0.0154895 0.0589067 -0.0108109 0.0301199 0.000752167 0.0707864 -0.0135456 -0.0357959 0.0074841 0.00923633 -0.00846599 0.0173343 -0.00322267 0.0242481 0.00677328 -0.0481099 -0.0147709 -0.00340906 0.0621997 0.000323833 0.0161936 -0.0157756 0.0370356 0.0206663 -0.010642 0.0151654 -0.0163694 -0.00526123 -0.026914 -0.00169595 0.00367217 0.0221973 0.00787371 -0.0114867 -0.00162672 -0.0165502 0.00937427 0.067286 0.0126757 -0.00205821 0.103768 0.0446638 0.0271099 0.0248165 -0.0206821 -0.00296071 0.0258016 0.0246798 -0.0155564 -0.00388662 -0.0394596 -0.0289467 0.0423895 0.00161526 -0.0191072 0.0216087 0.021087 0.0110273 -0.00405934 -0.0406461 0.00692943 -0.0119735 -0.0145399 0.0452677 0.0138858 -0.00109145 -0.00715577 -0.0286363 0.0619674 0.00153274 0.00248862 -0.0237477 0.012473 0.0189052 0.000180059 -0.0423275 -0.00449374 0.00137506 -0.0453212 -0.0253805 0.0208086 -0.0105673 -0.00284263 -0.00249138 0.011641 0.0347126 0.00995051 -0.00483661 0.000705498 -0.0534291 -0.00786665 0.0361733 -0.011966 0.0025804 -0.0178744 -0.0269637 -0.0173465 -0.00241743 0.0124673 -0.0148189 -0.0407685 -0.00868829 -0.0768741 0.0468183 -0.0399795 0.0290299 0.0105248 0.0276123 0.0127608 0.0340182 -0.0301128 -0.0326185 0.035988 -0.0275337 -0.0199727 -0.0140639 0.00303911 0.0304335 0.0112325 -0.0467273 0.0108041 0.0317743 -0.0287965 0.0089357 -0.0186234 0.0367837 -0.00913306 -0.021325 0.0055939 -0.0137834 0.0140269 0.054508 -0.0233404 -0.0523355 0.0273761 0.0533455 0.00464544 0.0400861 -0.01941 -0.0363839 -0.0261129 -0.00308942 0.0629337 0.0136416 0.0208685 -0.0503016 -0.0201016 -0.0404874 -0.0330011 -0.0416794 0.0368385 -0.0511239 0.0197113 0.0734562 0.0391128 0.0236801 0.0331764 0.0102649 0.062655 0.0372358 -0.0236372 -0.0239175 -0.0149302 -0.0032185 -0.00122784 0.0218077 -0.0161734 0.0151374 -0.0244117 -0.0585435 0.00575917 0.0554389 0.109187 0.00332599 0.0630414 0.0904585 0.0197294 -0.0226909 0.0209202 0.0216547 0.0634221 -0.0516085 -0.0710475 0.0416355 -0.0663864 -0.100214 0.017295 -0.0199555 -0.0255711 0.0159379 0.0341655 -0.0377846 0.0288169 -0.0181043 0.00805071 0.0230286 -0.038208 0.0245807 0.00271538 0.00100598 -0.0143566 -0.0302275 0.044486 -0.0501279 0.0186403 -0.0227192 -0.0583485 -0.0198848 0.00185613 0.0252005 0.000279092 0.0322443 0.00419534 -0.000944422 0.00762879 -0.0267513 -0.0258697 0.0264754 0.056809 0.0434867
/location/county -0.0215042 -0.00865717 0.0266551 0.0296399 0.0344725 0.0546935 0.00489506 0.00816232 -0.0472849 -0.0199236 0.0224961 0.0181711 -0.0127359 0.0310159 0.00544454 -0.0389128 -0.00401381 -0.0183274 -0.0168564 -0.0209518 0.0359013 0.00520363 0.00324885 -0.00646883 -0.0131491 -0.00487175 0.00259626 0.0113177 -0.0581499 0.0129567 -0.0181236 -0.00591707 0.0153718 -0.00384066 -0.0452445 8.5887e-05 -0.0396124 0.0110604 0.0314726 0.0100722 -0.00146156 0.0330416 0.00452165 -0.00805391 -0.0569589 0.0585886 0.0362923 0.0194968 -0.0284934 -0.0400812 -0.0311038 0.00909268 0.0107109 0.0346637 -0.0415658 0.0176514 0.0669614 0.0247257 0.0152009 0.00354011 -0.0312178 0.0309039 0.00410727 0.00950947 0.0239629 0.0267327 0.0200652 0.0210161 0.0100896 0.0458719 0.0197455 -0.0389369 -0.0313989 -0.0145219 -0.0239219 0.0236985 -0.0200399 -0.00697312 -0.0377563 -0.0166175 0.00266141 -0.0531321 0.0197683 0.061093 0.0426175 0.0204079 0.00693703 -0.00616179 0.0265046 -0.00966818 0.00188998 0.0186662 -0.00259338 0.00714367 0.00217525 -0.0443814 0.00634961 0.00968342 0.0793847 -0.0584062 0.0026471 -0.00828562 -0.00896248 -0.00566019 0.00575445 -0.0356966 0.010585 -0.0191241 0.0157485 0.00827224 -0.0326785 0.031278 -0.00230403 -0.0253377 -0.0168447 -0.0177488 -0.0257601 0.0752746 0.00935908 0.0203093 0.0397293 0.0387825 0.0310716 0.0474185 -0.0711387 -0.00835487 0.0499254 0.0211995 -0.00159846 0.00682752 -0.0578499 -0.0552733 0.00314725 -0.0309075 -0.0365409 0.00805563 0.0332093 -0.0310416 -0.0251481 -0.0070217 0.0127853 0.0289258 -0.00746331 1.30978e-05 -0.00224692 0.0445486 0.0192901 0.00286304 0.0394726 -0.0131195 0.0496956 -0.0519157 0.00152711 0.0193633 -0.0222829 0.00911545 -0.00582104 -0.0191949 -0.0442464 -0.0442628 0.0397428 0.0220994 -0.0118131 0.00992852 -0.0187958 0.0458311 0.0153168 0.0299666 -0.0423969 -0.0172995 -0.00133923 0.0317059 0.0643371 0.00319307 -0.0248749 -0.0197948 0.0226379 0.0503107 -0.0416422 -0.0212935 0.0360194 -0.0405382 -0.112843 0.0108389 -0.100514 0.0101244 -0.0075433 0.122601 0.0545534 0.0926957 0.0115915 0.0127114 0.0811946 -0.0472334 -0.0534323 -0.00158265 -0.0261872 0.0399409 -0.00100166 -0.00375085 0.013915 0.0340566 -0.0290816 0.0631719 -0.0197797 0.0131433 -0.0147262 0.016269 0.0212674 0.0121444 0.00555642 0.0500888 -0.0249869 -0.0240485 0.0386413 -0.00539922 0.00342235 0.0330898 -0.027461 -0.0573426 -0.0177538 0.0123774 0.030718 0.0309977 0.0786458 0.00344784 -0.0403316 -0.0473785 -0.00820727 -0.0496582 -0.00238767 -0.0190541 -0.0258415 0.0743923 0.0645863 -0.0492598 0.0680503 -0.0502388 0.0559962 0.00877305 0.0443734 0.00975568 0.0270213 0.00496771 -0.0226476 -0.0118018 0.0181573 0.0409253 -0.0081727 -0.0211705 0.0217093 -0.0199738 0.123442 -0.0698576 0.101647 0.105698 0.0512424 -0.00874019 0.0302092 -0.0224472 0.0434154 -0.0798067 -0.104773 0.0763244 -0.0272801 -0.0522119 0.0236531 -0.037829 -0.0185231 0.0221433 0.00852978 -0.0419091 -0.00813773 -0.024852 0.0507112 0.0224302 0.0473951 0.0589299 0.00925356 -0.0176252 0.00187265 -0.0306772 0.0506908 -0.114962 0.00587485 -0.0491572 -0.0211589 -0.0216966 -0.00114369 -0.000582919 -0.0567709 0.000989818 -0.0163673 0.0604299 -0.0117932 0.0169464 -0.0481395 0.0186894 0.0217823 0.0800562
/person/author 0.00908719 -0.0166231 -0.0396024 0.018818 -0.00289759 -3.77738e-05 0.00233389 -0.0129594 0.00438725 0.00455996 0.00617835 -0.00935595 -0.0462326 -0.00136412 0.00923209 0.0121909 0.0434272 -0.0422322 0.00193793 -0.01116 0.0198087 0.00563881 -0.0112941 0.0520795 -0.014548 0.0141278 -0.0137797 0.0229435 -0.00926893 -0.00664166 0.0100089 0.00099013 -0.0129886 0.00301935 -0.0162998 -0.0212214 -0.00164655 0.000531298 -0.00329351 0.0294691 -0.0108691 0.00292237 0.0176992 0.0168201 -0.028428 -0.0097753 0.036815 0.00880841 -0.0491283 0.00488638 0.0225814 -0.00899337 0.00227378 0.0709323 0.0264568 0.00995484 0.0821164 0.0160351 -0.00429769 -0.00346651 -0.00344932 0.0272503 -0.00469986 -0.0213479 0.00153101 0.0173229 -0.0171484 0.00581931 -0.0170325 0.0421478 0.0355531 0.0275106 -0.0197568 0.00244589 0.00539008 -0.0029134 0.00327919 -0.0167059 -0.0204789 -0.010276 0.00060086 0.00134664 0.000971929 0.00279133 -0.0117777 0.0417351 0.0160523 0.0134903 0.00848686 0.0122831 -0.0103013 0.00854499 0.00329541 -0.00523526 -0.0159804 -0.0354099 -0.00986606 0.00967841 0.0610739 -0.0180515 0.00459825 -0.0182986 0.0185107 0.0204942 0.000824976 -0.00645598 -0.0373763 -0.00477772 0.0179763 0.0123433 -0.010569 -0.0186563 -0.00971442 -0.0142005 -0.0133492 -0.0052758 0.00683658 0.0444693 -0.00234644 -0.0156495 0.0488847 0.00959521 0.0340453 0.0175848 -0.0459027 -0.031289 0.029785 0.0249574 -0.0247279 -0.00343911 -0.0603983 -0.0275918 0.0229551 -0.0183185 -0.00260908 0.0265796 0.0181344 -0.000206282 -0.00593857 -0.016359 0.0301361 -0.0483324 0.0100781 0.0666499 -0.00134836 0.014143 -0.00931369 0.00910752 0.0212244 0.0352846 0.0139427 -0.000257627 -0.000432322 -0.0173759 0.0180066 -0.021424 -0.00652099 0.000665716 -0.035603 -0.0547428 0.00279668 -0.00870105 -0.0350329 0.0153506 0.000485618 0.0111056 0.021086 0.0102456 -0.0142778 -0.00585894 -0.0109057 0.0410636 0.0147171 0.0191218 -0.00267928 -0.0361359 0.00870412 0.00929811 0.000165187 -0.0307033 -0.0121736 -0.0378118 -0.0878498 0.00981036 -0.0543697 0.0397211 0.0146043 0.068919 0.0139371 0.0328453 -0.0130253 0.0123292 0.0225964 -0.0234773 -0.0228029 -0.0103499 0.0127082 0.0222928 -0.0144048 -0.00709903 0.00204636 0.0434666 -0.017653 0.0387938 -0.0463487 0.000908968 0.00803022 -0.0104853 -0.0183615 -0.0110696 -0.0197461 0.0344403 -0.0268222 -0.0296968 0.0296437 0.0670265 0.00764985 0.0350517 -0.00795582 -0.0472015 0.0142851 0.0264451 0.0678419 0.029473 0.0158287 -0.0249146 -0.0238004 -0.0547998 -0.0131313 0.0111607 -0.00971169 -0.00739134 0.0229965 0.0600178 0.0560286 0.0176236 0.037328 0.0124181 0.0516605 -0.000829548 -0.0067242 -0.00122059 0.0110245 -0.0154053 -0.0148596 0.00543732 -0.0253617 0.00252808 -0.0198271 -0.0666399 0.0180284 0.00927666 0.050263 -0.0196087 0.0555872 0.0389694 0.0237189 -0.0112323 -0.00602527 0.0111839 0.0362958 -0.040959 -0.024369 0.0225666 -0.0174652 -0.0638683 -0.00596401 -0.0056621 -0.00449046 0.0185737 -0.00203276 -0.0172506 0.0195315 -0.0107478 0.0117133 -0.00948758 -6.47257e-06 0.047204 -0.000938065 -0.0318513 0.00733836 -0.0335222 -0.00248639 -0.0437126 -0.0172889 -0.0521506 -0.0301661 -0.0215848 -0.00629581 0.00548485 -0.0219942 0.0161251 0.00772363 0.0270749 0.00713954 -0.0498724 -0.00812601 0.0257484 0.0131494 0.00607535
/product/airplane 0.00235684 0.0313091 -0.0429193 0.0345198 0.00462342 0.0729925 0.0156179 0.0236138 -0.0370205 0.0283773 0.0178687 0.0249195 0.0168451 -0.010493 -0.0280026 -0.00982828 -0.01908 0.0340053 0.0352364 -0.0405075 0.00808493 0.0250451 -0.0101313 0.0421158 0.00925492 -0.0348323 -0.0154103 0.0467035 -0.0159129 -0.00123057 0.0782907 0.0487738 0.0350262 -0.0333461 -0.0395821 -0.0183073 -0.0496333 -0.00673682 0.0413299 0.0321201 0.00628365 -0.0259668 0.00775457 0.0514906 -0.0574909 0.00399652 0.0589874 0.0262989 -0.0835978 0.00712893 -0.000635847 -0.00771864 0.0202274 0.10465 0.0324209 -0.0222885 0.034623 -9.18514e-05 -0.0494679 0.0289767 0.00951519 -0.0216734 0.0183619 -0.0319124 0.0218534 0.00974709 -0.0104771 0.0377445 -0.0328804 0.00833289 0.0229353 0.058108 -0.0130197 -0.0166709 0.00853213 -0.0544935 -0.012774 0.0131885 0.0310224 0.00206576 -0.000380336 0.00323265 0.0224762 0.0210504 0.0237367 -0.0357241 -0.00857663 0.0082972 0.0371579 0.0124035 0.0210221 0.0201323 -0.00140358 0.000996775 0.0453715 -0.0230651 -0.0183388 -0.0208285 0.0417093 -0.0113205 0.0101552 -0.0140936 0.00392668 0.00264958 -0.0189149 -0.038105 -0.00992134 -0.0149776 0.0245504 0.0473632 -0.0377273 -0.0119943 0.0218258 -0.00755292 -0.0344887 0.01516 -0.0374025 0.078586 -0.0137355 0.0144517 0.0216173 0.0383073 -0.0143122 0.0151921 -0.0868145 -0.0119959 0.0493339 -0.0165887 -0.00129136 -0.0318612 -0.0505379 0.0163192 -0.0501882 -0.0254945 -0.00184956 0.0446842 -0.0361427 0.0105016 0.00420399 -0.0153269 0.00639831 0.0339629 -0.022531 0.0688811 -0.0525018 0.0154931 0.00480224 -0.0227862 0.0614821 0.00530449 0.0184667 -0.0159485 0.0464574 -0.0398365 0.0154603 -0.0220209 -0.0486001 -0.00213625 -0.00565792 -0.104198 -0.0123466 -0.0284269 -0.0356985 0.00739358 -0.0177487 -0.0129314 0.0296032 -0.00457435 0.010336 -0.0359504 -0.028211 0.033636 0.00716721 0.0498867 0.0145234 -0.0546028 0.039822 0.0679198 -0.0605711 -0.0350416 -0.00567128 -0.0583928 -0.141295 0.00885976 -0.0530383 0.0360289 -0.0127279 -0.0049045 0.0389204 0.0721172 0.0059997 -0.0194519 0.0437426 -0.0286812 0.0584235 -0.0266051 0.0422946 0.0519089 -0.0558739 -0.0374576 0.022195 -0.0126351 0.00664807 0.00133166 -0.0068092 -0.0217215 0.000361418 -0.0018881 0.00272859 -0.0273789 -0.0241548 -0.00627238 -0.0203627 -0.0537921 0.0575536 0.0419155 0.0234967 0.0286171 -0.0105282 -0.0835473 -0.00671884 0.0401979 0.0661957 0.0348856 -0.0264249 0.0099582 0.0513394 -0.0115412 -0.0157425 0.00488385 0.03031 0.00438423 -0.0017416 0.00814788 0.0409654 0.0136689 0.0120531 0.0418684 0.0863778 0.0396726 0.00384394 -0.00415073 0.00272564 0.0143141 -0.0767333 0.0563599 0.00741006 0.00751219 -0.0523407 -0.0899063 0.0348222 -0.0004255 0.0316374 -0.0216561 0.0857757 0.0299839 -0.0126928 -0.0063289 -0.0312164 0.0246306 0.0312549 0.00710053 -0.0459062 -0.00167735 -0.0404155 -0.0525499 0.0445762 -0.0143474 -0.0352318 0.0087609 0.0306345 -0.0345931 0.0380546 0.0242389 0.0552345 -0.0208701 0.0359004 0.073706 -0.0188951 -0.0253832 -0.0100834 -0.0272116 0.0434237 0.0212195 0.0134665 -0.0498118 -0.0468853 -0.000691434 -0.0259784 0.0165025 -0.0201793 -0.0064419 -0.0083953 0.0241773 0.00592575 -0.0366737 -0.0385563 -0.0433773 -0.000928546 0.0175554
/event/protest 0.013308 0.0233794 0.0274231 -0.00250331 -0.040138 0.0440254 0.0369387 -0.0162412 -0.0116938 -0.0444095 0.00245161 -0.0241382 0.021069 -0.0181617 0.0240425 0.00779083 0.0265378 -0.0478611 -0.0116951 0.00694639 0.0761899 -0.00461519 0.0354306 0.0481918 -0.0178488 -0.000648848 -0.0662706 -0.00406048 -0.00379904 -0.0315808 0.0381607 0.00877973 0.00275562 0.0171266 -0.0448328 -0.00917797 -0.012304 -0.0127603 0.0107624 -0.000290191 -0.00777842 0.0409268 -0.0165696 0.00954889 -0.0434093 0.0463504 0.0290116 0.0203935 -0.00947314 -0.0464491 0.0706334 0.0381286 0.00476163 0.0930905 0.0436295 -0.000596337 0.116156 -0.0121204 0.0238449 0.0623185 -0.00292958 -0.0384966 0.0322975 -0.0109171 0.05898 -0.00203897 -0.0314704 -0.0263315 0.0111993 0.0615287 0.0156969 0.0442856 -0.0453413 -0.0425163 0.0294282 0.0260779 0.0339721 -0.080929 0.0285659 0.0109302 0.0475102 0.0432513 0.0797925 0.0872361 -0.046248 0.0730783 0.0410697 -0.00289728 -0.00174402 0.019815 0.0259896 -0.0219037 0.00391406 -0.016939 0.0239266 -0.0337005 -0.0352654 0.0920417 0.0789654 -0.0548168 -0.0169561 -0.0204499 0.0294513 0.0138415 0.0889537 -0.0422762 0.0236162 -0.0326351 -0.0259003 -0.0812536 0.0534318 0.034095 -0.0248677 -0.0377716 -0.0241932 0.0165766 0.0594224 0.0850874 0.0614114 -0.0150555 0.0430391 -0.0286947 0.023077 0.0365068 -0.0588241 -0.040712 0.0517983 0.0603153 -0.0271416 0.0579152 -0.0937865 -0.0279907 0.00575775 0.021414 -0.0290239 -0.023493 -0.0208318 0.0280667 0.00805135 -0.0697736 0.031509 -0.0656416 0.00435616 0.0431946 -0.0249319 0.0400802 0.016706 0.00434254 0.079586 0.0433828 0.000974856 -0.0313205 0.00907948 0.0404814 -0.000692515 0.0329571 -0.0425349 -0.0205416 -0.00667931 -0.00467182 0.0200549 -0.075551 -0.0315237 0.0197864 -0.0242959 0.0424844 0.0294991 0.00625598 -0.000210897 -0.034993 -0.0112661 0.0488277 0.0401087 -0.00210292 0.000443541 -0.0185595 0.0224521 -0.00997135 -0.0127778 -0.0561242 -0.0682673 -0.0920561 -0.0473531 0.0335031 -0.028367 0.00861183 -0.00952622 0.0321331 -0.00958867 -0.00150573 -0.0365368 0.0573324 0.0415158 -0.0691072 -0.0193502 -0.0170634 -0.0433878 0.0184985 0.0196794 -0.0166097 0.0178998 0.0654396 0.017261 0.018068 -0.0339578 -0.00189592 -0.0466375 -0.0110052 -0.040968 -0.017559 0.0244098 0.0972857 -0.0141718 -0.0368277 0.0456552 0.0775437 0.0453483 0.0364079 -0.00103097 0.00169046 -0.000295532 -0.0237587 0.0820863 0.00852871 0.0229737 -0.0483439 -0.0182915 0.00213634 -0.019405 -0.0227473 0.0365282 -0.0491794 0.0250265 0.075782 0.0160725 0.00596761 0.0542721 0.0268941 0.109382 0.0183368 -0.0189626 0.0223405 0.00905756 0.0098522 -0.0054073 0.0628896 -0.0582239 -0.00558619 -0.0584853 -0.0521054 -0.0267208 -0.00953158 0.0654313 0.0539611 0.0470113 0.00677001 0.00175242 -0.0441725 0.00704596 0.0507495 0.0213076 0.0338094 -0.0247985 0.0146859 -0.0232745 -0.0126198 0.0369716 -0.0155598 -0.0163549 0.0258419 0.0165753 0.038613 -0.0273459 -0.0024905 0.022487 0.0239478 -0.0317384 0.00703733 0.0468546 -0.0109031 -0.00133131 0.0119805 0.0536133 -0.0521028 -0.023517 -0.00553895 -0.100706 0.00958998 -0.00453318 0.0347484 0.0148353 -0.0537091 0.0136274 0.00866613 0.0124104 -0.0667183 -0.0635467 0.0131677 0.0466811 0.0168397
/metropolitan_transit/transit_line 0.0615774 0.021757 -0.03365 -0.0269369 0.0730968 -0.0216267 0.0154983 -0.0754537 0.0302513 -0.0107175 -0.000838824 0.00248516 0.013474 -0.00922526 0.00636329 -0.0137203 0.00263908 0.00382215 0.0310447 0.0848325 -0.025904 -0.0603251 -0.0379658 -0.0170329 0.0369008 -0.00960157 -0.0921846 0.0765375 -0.0760502 -0.123111 0.0159485 -0.0195831 0.0212071 -0.00233383 -0.116223 0.00142605 -0.0490221 0.0259058 -0.088434 0.0307944 -0.00689536 -0.0243287 -0.00844688 0.0388356 -0.0337393 -0.0322898 -0.0265924 -0.04037 -0.0632884 0.0611364 0.0338365 0.0195976 0.0419988 0.0677005 -0.0412763 -0.0768823 0.0681328 0.01433 -0.0202859 0.0342131 -0.0519807 -0.00693491 -0.000626138 -0.0481871 0.0100667 -0.0321298 0.114953 -0.0131453 -0.0248249 0.047353 0.0422052 0.0474913 -0.0673776 -0.0360335 0.0120438 0.0120373 0.0576421 -0.0168074 -0.01194 -0.0052264 -0.0124595 0.0362897 -0.0337488 0.00349539 0.0212611 -0.0102158 0.0169716 -0.0161834 0.0102578 -0.0649191 -0.026006 -0.03836 0.0338395 -0.0828394 0.0133229 -0.0910048 -0.0401899 0.000914037 0.129359 0.0103677 0.101053 -0.0257488 0.0851224 -0.0296246 0.0524278 -0.0218075 0.00521405 -0.0068996 0.0115568 0.0100866 -0.0275733 -0.0622271 -0.00105936 -0.0168412 -0.0289263 -0.0026094 0.0194573 0.0580775 0.00652401 0.038461 0.0615961 0.0917751 0.0018879 0.070852 0.032449 -0.0261559 0.00703126 0.00269375 -0.0111685 -0.0452865 -0.0745772 -0.0598373 0.0369516 -0.00914801 -0.00833238 0.0372745 0.0157341 -0.0165395 -0.0122525 0.0060309 -0.00628646 0.0525683 -0.0497134 0.0582701 0.00634047 0.00875013 0.0596104 0.0016343 0.0808084 -0.00374084 0.05627 0.00940447 0.0614369 0.0504818 -0.0232074 -0.0990203 -0.0295699 -0.005942 -0.0290238 -0.119331 0.0783024 -0.0390722 -0.0513585 -0.0335935 -0.0595507 -0.00957594 -0.0691821 0.0278748 0.0207774 -0.000292239 0.0229861 0.0492129 0.0573599 0.0160099 -0.0489545 -0.0396885 0.0666285 0.0291586 -0.0173404 -0.0493879 -0.0241157 -0.09928 -0.120931 0.10108 -0.0287722 0.0702225 -0.0298713 0.00607731 0.0431243 0.0537186 0.0436326 0.00583953 0.0360944 -0.0626088 0.0386889 0.00347858 -0.094597 0.0238109 0.00277802 -0.0356002 0.0381483 0.0347206 0.0231193 -0.0308529 -0.0439744 0.0219336 -0.0390646 0.00673776 0.0127382 0.0297625 -0.0849952 0.0138847 0.042697 -0.00539434 0.0446069 -0.0116524 0.0233689 -0.000334883 0.0304493 -0.0936294 -0.012959 0.0617006 0.117654 0.0611564 0.0297266 -0.0963223 0.024738 -0.0409317 -0.0454764 0.00123218 -0.0300908 -0.0320704 -0.016799 0.0111634 0.00548849 0.0127644 -0.00793988 0.0187627 0.117416 -0.0644097 0.058981 -0.0101037 -0.0257039 0.0273103 0.0374213 0.0692171 -0.0270959 0.0542135 0.0276562 -0.045657 -0.00883344 -0.0138539 0.0531491 -0.0496024 0.00399879 0.0631222 0.0433554 0.0458301 -0.0190584 -0.015555 0.016972 -0.0823703 -0.0164527 0.0451787 -0.00834241 0.0203569 0.0883183 -0.0761003 -0.0413156 -0.0474006 -0.000239432 0.0143483 -0.0455478 -0.0134794 0.0464183 0.00526152 0.0833368 0.0200445 0.0363101 -0.00943027 -0.0552586 -0.0785671 0.0316536 -0.0304333 -0.0463135 -0.00987284 -0.00369894 -0.0815899 -0.00218139 0.0442368 -0.0569622 0.0110809 -0.0465818 -0.0156771 0.0252016 0.0362057 0.0559959 0.0158689 0.0479928 0.0634741
/person/architect 0.0095086 -7.71304e-05 -0.0522441 0.0497661 0.0096872 0.0761435 0.00863529 -0.0164813 -0.00733842 -0.000643262 0.0344353 -0.027779 -0.0844072 -0.0271803 -0.0134129 0.0417034 0.070815 -0.0967931 0.0236599 -0.0206357 0.0221285 0.0251868 -0.00697675 0.0385638 -0.0202457 0.0340621 -0.0195904 0.0285227 -0.055411 -0.0235911 0.033267 -0.0130228 -0.0177458 -0.0152061 -0.0256222 0.00811088 -0.0025117 -0.000407759 0.016434 0.0233587 -0.0213204 0.00434442 0.0237629 0.0295931 0.0130105 0.00150804 0.00800957 0.0307835 -0.0385793 -0.00423835 0.0118594 0.00518877 0.0192501 0.0846318 0.0219106 -0.0130009 0.0316587 0.0247463 0.0478464 -0.0189597 -0.00384508 0.047504 0.0044206 0.0125708 0.00065664 0.00385699 -0.0169828 -0.02546 -0.0218945 -0.0102838 0.0130396 -0.0200583 0.00450691 0.00707084 -0.00477652 -0.00483766 0.0151167 0.0101572 -0.0306478 -0.0004697 0.00854082 -0.00770035 -0.016037 0.0132423 -0.010968 0.0527491 0.0108184 0.0379757 0.0068825 0.00740784 0.0230395 0.0107224 0.0125042 0.00721725 -0.0122966 -0.0221797 2.05445e-05 0.00782252 0.0754102 -0.0502283 0.00540262 -0.0288949 0.00160641 0.0262804 -0.0410002 0.0054108 -0.0309319 -0.021045 0.00330486 0.00883259 -0.0435158 -0.0166993 -0.00175694 -0.00551446 0.0232776 -0.000980285 0.00997236 0.0531238 -0.0136701 0.000749305 0.0132712 -0.00414859 0.0118736 0.0169188 -0.106781 -0.0257704 0.0669326 -0.00263099 -0.0547603 -0.00542997 -0.090517 -0.015711 0.0169874 -0.0111637 0.00911698 0.000376825 0.0261136 0.0010015 0.0162696 0.00871001 0.0201263 -0.00743874 -0.0201518 0.126481 -0.00584304 0.0360667 -0.0177327 0.00458922 0.0270817 0.089524 0.048193 0.00030734 -0.00671597 0.00639828 0.0271189 0.0230646 -0.01314 0.0140185 -0.0343237 -0.0492447 0.0293029 -0.0457656 -0.0522981 0.0226238 0.00451442 -0.0013101 0.0319928 0.0323907 -0.0117699 -0.0440144 -0.0289197 0.00783263 0.0241728 0.0501279 0.0260341 -0.0334975 0.0409447 0.0418493 -0.0024233 -0.00189446 0.011398 -0.0218606 -0.11316 -0.00281026 -0.0936729 0.0865294 -0.0136617 0.0503743 0.0519895 0.0892419 -0.0155641 0.0076035 0.0706166 -0.0494039 0.0109425 -0.0157641 -0.013446 0.00831194 -0.0380457 0.000284869 -0.0510595 0.030802 0.0074335 0.0125143 -0.0340519 -0.0158894 -0.00320021 -0.026762 0.00311197 -0.00243359 -0.0275877 0.0588787 -0.0146153 -0.0141705 0.0270914 0.0463278 -0.00169484 0.0235769 -0.0239084 -0.0818382 0.0217981 0.0111835 0.0940313 0.0477898 0.0523312 0.0241334 0.00580466 -0.0532598 -0.00258821 -0.000447887 0.00978132 0.00659826 0.0308699 0.0330079 0.0527814 0.0136995 0.0462658 0.0134361 0.0800913 -0.021975 0.000595095 -0.00741192 0.0132357 -0.0023993 -0.0142187 0.00401054 -0.0358358 0.0237062 -0.0460963 -0.0676995 0.032388 0.0374433 0.0578468 -0.0229762 0.0791707 0.0165585 0.0276812 -0.00193867 0.0131182 0.00509147 0.0367529 -0.0416981 0.00331528 0.0147872 -0.0345386 -0.0582083 0.00968767 -0.0217011 -0.0109743 0.0178838 0.0132476 -0.0501728 0.0249908 0.0220015 0.00142769 -0.00820506 0.0304609 0.0774696 0.00475201 -0.0159963 0.00455445 -0.0529141 0.0222984 -0.0296144 0.00894375 -0.0285274 -0.0134687 0.0044782 -0.00899716 0.0250086 -0.037902 -0.0112232 -0.0231582 0.0556082 0.0123208 -0.000770829 -0.00451778 -0.00393014 -0.0270598 -0.00156663
/livingthing/animal 0.0236457 0.0797171 -0.0427112 0.0683183 0.0368854 0.0943833 0.023717 0.0858993 -0.0452032 0.0284501 0.0241561 0.00665744 -0.0264431 -0.0186413 0.0265512 0.0235551 0.0352243 -0.0247863 0.0941404 -0.0764569 0.0277869 0.0488104 -0.0534611 0.0559664 0.0161707 0.00275094 -0.0459291 0.0935739 -0.041346 0.0161831 0.036698 0.0155743 0.0381722 -0.0217343 0.0133528 0.0137902 -0.00593761 -0.0335571 -0.0314933 -0.0303003 -0.0241038 -0.0190572 0.0156616 0.0135404 -0.0103518 -0.00474256 0.011008 -0.000890877 -0.0619872 0.00854658 0.00675415 -0.0160245 0.0142918 0.0573445 0.0151135 -0.00312495 0.0804883 0.0272909 -0.0541384 0.0711968 0.0143663 0.0105489 -0.0310423 -0.0237639 0.0195442 0.0523369 0.0402416 0.0689947 -0.00172869 -0.0180454 -0.0128816 0.0314831 -0.0246513 -0.0374685 0.0500401 -0.0343663 -0.0223656 -0.0274268 -0.022883 0.00133923 -0.0267781 -0.0258847 0.00437261 -0.00964531 0.00704424 -0.0346349 0.0142523 -0.00898246 -0.00756698 0.00842666 0.0162725 0.0341999 -0.0538671 0.019108 0.00315139 -0.0303008 0.0156568 0.00010828 0.0159526 -0.0568095 0.0214223 0.00201915 -0.00216545 -0.0138696 0.0174068 -0.00333982 0.00517825 -0.0110969 0.025433 0.0272343 -0.0197829 0.0381855 -0.0238735 -0.00261948 -0.0220939 -0.0173033 0.0219557 0.0493157 -0.0285976 -0.00368225 0.0349194 0.0857676 0.0216871 0.0317171 -0.104298 -0.0227355 0.0387933 0.0127588 -0.0198296 -0.020332 -0.0285861 0.00603557 -0.0211245 -0.0358515 -0.000962573 0.0166904 0.00742283 0.0118416 -0.0097631 -0.0577749 -0.00579047 0.0291805 0.00417468 0.045658 -0.0350141 -0.0128587 0.000366567 -0.0195855 0.0108837 0.00343618 0.0250319 -0.0125781 -0.0247202 -0.010915 0.0122294 -0.0202959 -0.0858618 0.0188413 -0.0114882 -0.125978 0.00458044 -0.0289102 -0.0507372 0.0279776 -0.0289019 -0.0254446 0.00837236 -0.0367377 -0.0218018 0.00511527 -0.0147496 0.0619125 0.0352336 0.0058335 -0.00894216 -0.069804 0.00238873 0.00747493 -0.0674516 -0.00931105 -0.0179076 -0.0422279 -0.129974 0.00119598 -0.0199595 0.0397748 0.00267194 0.0254158 0.0290089 0.0346171 -0.0317298 -0.0281826 0.0163102 -0.0423717 -0.0263761 -0.0206891 0.0101583 0.0324319 -0.0477461 -0.00548232 0.00837656 0.0335883 0.017065 0.0342994 -0.0452912 -0.0136542 -0.0324836 -0.0975184 0.00219322 0.0303282 -0.0273125 -0.0379101 -0.0247876 -0.0327353 0.0984991 0.0774232 0.010193 0.015795 0.0159797 -0.103418 -0.0286509 0.000140334 0.0366664 -0.0106564 -0.0135299 0.0494945 -0.00804021 -0.0225467 -0.0197577 0.00977933 -0.0248178 -0.0384294 0.00801367 0.0325931 0.001922 0.029186 -0.0255807 -0.0168395 0.0697967 0.0187164 -0.00292187 -0.0318199 0.00903602 0.00659666 -0.0328134 0.0119441 0.0306868 -0.0400907 -0.0544964 -0.0918576 0.030091 0.0255298 0.012839 -0.0326696 0.00218195 0.0252086 0.00795094 -0.0390963 -0.025036 0.0311085 0.0187012 0.00987066 -0.026514 0.0367088 -0.057799 -0.0435635 0.0398566 -0.0286067 -0.0210274 0.0311895 0.050148 -0.0227903 0.0425746 0.0262845 0.0331364 0.0123856 0.014662 0.0342793 -0.0423797 -0.0311051 0.00292614 -0.00719804 0.0247566 -0.0492116 -0.0255423 -0.0360088 0.00519478 -0.033968 -0.0344952 0.0129018 -0.0102983 -0.0110239 -0.00445748 0.00581319 -0.00375123 -0.0741369 0.00219605 0.00261702 0.0247053 0.00315444
/newspaper 0.0302712 -0.0124487 -0.0214181 0.0381856 0.0194669 0.0385714 0.0261822 -0.0112911 -0.0247346 0.0266896 -0.00900288 0.0157929 -0.0142977 -0.00166142 0.00563814 0.0153885 0.0170829 -0.043848 0.0711456 -0.0025018 0.0365057 0.0386858 -0.0289675 0.0435679 0.00949881 0.00424785 -0.0224573 0.0224261 0.00439476 -0.00810718 -0.00202281 0.0133433 0.0166796 0.000707404 -0.0183088 -0.0488361 0.0153579 0.0133507 0.00965131 0.0129505 0.025123 -0.0163803 -0.00903671 0.014387 -0.0363986 0.0224603 0.0374564 0.0240686 -0.0449569 -0.0207264 -0.00136195 0.00467879 0.0073959 0.0522554 0.003435 -0.0128441 0.0600542 0.000821334 -0.0366569 0.0221739 0.0127806 0.0153252 -0.00118126 -0.0167434 0.0277634 0.0367291 0.0106885 0.0358527 -0.0194671 0.0233703 0.0395449 0.0261644 -0.00403779 -0.0301317 0.0420611 -0.0278872 0.0171681 0.0109896 -0.0113387 0.0171381 -0.00766649 0.00473752 -0.0221147 0.0180207 -0.00607413 -0.0052961 0.00526117 0.0171468 0.0168176 -0.0214684 0.000897524 0.0142275 -0.00413375 0.0182487 -0.0134392 -0.0227111 -0.00392923 0.0224871 0.0698163 -0.046546 0.0139156 0.00030042 0.00213219 0.0275145 0.030098 -0.0148224 -0.0170412 -0.021331 0.0244315 0.00238501 -0.0196054 -0.000851242 -0.00431834 0.00631324 -0.0391209 -0.0156395 0.0126289 0.0463163 0.00865591 -0.0129862 0.0321772 0.0132352 0.0384039 0.0135077 -0.0650246 -0.00336443 0.0469325 0.0276098 -0.0338887 -0.0075711 -0.0600846 -0.0240374 0.0357 -0.0253254 -0.0183276 0.0199727 0.0400603 -0.00764906 -0.00571614 -0.0205 0.00335941 -0.00405541 0.00376346 0.0501902 -0.0126461 0.00347365 0.0189212 -0.00912367 0.0195757 0.0167591 0.00912527 0.00795563 -0.00303117 -0.011793 0.0211813 0.00751532 -0.0270359 -0.00622121 -0.0427628 -0.087673 -0.00212645 -0.0348243 -0.0424712 0.00127386 -0.0213541 -0.00711155 0.0176492 0.00449986 -0.0148261 0.0108455 -0.0349839 0.0206602 0.0187918 0.0178394 -0.0165737 -0.0423405 0.0283794 0.000942786 -0.0236595 -0.011363 -0.00333959 -0.0522662 -0.0872142 0.018677 -0.0439043 0.0293927 0.00410771 0.0429402 0.0276412 0.0299574 0.0115242 -0.00182411 0.0556199 -0.0348737 -0.0189399 -0.0112245 -0.00510309 0.0398419 -0.0192982 -0.01407 -0.00991693 0.0411988 0.0317591 0.0734722 -0.0579936 -0.0221909 -0.00614247 -0.0261073 0.0169596 0.0117533 -0.0319647 0.0510365 -0.0196791 -0.0278861 0.0463256 0.0260378 0.0187795 0.0231709 -0.00607779 -0.0210562 0.0339051 0.0313738 0.0799625 0.0585128 -0.00501813 -0.0195681 -0.00841957 -0.0288001 -0.02648 -0.00483685 0.00623504 -0.014721 0.036151 0.0445449 0.0428332 0.0210136 0.0302567 0.0147786 0.0522391 -0.00846594 0.000483428 0.022687 0.00744673 -0.0215107 -0.0121697 0.00685041 -0.00564138 0.0365287 -0.0271578 -0.0680972 0.0145345 0.0429932 0.00149669 -0.0425292 0.0310998 0.0253844 -0.00143072 -0.00635721 -0.0186468 0.00421599 0.0352236 0.0110477 -0.0147102 0.0247943 -0.030665 -0.0480594 0.0478692 -0.0361467 -0.0433682 0.0164698 0.00845038 -0.0335854 0.0105852 0.0142784 0.0403035 -0.00741981 0.0395945 0.0247125 0.0153073 -0.0404424 0.0229386 -0.0173019 0.0272842 -0.0463029 0.00538383 -0.0607399 -0.0460487 -0.039387 -0.0493447 0.029802 -0.0239838 0.00950637 -0.0132002 0.0252517 0.0366435 -0.0281166 -0.0258905 0.0350118 0.0520627 0.0132541
/transportation/road 0.0504558 -0.0355563 -0.0510554 -0.0135266 0.0551075 0.0396298 0.012901 -0.0220195 0.0298 -0.0197212 -0.0211587 0.0444076 -0.00538258 0.0159127 -0.0102155 -0.0159768 -0.0246119 -0.00665868 -0.0107789 -0.00320138 -0.0287542 -0.0281765 0.015817 -0.0102805 -0.00651692 -0.00367509 -0.0302176 -0.0142546 -0.032854 -0.00532784 0.0310948 -0.00750909 0.0222213 -0.0369258 -0.081084 -0.0393552 -0.0714372 -0.0122553 -0.00941716 0.0452649 0.0124454 -0.0146458 0.0167242 0.0754972 -0.0890199 -0.0255792 0.0392072 0.0169854 -0.00562011 -0.0169679 0.0185011 -0.0135769 -0.0240423 0.055616 0.013895 -0.0504938 0.0346085 -0.00889079 -0.057326 0.0285445 -0.04247 -0.00291769 0.00838481 0.0108278 -6.80995e-05 -0.0279288 0.0462443 0.0170334 -0.000341093 0.0476074 0.0249363 0.0477803 -0.026838 -0.00223653 0.0130848 -0.0357918 -0.0344064 -0.0346819 -0.00173037 -0.0282569 -0.0090535 0.00534472 -0.00299454 0.0170781 -0.00454836 0.00784673 0.022007 -0.0257731 0.0303696 -0.00348775 -0.00735065 0.00333643 0.00988812 -0.00379925 0.0019017 -0.0138123 -0.0335928 -0.00234416 0.0471393 -0.00828764 -0.013628 0.0126577 0.00543103 0.0119034 0.0118517 -0.047929 -0.0135711 -0.00349466 0.00528017 -0.00787316 0.00640362 -0.00548139 0.00549995 -0.0105933 -0.0548641 -0.0305697 0.000590425 0.0166547 -0.00897285 0.0250802 0.0395213 0.0136346 0.0117075 0.0778304 -0.0473457 0.0124675 0.0130412 -0.0249602 -0.0348572 0.00988175 -0.0459144 -0.048415 -0.00439364 -0.0280466 -0.00431925 0.047582 0.0185253 0.056112 0.000190335 -0.0117091 0.01473 0.00149247 -0.0226951 0.0654415 0.00304955 0.017686 0.0371053 -0.0139698 0.0556672 -0.00247398 0.064867 -0.0200052 0.0185872 -0.00503916 0.000625718 -0.00874695 -0.0489436 -0.010245 -0.063094 -0.0770877 0.0211401 -0.0787205 -0.0602012 0.00540299 -0.0155803 0.0167956 -0.0201785 0.022681 0.00397142 -0.00505715 -0.0330806 -0.0138826 -0.0419619 0.0424829 -0.0247171 -0.00774721 0.0170999 0.0341998 -0.048444 -0.0210154 -0.0201067 -0.0626139 -0.124398 0.052656 -0.0619151 0.0582828 -0.0266876 0.0775984 0.0512122 0.0348934 -0.0135157 -0.024279 0.0596396 -0.0638657 -0.0480145 -0.0136902 -0.0404541 0.0641221 -0.0220313 -0.0453398 -0.0114971 -0.0213964 -0.0181044 0.00374535 -0.00921768 0.0544298 -0.00303862 0.0418966 0.00404024 -0.0244439 -0.0425343 0.0260292 0.00385729 0.00441347 0.0348457 -0.0113342 0.0205314 0.013509 0.00994011 -0.0822692 0.00702024 0.00893305 0.0871111 0.0447397 -0.00013804 -0.0358023 0.0158105 -0.0143554 -0.0273006 -0.00921956 0.00399017 -0.00228842 0.0175675 -0.0132361 0.0414086 0.00809684 0.0282737 0.0122258 0.0457265 -0.0137903 0.019672 0.0288751 -0.0106331 -0.0228818 -0.0400681 0.0474108 -0.00142041 0.015939 0.00113864 -0.0653996 -0.0119916 0.0373524 0.0346362 -0.0276797 0.0966372 0.0823459 0.0345055 0.0104917 -0.0300293 0.0247076 0.0731787 -0.0478406 -0.0622215 0.0577975 -0.0407108 -0.0644926 0.0503995 -0.0399127 -0.011105 -0.00120848 0.000981495 -0.00646598 0.020362 -0.0328237 0.0738375 0.00309172 0.0257105 0.0225553 -0.00917253 -0.0504327 0.00536977 -0.013554 0.014665 -0.051116 0.0350505 -0.0138016 -0.00855383 -0.0129969 -0.0112208 -0.00648599 -0.0115874 -0.0101881 -0.0489096 0.0251694 0.0360452 -0.0189607 -0.0367369 0.00726651 0.0119959 0.0302542
/building/airport 0.0230052 -0.00758635 0.0214484 0.00320763 -0.00504505 0.0366735 -0.00147958 -0.0506943 -0.016593 0.0193186 0.0394993 0.0877061 0.0320731 -0.0254969 0.00231234 0.0363526 -0.0262422 0.0807135 -0.00280156 -0.00804307 -0.00264905 -0.00674817 0.0121281 0.0186122 -0.0242975 -0.00994612 -0.0676281 0.053634 -0.0654951 -0.0329906 0.0228856 0.0189305 -0.00827973 -0.0101642 2.30865e-05 -0.0368754 -0.000757591 -0.0241269 -0.00314905 0.0717829 0.0262536 -0.0360479 -0.0104079 0.0700418 -0.00412973 -0.0292221 0.0417404 -0.0162746 -0.0826652 0.059652 0.0681653 -0.0414957 -0.00476279 0.0441476 0.0294962 0.000647594 -0.00629804 -0.0594662 -0.065857 0.0729761 0.00896862 0.0205588 -0.026017 0.00889023 0.0660715 -0.00567051 0.0151959 0.0629425 -0.0792831 0.00320796 0.0553575 0.061503 0.0233298 -0.0347225 0.00637333 -0.0542277 -0.0209655 0.019198 -0.0235024 0.0180845 0.0168406 0.0259931 -0.00425063 0.00703375 0.0360547 0.00866286 -0.0284681 -0.0510304 0.042716 -0.0106411 0.010268 0.000251184 -0.0263445 0.039728 -0.00712593 -0.0388818 -0.0589686 0.0159102 0.132602 0.0398679 0.0171146 -0.0291098 0.0171172 0.0284841 -0.00373134 -0.0464992 -0.00581124 -0.00363411 0.0209015 0.028969 -0.0107511 -0.00788881 -0.0283523 0.00309732 -0.0481755 -0.00656787 -0.0315602 0.0587155 0.0255757 0.010646 0.0212468 0.0357531 -0.00414968 0.00141423 -0.0310857 -0.0139638 -0.0127102 -0.0243463 -0.0325774 -0.0576049 -0.0612698 -0.0439353 -0.0154887 0.00349961 0.00344369 0.009766 0.0513798 -0.0105652 0.055451 -0.00368456 -0.00772093 0.0394055 -0.0412067 0.0326797 0.0309374 0.00753406 0.0282411 -0.0681226 -0.0117543 0.03944 0.0132881 -0.0173445 0.0017798 -0.00413601 -0.0119097 -0.0487361 -0.0150528 -0.0247828 -0.0631925 -0.0447606 -0.00103273 -0.0269787 -0.0555249 0.0611146 -0.0094794 -0.00498475 -0.00958352 0.0433966 0.00750512 -0.0183027 0.0162336 0.0382172 0.0286267 0.0127857 -0.013108 -0.00556018 0.0504302 0.0393931 -0.0592666 -0.0339903 -0.00708963 -0.0163941 -0.0712208 -0.0165609 -0.0768277 -0.0371507 -0.0107121 0.0305714 0.0113111 0.0188878 0.0211087 0.0152563 -0.0129843 -0.00806124 0.0554567 -0.0581721 -0.0339759 0.0321001 -0.0134775 -0.0439041 0.0033662 -0.041625 0.0191365 -0.0218236 -0.0523809 0.0129118 0.0173513 -0.00359579 -0.044049 0.0117723 -0.045544 0.0242111 -0.00953977 -0.0595073 0.0516814 0.064852 0.102574 0.10278 -0.0368502 -0.0816644 -0.00330705 -0.00382074 0.0665768 0.0577199 -0.0455323 -0.0337999 -0.0188118 -0.0175361 0.019072 -0.0212885 0.053184 -0.0275385 -0.0253505 0.0165758 0.0728778 -0.0162657 0.0225418 0.0449326 0.0673776 -0.00302322 0.0307003 -0.012199 -0.00181699 -0.0296526 -0.0729136 0.0336249 0.00213357 0.0314866 -0.00831111 -0.041703 0.0452351 0.00962796 0.0261863 -0.0551507 0.0902106 0.0402967 0.00396098 -0.0197897 0.0165597 0.0325151 0.068289 -0.0364291 0.0146899 0.0798116 -0.0329017 -0.121129 0.0225376 -0.0561923 -0.0592906 -0.0275033 0.00824933 -0.0110794 0.0323558 -0.0580614 0.0460162 -0.003106 0.0852016 0.0389818 0.00844358 -0.0474232 0.00850666 0.00239037 0.0726749 -0.0989726 -0.00593385 -0.0536717 -0.0753047 0.0300431 -0.0388609 -0.0280984 -0.0149579 -0.00296416 -0.0336336 0.0012687 -0.0233316 0.0486689 0.0225195 -0.0168577 0.033739 0.0788959
/person/musician -0.00755782 -0.0199421 -0.0180159 0.0284326 0.0199751 0.045319 0.0153572 -0.000443214 -0.0281182 -0.00925641 0.0223288 -0.0072964 -0.0120553 -0.0327575 0.014942 0.011473 0.0934001 -0.0477044 0.082878 -0.0523259 0.0429395 0.0525088 -0.00167997 0.0549398 -0.00693453 0.0223241 -0.0576214 0.0397386 -0.00464753 -0.00451531 0.00558647 -0.018742 -0.00761129 0.00196009 -0.0524539 -0.0443264 -0.00242366 0.0294177 0.016284 -0.00334117 -0.00369937 -0.00828222 0.00524672 0.0219844 -0.015946 -0.00904654 -0.0226176 0.0133776 -0.0459875 -0.0172175 -0.00287152 -0.0473682 0.000193229 0.0824728 0.0617085 -0.0149076 0.0581146 0.0323871 -0.0157816 0.0333012 0.0112328 -0.0179089 -0.0232627 -0.031465 -0.00604668 0.0109387 -0.00595545 -0.00550109 -0.00251635 0.0418505 -0.00115088 0.00683816 -0.0403766 -0.0163415 0.0138884 -0.00677214 0.0322128 0.00911715 -0.0120005 -0.00179253 -0.0147103 0.0274635 0.00564458 0.0397183 -0.00460956 -0.0122628 0.0186351 -0.00386671 -0.0420128 -0.0164245 0.00117938 -0.0034126 -0.00728464 0.0446466 0.0206592 -0.0504871 -0.0240796 0.0377653 0.0212408 -0.0215166 0.0389348 -0.000476823 0.00357385 0.00553737 0.0334221 -0.0393887 -0.0130434 -0.0304789 0.00660534 0.00491055 -0.0252979 -0.0131899 0.00751796 -0.00799077 -0.0109782 0.00110155 0.0448086 0.0329904 -0.0071904 -0.0175681 0.0275085 0.00436633 0.0180195 0.0226038 -0.106383 -0.0248578 0.0753602 0.0138137 -0.0583823 -0.00494639 -0.0360236 0.0123627 -0.00781726 -0.0262906 0.0513031 -0.0155128 0.024661 0.0210917 0.010207 -0.0175735 -0.00842913 -0.0146601 -0.0233123 0.0854143 -0.0191078 0.0181448 0.0082836 -0.0137505 0.0378883 0.0351532 0.00738134 -0.0254113 -0.0190923 0.00144639 0.0479001 -0.0105352 -0.0454125 0.000602285 -0.0206511 -0.0755026 -0.0166531 -0.0147699 -0.0215512 0.0468133 0.0140213 -0.0150504 0.0126255 -0.0102563 -0.0127747 -0.00854149 0.017292 -0.00741125 -0.00209765 0.0676542 0.015843 -0.059318 0.0497819 0.0366459 -0.00756491 0.0291484 -0.012684 -0.04288 -0.0883495 0.0522128 -0.0401889 0.0563918 -0.00188341 0.0419274 0.0194705 0.0437998 -0.0153281 -0.00313654 0.0234405 -0.0172173 -0.00842833 -0.0189778 0.00815565 0.0344132 -0.0296578 -0.034794 -0.0267122 0.070612 -0.00528302 0.0302151 -0.0794644 0.00523082 -0.00874429 -0.0628144 0.0107041 0.0063974 -0.013852 0.0178773 -0.047745 -0.0267942 0.073201 0.0488449 0.0257979 0.0346167 -0.0146601 -0.0620349 0.000291374 -0.016677 0.0819825 0.0334564 -0.000291015 -0.00436209 0.0292618 -0.0491768 -0.041793 -0.0155376 0.020269 -0.00283544 0.0103331 0.0758264 0.0509582 0.0382152 0.007202 0.0229224 0.0386712 -0.039337 0.0157028 -0.00791009 -0.0141394 -0.0181379 -0.02471 0.0241871 0.0108239 0.0218264 -0.0413133 -0.0684581 0.00145403 0.015589 0.0298618 -0.053115 0.059756 0.0169107 -0.00697821 -0.00403397 -0.0403202 0.0281575 0.0321283 -0.0070567 -0.00599983 0.0233354 -0.0232341 -0.020443 0.0384102 -0.0252446 0.0100609 0.0187361 -0.0171321 -0.0206746 0.0271967 0.00690386 0.0199359 -0.00404741 0.0104531 -0.00878583 -0.00663148 -0.0210708 0.00987153 8.35521e-06 0.0278467 -0.0493815 0.0271948 0.000255469 -0.0120684 -0.0457833 -0.036914 0.00477175 -0.0276524 0.0117696 0.00331862 0.00754488 0.0162079 -0.0305585 -0.000726893 -0.0127725 0.0137142 -0.000974362
/product/spacecraft 0.00966109 -0.0140952 -0.0671483 0.0328088 -0.0226479 0.0289262 -0.0151125 -0.0352984 -0.0290836 -0.0269755 0.0114684 0.0283767 0.0195015 0.0313046 0.00562847 -0.0170248 -0.00651677 -0.00595973 0.0347374 -0.00685305 0.00713635 0.0269591 -0.0245946 0.0380682 0.000896565 -0.0267094 -0.0394806 0.000903826 -0.0568018 0.0266538 0.034084 0.00516284 0.0321716 -0.00635428 -0.0638527 -0.0439973 -0.0226308 -0.0212716 -0.0116488 0.0471564 -0.00905893 -0.0182774 0.026207 0.0460391 -0.0657728 -0.0409762 0.0167987 0.00311444 -0.0379141 -0.0350324 0.0173896 0.0152194 0.00135589 0.0917516 0.0289412 -0.0531352 0.0100718 0.0439384 -0.0409744 0.0576401 -0.025737 -0.0317885 0.0117443 -0.035558 -0.00643413 -0.0108662 -0.0172655 0.0249403 -0.0298082 0.0210013 0.0125194 0.0577125 -0.0159731 -0.0248667 0.00840447 0.00298304 -0.0205044 -0.00285788 -0.0112658 0.018465 -0.0104741 -0.00671333 0.00113552 0.00649705 -0.000197166 0.00713456 0.00431253 0.012817 0.00673666 0.00253097 -0.0314836 -0.0100085 0.00719931 0.0350861 0.0218262 -0.0263618 -0.0411469 -0.00710804 0.0758106 0.00644201 0.0174957 -0.0329139 0.0106387 0.0110454 0.0220021 -0.0372094 -0.0120579 0.0106927 0.0369095 -0.00304511 -0.0117177 -0.0113619 0.00476543 -0.0156173 0.0107096 0.0204116 -0.0110611 0.0376858 -0.00490411 -0.000683907 0.0259552 0.021046 0.0217421 0.0483555 -0.0732108 -0.0291818 0.0172517 -0.0143709 -0.00317916 -0.0042795 -0.0699157 -0.0376215 -0.0149773 -0.0441845 0.0016141 0.0259318 0.00844608 0.0352602 0.00361467 -0.0128127 0.0236138 -0.00530702 0.00622069 0.0830335 -0.0355474 -0.0275802 0.025979 0.0108611 0.0281148 -0.00259666 0.0221131 -0.00697903 0.0179075 -0.00665017 0.0321137 -0.00991812 -0.0236221 -0.032391 -0.0517506 -0.0690662 -0.00221979 -0.0456707 -0.0183649 -0.00934095 0.0178881 0.0412561 0.00105292 -0.00413346 0.0198313 -0.00412604 -0.0336131 0.016132 -0.0159054 0.0255528 0.0348595 -0.0406528 0.0332664 0.0293194 -0.0297846 0.00476152 -0.0117658 -0.0487854 -0.0827962 0.0131335 -0.0519371 0.0438049 -0.0153075 0.0343064 0.045142 0.0133755 0.0101045 -0.00251092 0.0470253 -0.0332716 0.0201322 -0.000161334 -0.0172836 0.0628887 -0.00355924 -0.00477342 -0.0068997 0.0246589 -0.0221773 -0.00923104 -0.0427793 -0.0184345 0.0216457 -0.0185718 0.0247467 0.00486147 -0.0166628 0.0240363 -0.0367279 -0.0249719 0.0467395 0.0449973 0.0494648 -0.00193746 -0.00408785 -0.0501336 0.00618621 0.0118757 0.0839059 0.0469734 -0.0177516 0.00640691 0.0441645 -0.00196018 -0.0203564 0.00603004 0.0109113 -0.0145976 0.0198852 0.0294366 0.0469178 0.0482607 0.00991436 0.0372522 0.0500597 -0.0096179 0.0196523 -0.00676545 -0.00793243 0.00160946 -0.0466125 0.0219624 -0.0540539 0.0111708 -0.0343421 -0.0758943 0.0185308 0.0509939 -0.00554299 -0.00849045 0.0285451 0.0192288 0.0106484 -0.0413431 -0.0264073 0.0590133 0.0683116 0.00566732 0.031519 0.0367478 -0.037336 -0.0616014 0.0460335 -0.0448002 -0.0185075 0.0102998 0.0224474 -0.0423276 0.0189864 0.0313097 0.0391071 0.0198897 0.00204879 0.0302492 0.030106 -0.0533303 -0.0269114 -0.013295 0.0296417 0.0178754 0.00526769 -0.0714176 -0.0270149 -0.0233363 0.00568306 0.00792785 -0.0419865 -0.0304012 0.0130892 0.0670234 0.0564101 -0.0590089 -0.0775932 0.024437 0.0522091 0.0352772
/location/city -0.00278069 -0.00487289 0.0136908 0.0104694 0.0165641 0.0139692 -0.0612566 -0.0190277 -0.028962 -0.0167912 0.0111978 -0.00433486 -0.0344135 0.0232526 0.0024259 0.00183154 -0.00545252 -0.0140352 0.00294749 -0.0214634 0.0602306 0.0224794 -0.0337287 -0.00482111 -0.0138289 -0.0116938 -0.0277976 0.0176352 -0.0308948 -0.000509214 -0.00559107 -0.0187229 0.0181221 -0.0113177 -0.0602794 -0.032283 -0.028014 0.0169588 -0.00233584 -0.00871126 0.0126921 0.0970827 -0.0106134 0.0123971 -0.0594349 -0.0146338 0.0511762 0.0205346 -0.0126114 0.00642753 0.0230343 0.00963024 0.0210177 0.0597584 -0.0152127 0.000268226 0.0461401 0.0328916 -0.0074156 -0.0225498 -0.000748158 0.00832189 0.00320277 0.0223271 0.000353798 0.00282958 0.0418746 0.0227842 -0.00188801 0.0188582 0.0094867 0.0195622 -0.0142058 0.0240232 -0.000603989 -0.00309017 0.0126156 -0.00175807 -0.00034956 -0.0293101 -0.0253652 -0.0150812 -0.0141735 0.0405263 0.00702829 0.00703555 -0.025485 -0.0225569 0.034044 0.00323377 -0.00236496 0.0242145 0.00119598 0.0324246 0.0247457 -0.0347898 -0.0309034 0.00534379 0.0519807 -0.0278413 0.00615739 -0.00448674 0.0182347 -0.00263451 0.0210071 -0.0194152 -0.0175864 0.00247512 -0.0292612 -0.0138978 0.0103878 -0.011126 -0.0282246 -0.000127644 -0.0171714 -0.0254047 -0.0283671 0.0446405 0.0377214 0.00882919 0.0776278 0.00250114 0.0334274 0.0340834 -0.0307063 0.0075857 0.0148239 -0.00831286 -0.0183865 -0.0336271 -0.0564721 -0.0403979 0.0623466 -0.0332557 -0.0124406 0.0142611 0.0110483 0.00529322 -0.00897781 -0.0377807 0.0239261 0.00493838 -0.0346637 0.0315118 -0.0106996 0.00164266 0.0436371 0.0469161 0.00327389 0.0586474 0.0022421 -0.00331465 0.0067127 -0.00753611 -0.00329966 0.0327152 -0.0245784 0.000583733 -0.0303713 -0.0252677 0.00527045 -0.0246565 -0.0275764 0.030092 -0.0161349 0.053922 0.0111688 0.0203575 -0.0138863 -0.0155606 -0.00169329 0.00534906 0.0248196 0.064667 -0.0249289 -0.0291017 -0.0113 0.0129744 -0.0455307 0.00782488 -0.0314669 -0.0338251 -0.102497 0.00839368 -0.0507425 -0.0223876 0.00219686 0.0560108 0.040103 0.059445 -0.0135 0.00779238 0.0279303 -0.0388803 0.0073283 0.0116698 -0.00243341 0.0350297 0.00710102 0.00441325 -0.017267 0.0051758 0.00909281 0.0694619 -0.0141669 0.00298247 -0.0147623 -0.0222311 0.0287476 0.0218831 -0.00503211 0.0217286 -0.0207041 -0.0332711 0.044597 0.0378355 -0.00787416 0.0198822 -0.0330232 -0.0415231 -0.00438844 -0.000572588 0.0712957 0.0346538 0.0249138 -0.0303546 -0.0176686 -0.0858633 -0.0516521 -0.0415333 0.0208365 -0.0284817 0.0050612 0.096543 0.0795712 -0.00815366 0.0481126 -0.00525378 0.0402049 0.00381834 0.0442027 0.017592 0.0386225 0.0139648 -0.0019192 0.0325851 -0.0609092 0.0227374 -0.0235695 -0.0497764 0.0394552 0.0405751 0.10405 -0.055541 0.0900153 0.0882957 0.00015482 -0.00998922 -0.0130682 -0.0129925 0.0738707 -0.0615542 -0.108404 0.0267114 -0.0677891 -0.0683377 0.00732127 -0.028333 0.0100137 0.0216876 0.0308858 -0.041661 0.0263429 -0.00369775 0.0454047 -0.0154541 0.0290568 0.0573931 0.0124432 -0.0276624 0.0238865 -0.0132899 0.0266174 -0.0728578 0.0468591 -0.0611339 -0.0829463 -0.0494 -0.0111786 -0.00330103 -0.0357947 -0.00451287 -0.0282069 0.0127014 0.0300699 -0.00652599 -0.00390185 0.0323867 0.0259007 0.0505304
/event 0.00875114 0.0158727 -0.00446232 0.0054938 0.00387427 0.0388261 0.00510537 -0.00667781 0.0339697 -0.00563105 0.0105817 -0.0106464 -0.0379491 0.00916283 0.000151918 -0.00442497 0.00860193 0.000116474 0.0350093 0.0178761 0.0464066 0.0134015 0.0417915 -0.00121154 0.00741249 0.0297114 -0.0245681 0.0289288 0.00618755 -0.0206553 0.0255417 -0.0142103 0.014584 0.010917 -0.0480084 -0.0346105 -0.0242596 0.0126968 0.000788857 0.0208721 0.0273898 0.026874 -0.00414743 -0.019138 -0.0651811 -0.00622562 0.0838382 0.0331982 -0.0225749 0.00483282 0.0419332 -0.0100589 -0.0252032 0.0750531 0.0448572 -0.0175286 0.0539342 0.0268866 -0.049862 0.0148138 -0.0350869 -0.0138406 -0.0030436 -0.0226468 0.0277058 0.0345102 0.0200768 -0.006409 -0.0211938 0.00821496 -0.0102893 0.0314006 -0.0156742 0.00886846 0.0211822 0.0244443 -0.00787656 -0.0297456 -0.0289106 -0.00112072 -0.00114867 -0.00408034 -0.0119856 0.0394619 -0.00322172 0.00761738 0.00628345 -0.0283507 0.0112425 -0.000386878 0.0241198 -0.0100273 0.0219298 0.0472825 0.0127448 -0.0464715 -0.0196234 0.0318728 0.0568319 -0.0287641 0.0676548 -0.0276153 0.00386817 0.0214568 0.0647557 -0.0447188 -0.0399328 -0.0041525 -0.0149976 -0.00588344 -0.0232477 0.0153906 -0.0112174 -0.0200998 -0.00756273 -0.00207152 -0.00302451 0.0627811 0.015768 0.00178089 0.0639616 0.0277219 0.0193875 0.0182513 -0.0749085 0.0092593 0.0511621 0.0146862 -0.0018128 0.0152766 -0.00424198 -0.0360542 0.0122207 -0.0116315 0.0100873 0.0105467 0.0182093 0.027551 -0.0117501 -0.0170854 -0.0138919 0.00409102 -0.0123949 0.075248 -0.0246226 0.00957316 0.00255181 0.00490108 0.0323168 0.0098789 -0.0311696 -0.0308862 -0.0146943 -0.00298563 0.0249058 0.0162685 -0.0137128 0.0157327 -0.0188 -0.0398161 0.0217222 -0.0558959 -0.0217976 -0.0174336 0.000946336 0.00238729 0.0196928 0.0147109 -0.00723526 0.0134961 0.00155149 0.0569217 0.00648625 0.0323879 0.0191716 -0.0504364 0.0310892 0.0125828 -0.0356387 -0.0166215 -0.0582417 -0.0508935 -0.0300243 0.0223959 -0.0287955 0.0566443 -0.00443078 0.0421658 -0.00973647 0.0493208 0.000103441 -0.00366984 0.0115081 -0.0151356 -0.0173644 -0.00182371 -0.0206374 0.0456086 -0.0277707 -0.0303042 0.00916099 0.0519194 0.00402565 0.0661388 -0.0669324 -0.00975418 -0.0258439 -0.0355462 -0.00728589 -0.0362539 -0.00514782 0.0590063 -0.0106023 -0.0301337 0.0647763 0.0711216 0.0179207 0.00931284 -0.0354703 -0.0250258 -0.0185855 -0.0267283 0.0726094 -0.00213132 -0.00477134 -0.0303605 -0.00815333 -0.0233221 -0.0144831 -0.00719739 0.037808 -0.0382124 -0.0101586 0.0813085 0.0318847 -0.0041234 0.052041 0.0206919 0.0436743 0.0139423 -0.0127126 0.00940132 0.0053109 -0.0418686 -0.0162195 0.0345436 -0.0244547 0.0638069 -0.013314 -0.0357158 0.0370286 0.0576866 0.0405093 -0.0210941 0.0743204 0.0819445 -0.00148294 -0.000222587 -0.0240458 0.053678 0.0212336 -0.00253187 -0.0646633 0.027625 -0.0532797 -0.0606102 0.00133421 -0.0500367 0.00157577 -0.0130215 -0.0020636 -0.018179 0.00372788 -0.00852348 0.00563715 -0.00103692 0.00988324 0.0393894 -0.00592584 -0.0106 -0.0276711 -0.013207 0.0144149 -0.0399288 -0.000690762 -0.0157309 -0.0510827 -0.00146485 0.00174107 0.0452424 0.00238398 0.00801229 -0.000912865 0.00913675 0.00595012 -0.0205135 -0.0412084 0.0231437 -0.00190187 -0.00101798
/government_agency -0.0242957 -0.0342706 -0.00616769 0.0197676 -0.00588673 -0.024229 -0.00364168 -0.0264692 -0.0118934 -0.0137288 0.0124887 -0.000905254 -0.0349347 -0.012202 0.0204202 0.00717221 0.0282803 -0.0434916 0.00770523 0.0104587 0.0328924 0.0117743 -0.0171765 0.0345585 -0.00759444 -0.0112262 0.0196051 0.00709382 -0.0243747 0.00258686 0.0364927 0.000452011 -0.0208061 0.0175196 -0.0326001 -0.00792715 -0.000146841 -0.0156202 0.00259306 0.0352675 0.00241571 0.013616 0.024218 0.0101985 -0.0400293 -0.014744 0.0467768 0.0212059 -0.0459529 0.0214931 0.0312244 -0.0282314 0.00951084 0.0810412 0.0316382 0.0311539 0.0793349 0.017274 -0.00575018 0.0253447 0.00664295 -0.000247002 0.0261443 -0.0273559 0.0221252 0.0382389 0.00966569 0.00688318 -0.0285605 0.0580832 0.0522834 0.0446126 -0.0180809 -0.00233864 -0.0229193 0.0223081 -0.0129518 -0.0317751 -0.016479 -0.0205597 0.00566842 0.0310098 0.0125634 0.0237503 -0.0255728 0.0147561 -0.0030818 0.00462706 0.00287416 -0.018805 0.00484214 -0.00444768 -0.0171333 0.00139184 0.00714246 -0.047149 -0.00198126 0.0175795 0.0900556 -0.0359656 0.00197405 -0.0341688 -0.00122315 -0.00191196 -0.00804653 -0.0137255 -0.0146534 0.00120089 0.0163831 0.0208435 -0.0493569 0.00129928 -0.0116486 -0.0128008 -0.0370347 -0.0220374 -0.0108029 0.0492029 0.0035297 -0.0234196 0.0574608 0.00946793 0.0281992 0.00129662 -0.0449647 -0.0202078 0.0266843 0.027649 0.0109092 0.00534172 -0.0769305 -0.0215088 -0.0128882 -0.000998792 0.00497769 0.0456898 0.0295134 0.00845192 0.00142922 -0.0126586 0.0346731 -0.0308387 0.0332761 0.0391903 0.0304597 0.00360951 -0.013596 -0.00751907 0.0525441 0.0226581 -0.015027 -0.0125988 -0.00930241 -0.00510262 0.00439924 -0.0420858 -0.00320019 -0.00944311 -0.0308223 -0.0285476 0.01976 -0.0212139 -0.0447737 0.0152205 -0.022019 0.0426457 0.0223312 -0.00319527 -0.00568975 -0.0233245 -0.00883133 0.0247303 -0.00842522 0.0265287 -0.0283589 0.0095889 0.000110491 0.0168166 -0.011991 -0.0176213 -0.0116525 -0.0401331 -0.0797471 0.0249994 -0.0329101 0.0190957 0.021228 0.0577319 -0.00856734 -0.0190614 -0.0176157 0.0197923 0.0406682 -0.00344336 -0.0149689 -0.0328307 0.0154522 0.00750314 -0.0121742 0.0122893 0.0171106 0.0159455 -0.0119943 0.0520783 -0.0341672 0.0265688 0.010154 -0.0156721 -0.023003 -0.0119212 -0.000804103 0.0382719 0.0101361 -0.0359529 0.0557483 0.0762707 -0.000632628 0.0519288 -0.00589283 -0.0537893 -0.00172279 0.0240349 0.0464301 0.0183018 0.000747825 -0.0586112 -0.00643836 -0.0509781 -0.0222786 0.0252584 0.0263381 -0.0205277 -0.0121424 0.0560471 0.0173064 0.0307739 0.0266826 0.00746864 0.0715268 0.0138696 -0.0198484 0.0099243 -0.00236928 -0.0013798 -0.0326381 -0.0156151 -0.0242721 0.0281222 -0.0211935 -0.0801541 0.0286196 0.0136617 0.0673486 -0.0135837 0.0817634 0.0639812 -0.00893654 -0.0181863 0.0136959 0.00406746 0.0536741 -0.0436042 -0.0656427 0.031796 -0.0433719 -0.061526 -0.0107466 -0.00756508 -0.0221916 0.0221796 0.00468971 -0.0410292 0.00375864 -0.0345461 0.0323751 -0.00823488 0.0106049 0.0434936 0.00472499 -0.018581 0.00626469 -0.0258678 0.00511369 -0.0737362 -0.00280301 -0.0995972 -0.0506518 -0.0320537 0.0135473 -0.00581002 -0.0148762 0.0268291 0.00541928 0.0367163 0.0287155 -0.0170344 0.00499485 0.01119 0.0274619 0.0458815
/building/library 0.0212103 -0.00303842 -0.0705584 0.0569858 -0.0129951 -0.015524 -0.0401683 -0.0922003 0.0660381 0.0132031 -0.0240186 0.00968189 -0.0227337 -0.0231682 -0.0106553 0.020425 0.0287534 0.0620548 -0.0196592 -0.0329844 -0.0318519 0.038541 0.0142829 0.0194659 -0.0073796 -0.00182937 -0.000566825 -0.0108771 0.0166648 -0.0239484 -0.0050234 -0.0130488 -0.0370206 0.056614 -0.075393 -0.0070269 0.025603 -0.00980246 0.037995 -0.00197849 -0.103656 0.0542132 -0.0159994 0.0438474 -0.0644515 -0.0238959 -0.00129921 0.00952895 -0.0690717 -0.0114592 0.0267156 0.0050018 -0.0541679 0.109162 0.0473508 -0.0101626 0.0673936 -0.0190431 -0.0930472 -0.00430887 0.0287364 0.0182463 0.0547923 0.0174665 0.0520901 0.0339433 0.0364641 0.0876665 -0.0741326 0.0241041 -0.0351382 0.0415045 0.0558427 0.0233337 0.0090714 0.0195457 0.0432167 -0.00954202 -0.0244667 0.00809205 0.00791894 -0.0220044 0.0140734 0.00683515 0.0485862 -0.0226438 0.0526615 -0.00468899 -0.0124707 0.00779066 -0.0408449 0.00960426 0.0487729 0.054925 -0.0614917 -0.0748728 -0.0265683 0.0378024 0.0570661 -0.00512178 0.00369627 -0.0981021 0.0228499 0.0260477 0.0565463 0.0200033 -0.0191481 0.0311521 0.0262131 -0.0185941 -0.0173132 0.0364692 -0.042045 0.0014413 -0.0160918 -0.0293512 -0.000503125 0.0606287 -0.00643233 -0.0413703 0.0952186 0.00351434 0.0289313 0.00639184 -0.0677627 -0.0174913 -0.000148131 0.0872813 -0.0197501 0.0389398 -0.0829192 -0.0475852 0.0827254 0.0335841 -0.00972283 0.0205986 -0.00394325 0.00302642 0.0249054 0.0605772 0.0604357 0.0536945 -0.0169491 0.0571064 -0.0233169 0.0239973 -0.0159891 0.0427919 0.0487185 0.122132 0.039101 -0.0154384 -0.00290963 -0.0271001 -0.0151241 -0.0454067 -0.00675611 -0.0205635 -0.0595545 -0.0713771 -0.0327499 -0.047257 -0.122948 -0.0144219 0.0256157 0.038887 -0.0264964 -0.00723929 0.00269977 -0.117036 -0.0467827 0.0120793 -0.0189295 0.0327774 -0.0182867 0.0130452 0.0350526 -0.0654348 -0.0476036 -0.0984191 -0.0177791 0.0340451 -0.141963 0.0330994 -0.0747467 0.0119849 0.0599373 0.103545 0.055307 0.0415726 0.0322862 -0.0208846 0.0342426 0.0158448 0.0625789 -0.057566 0.0713639 0.0251554 -0.00688273 0.0113125 0.0403945 -0.0120385 0.0584354 0.0344517 -0.0522935 0.0173842 -0.0389501 -0.00225761 0.00415425 0.0614395 -0.0168358 0.00890697 -0.0644599 0.0163466 0.0197915 -0.0185098 0.0754607 0.0357726 -0.00138438 -0.00399708 0.0946746 0.0220788 0.00898733 0.0802912 0.011234 -0.0270188 -0.0154352 0.0473387 -0.00878691 0.0443273 -0.0441686 -0.133981 0.014526 0.0502672 0.0441386 -0.010213 0.0465112 -0.0189902 0.0564955 -0.0311009 0.0040137 0.039243 -0.0285467 -0.049024 0.0515299 -0.00370803 -0.0687052 0.0949798 0.0121536 -0.104757 -0.0011473 0.0747801 -0.00970201 -0.127595 -0.0082571 0.0964299 0.0232106 -0.0120921 -0.00618788 -0.0151146 -0.0104374 -0.0348736 -0.0443678 0.0589408 0.012421 -0.0555078 0.0247459 -0.0094835 -0.0137359 0.0560805 -0.0258035 0.00825234 0.0212056 -0.0390574 0.111646 0.00355326 0.0656478 0.0373898 0.0283472 -0.0417492 0.0232597 -0.0876067 -0.000422716 -0.0813943 -0.0537206 -0.0915041 -0.0493216 -0.0731867 -0.0238072 -0.00576147 -0.0365318 0.0552674 0.0126378 0.000778301 -0.00641096 0.0104176 0.0164116 0.0567803 -0.00539975 0.00364722
/product/ship 0.00540335 0.00380449 -0.0357264 0.0406998 -0.0308604 0.0135975 0.0103548 -0.00174858 -0.0323468 -0.0151329 -0.0123936 0.0159265 -0.000831993 -0.0083906 -0.00320549 -0.00149194 -0.0194521 0.00631128 0.0569627 0.0251162 -0.00487482 -0.00203689 0.00295603 -0.00858897 0.0344412 -0.00550905 -0.0548877 0.00244982 -0.0337342 0.0322651 0.0252598 0.0283233 0.0381499 -0.00349603 -0.0360272 -0.00571885 0.0187118 0.00456391 -0.0373452 -0.00737287 -0.00469842 -0.00214612 0.0262546 0.00355456 -0.0246268 -0.0501157 0.0130717 0.0313477 -0.0536902 -0.0203338 0.0251132 0.0297196 0.0125999 0.077416 0.0342093 -0.00309843 0.00910392 0.00750667 0.0049232 0.0204944 -0.0177011 -0.033637 -0.00297098 -0.0430583 0.00252017 -0.018676 -0.0164097 0.041923 -0.0353997 0.0427703 0.00390386 0.0425902 -0.00411327 -0.0426035 0.0142747 -0.0450581 -0.00756379 -0.0211235 0.000457486 0.0189221 0.00236354 -0.0163698 0.00444431 0.0492963 0.00675757 0.00455769 0.00785832 -0.00298813 0.00142218 0.00232783 0.01366 0.0221353 -0.00748534 0.0256616 -0.00574374 -0.0359331 -0.0311791 0.0489665 0.0475279 -0.0298506 0.0277485 -0.0109848 0.0276027 0.0242652 0.0213226 -0.047434 -0.0321449 -0.00245691 0.0414812 0.0258357 -0.00370977 -0.000219604 0.00949103 0.0347033 -0.00392468 -0.00411114 -0.0149205 0.0630669 -0.0173382 0.0145776 0.0345353 0.0182825 0.00570825 0.071645 -0.0809915 -0.0284178 0.0593717 -0.0102517 0.00856639 -0.0128004 -0.0681793 -0.0406964 -0.0113772 -0.0557609 -0.00212465 0.0186167 -0.0169891 0.0047014 -0.00359959 -0.0595174 0.0153614 0.0334355 -0.0023346 0.0355552 -0.00927533 -0.0274371 -0.0139442 -0.0330422 0.0636351 0.0139739 0.0418421 0.0107136 0.0235592 -0.00724689 0.0362981 -0.00366566 -0.0424124 0.0214928 -0.0444341 -0.0825703 0.0233951 -0.0211685 -0.0259891 -0.0383228 -0.0199545 -0.0277207 0.00602651 -0.0201921 -0.00187386 0.0141655 -0.0278957 0.00901082 0.00769478 0.00346283 -0.0289855 -0.0274824 0.0545431 0.0247014 -0.0317042 -0.021707 -0.0308211 -0.0754705 -0.09618 -0.00980658 -0.0455337 0.0588868 -0.0260893 0.0118563 0.0177993 0.048257 0.0116322 -0.0127502 0.10798 -0.0429277 0.0211531 -0.0316506 0.0139248 0.0238476 -0.0413834 -0.0267278 -0.00316237 0.0657099 -0.0149768 -0.0191813 -0.0711009 0.00915378 0.0238771 -0.0324533 0.00359199 0.00795217 -0.0273018 0.0321736 -0.00671995 -0.00241137 0.0388039 0.0563806 0.0292171 -0.00595097 -0.0115065 -0.085274 -0.0160188 0.0312982 0.0876393 0.0382924 -0.00692493 3.81461e-05 0.0169065 -0.0357734 -0.000600701 0.0113215 0.0206873 -0.0488356 0.0158532 0.0198052 0.0221812 0.0405934 -0.0111225 0.0100171 0.111794 0.0413138 0.0144982 0.0225765 0.0191406 -0.0145943 -0.0363063 -6.67965e-05 -0.0412678 0.0339936 -0.0436509 -0.069802 -0.00179027 0.0204528 -0.0154225 -0.0371578 0.0205943 -0.0231937 0.0230174 -0.0068143 -0.0456852 0.0170457 0.0367141 0.0172933 0.0108671 0.0370546 -0.0446456 -0.0832905 0.0389576 -0.0183676 -0.00585254 0.0519512 0.0331106 -0.0221525 0.0443834 0.0209938 0.0235937 0.017052 -0.00838935 0.00166645 0.00278549 -0.00831478 -0.0308857 -0.0202805 0.0103829 -0.0353912 0.0122526 -0.0656541 -0.0147088 -0.0193142 0.0029133 0.00215582 -0.0295329 0.0223479 0.0243919 0.0142906 0.0465917 -0.0705324 -0.0584643 -0.0110499 0.0379688 0.0609133
/person/engineer 0.00629991 -0.0398696 -0.0391928 0.0286959 0.0119115 0.0288849 0.00448006 -0.0269259 -0.0188795 -0.0166084 0.0139047 0.0114473 -0.0184003 -0.019082 -0.00144568 -0.0125069 0.0127126 -0.011776 0.0513874 0.00718573 0.0227076 0.0427736 -0.0288303 0.0484115 -0.0202747 -0.0103332 -0.00403425 0.0419696 0.00105054 -0.000538083 0.0264982 -0.0076638 -0.00422121 0.0368461 -0.0276599 -0.0540863 0.0170049 -0.0177599 0.0251003 0.0584592 0.0197413 -0.0210663 -0.00197627 0.00628824 -0.0382517 0.000968496 0.0271025 0.0181554 -0.0463807 -0.0077635 0.00462628 -0.0207412 0.0287511 0.0938242 0.0412831 -0.0380914 0.038591 0.0219399 -0.043019 0.0299849 0.0129191 -0.0104593 0.02716 -0.0374077 -0.00954268 0.0127745 0.0129062 -0.0023351 -0.00941316 0.0387219 0.034967 0.0296956 0.00802869 0.0300774 0.0122168 0.00759876 0.017767 0.00496504 0.0142702 0.00440181 0.00789662 0.00249042 -0.028363 0.00433188 -0.00227759 0.0155944 0.0183758 0.002034 0.01862 -0.0174951 -0.0104875 -0.0176823 -0.0131208 0.0093356 0.00637742 -0.00715016 -0.00537937 0.0121416 0.04314 -0.0201477 0.0404906 -0.0320165 0.0159161 -0.00132755 0.0146791 -0.000645721 -0.00581063 -0.0004218 0.0378674 0.0347391 -0.0261061 -0.00249787 0.0103957 -6.28169e-05 -0.0282504 -0.0106732 0.00924883 0.0491682 0.0166527 -0.0322773 0.0385398 0.00495325 0.028646 0.0246436 -0.0831738 -0.00914987 0.0547348 -0.00221598 -0.0453409 0.00204985 -0.0411583 -0.0199466 0.013925 -0.012356 -0.0194652 0.029283 0.0296979 0.00159504 0.0141684 -0.0130759 0.0265371 -0.0313561 0.0123858 0.0702548 7.55731e-05 0.00805301 0.000417418 0.0112604 0.0379367 0.0272318 0.0220919 -0.00785019 0.00327476 -0.0216047 0.0316498 -0.00188995 -0.0156313 -0.0023532 -0.0227786 -0.0795443 -0.0174662 -0.0279555 -0.0493526 0.0150484 -0.00797252 0.00733018 0.0183492 0.00878694 -0.0105594 0.0192856 -0.0399088 -0.00866648 0.0175943 0.0345043 -0.000840038 -0.0414207 0.0263691 0.00405319 -0.0130993 -0.0229964 -0.00774808 -0.0284923 -0.0552757 0.0121427 -0.00107182 0.025329 0.00252582 0.0501117 0.0107851 0.0356339 0.0196893 -0.00743384 0.0166709 -0.0106468 0.0170716 0.000132275 0.000431092 0.0282723 -0.0365795 -0.0264575 0.000620839 0.0250742 0.00513546 0.0408679 -0.0799221 -0.00319976 7.13816e-05 -0.05078 0.0118951 -0.0149727 -0.0142084 0.0299776 -0.00548189 -0.0286208 0.0245627 0.043747 0.0426866 0.0222886 -0.00779151 -0.02608 0.0147999 0.0237702 0.035534 0.020029 0.0106771 -0.0177366 -0.0101894 -0.0269082 -0.0204081 0.0250597 -0.00575834 -0.00792584 0.00948144 0.0627761 0.0543374 0.0207196 0.032555 0.00215919 0.0856948 -0.0130711 0.00587788 0.011407 0.00702254 -0.0227697 -0.0455466 -0.00264812 -0.0186606 0.0533703 -0.0228359 -0.0627006 0.0290726 0.059908 0.0294862 -0.00910882 0.0379599 0.0621573 -0.0198253 -0.0120523 -0.0232445 0.0329497 0.0229219 -0.00414258 -0.0181394 0.0428148 -0.00103722 -0.0309287 0.0351115 -0.0161345 -0.0270475 -0.0169597 -0.00355158 -0.0280332 0.0193864 -0.023374 0.0519045 0.00866005 0.0139499 0.0575759 0.0144905 -0.0403567 0.00668402 -0.0408197 0.0282311 -0.032572 -0.000154934 -0.0483396 -0.0625148 -0.0322004 -0.0272384 0.0104997 -0.0334435 0.00539206 -0.00785165 0.0194747 0.0336821 -0.048306 -0.00563213 0.0510977 0.0468066 0.00322382
/person/politician 6.14464e-05 -0.0043145 -0.0133226 0.0220402 0.00185141 0.0135551 0.0139583 -0.0216231 -0.0138697 0.00100228 0.0259747 -0.0275128 -0.0386648 -0.0247759 0.00234537 0.0266901 0.0938363 -0.107554 0.014426 -0.0102756 0.0315359 0.00790212 0.00216706 0.0541477 -0.0482301 -0.00499076 0.00331896 0.0244854 -0.0198728 -0.039649 0.0113488 -0.00227829 -0.00724825 -0.00639916 -0.0228441 -0.00870847 0.0270954 -0.00439948 0.0247589 0.0219452 -0.00605798 0.00326991 0.0408519 0.000909167 0.0170746 -0.0033245 0.0247693 0.00157361 -0.072358 -0.00609915 0.0236309 -0.00958206 -0.00238983 0.0918733 0.0332032 0.0112351 0.0688607 0.0298386 0.0188608 -0.0160857 0.00267147 0.0520535 -0.0158382 0.0157395 0.011615 0.00353655 -0.0302045 -0.018689 -0.0166304 0.025196 0.0292749 0.0224928 0.00329188 -0.0221397 -0.00197894 -0.0363578 0.00975608 -0.00470027 -0.0329967 -0.00433162 0.0172315 0.0227469 -0.00492782 0.0046759 -0.0366948 0.0905024 -0.018798 0.022818 0.0121382 0.0201797 0.0178523 -0.0185242 0.000388647 -0.0431985 0.00732497 -0.00678102 -0.00698189 -0.031441 0.0883768 -0.0478017 -0.00950956 -0.0353607 -0.0170954 0.0324804 -0.014814 -0.0149282 -0.0457384 0.00602189 -0.02005 0.0029666 -0.00131459 -0.02075 -0.00360878 -0.00550167 0.00241947 0.00398768 -0.00737449 0.0391645 0.0135344 -0.00245987 0.030093 -0.0126739 0.0274723 -0.00328507 -0.06435 -0.0506218 0.0516509 0.00278868 -0.035506 -0.00696958 -0.0497428 -0.0312557 -0.00768459 0.0245253 -0.00827508 -0.00620783 0.00586418 0.00116982 0.0101287 0.0168669 0.0326091 -0.0136457 -0.0280665 0.0731693 -0.0130524 0.000526119 -0.0113932 0.0189123 0.00397479 0.0778491 0.0372292 -0.0112899 0.0158254 -0.0327951 0.0161185 0.0093053 -0.0273041 0.0203913 -0.0146636 -0.03923 0.0222429 -0.0120954 -0.0277448 0.00912794 0.00328372 0.0134499 0.0323464 -0.00129469 -0.000212146 -0.0311405 -0.034318 0.00824876 -0.00381329 0.049892 0.028781 -0.0207633 0.00887752 0.0162397 0.00361884 -0.0139599 -0.0186078 -0.0193196 -0.0932264 0.0371436 -0.0642754 0.0602108 0.0177803 0.0620918 0.0234531 0.0490114 -0.00488983 0.0191058 0.0415783 -0.0477732 -0.0167474 0.00525611 -0.0165778 0.0225859 -0.026011 -0.00363166 -0.0623544 0.035223 0.0180567 0.01652 -0.047154 0.0105934 -0.00700812 -0.0188576 0.00193393 -0.0316395 -0.0229598 0.0420161 -0.00265936 -0.0701985 0.0383252 0.0716825 -0.00178519 0.059883 -0.0309704 -0.0932007 0.0491308 0.0086471 0.0975692 0.039626 0.0218021 -0.0127287 0.0110459 -0.0770767 -0.0096528 0.0272185 -0.00333807 0.00202651 0.0248885 0.0536302 0.0406417 0.0273449 0.0784096 0.0254913 0.0703329 -0.0102155 -0.00334222 0.000454815 0.00347922 -0.0053468 -0.0464791 0.0319997 -0.0389864 0.0109671 -0.0685043 -0.0529602 0.0465114 0.0577674 0.0628028 -0.00579848 0.0992581 0.040197 0.039039 -0.020831 -0.00658777 0.0224986 0.0235774 -0.0285082 -0.024916 -0.0168741 -0.0230972 -0.0730902 0.00944087 -0.0163997 -0.0156639 0.0182352 0.0319717 -0.0192712 0.0252321 0.0141148 -0.0109428 -0.00837504 0.0104418 0.0502527 -0.0192439 -0.00676738 0.0220392 -0.0501206 0.0276571 -0.018983 0.0155538 -0.0380244 -0.0247959 0.0108002 0.0173437 0.0421697 -0.0374093 -0.000102849 -0.00378356 0.04493 0.0180996 -0.0318561 0.00261 -0.0229387 0.0099112 0.00525126
